nationality_name,emb_0,emb_1,emb_2,emb_3,emb_4,emb_5,emb_6,emb_7,emb_8,emb_9,emb_10,emb_11,emb_12,emb_13,emb_14,emb_15,emb_16,emb_17,emb_18,emb_19,emb_20,emb_21,emb_22,emb_23,emb_24,emb_25,emb_26,emb_27,emb_28,emb_29,emb_30,emb_31,emb_32,emb_33,emb_34,emb_35,emb_36,emb_37,emb_38,emb_39,emb_40,emb_41,emb_42,emb_43,emb_44,emb_45,emb_46,emb_47,emb_48,emb_49,emb_50,emb_51,emb_52,emb_53,emb_54,emb_55,emb_56,emb_57,emb_58,emb_59,emb_60,emb_61,emb_62,emb_63,emb_64,emb_65,emb_66,emb_67,emb_68,emb_69,emb_70,emb_71,emb_72,emb_73,emb_74,emb_75,emb_76,emb_77,emb_78,emb_79,emb_80,emb_81,emb_82,emb_83,emb_84,emb_85,emb_86,emb_87,emb_88,emb_89,emb_90,emb_91,emb_92,emb_93,emb_94,emb_95,emb_96,emb_97,emb_98,emb_99,emb_100,emb_101,emb_102,emb_103,emb_104,emb_105,emb_106,emb_107,emb_108,emb_109,emb_110,emb_111,emb_112,emb_113,emb_114,emb_115,emb_116,emb_117,emb_118,emb_119,emb_120,emb_121,emb_122,emb_123,emb_124,emb_125,emb_126,emb_127,emb_128,emb_129,emb_130,emb_131,emb_132,emb_133,emb_134,emb_135,emb_136,emb_137,emb_138,emb_139,emb_140,emb_141,emb_142,emb_143,emb_144,emb_145,emb_146,emb_147,emb_148,emb_149,emb_150,emb_151,emb_152,emb_153,emb_154,emb_155,emb_156,emb_157,emb_158,emb_159,emb_160,emb_161,emb_162,emb_163,emb_164,emb_165,emb_166,emb_167,emb_168,emb_169,emb_170,emb_171,emb_172,emb_173,emb_174,emb_175,emb_176,emb_177,emb_178,emb_179,emb_180,emb_181,emb_182,emb_183,emb_184,emb_185,emb_186,emb_187,emb_188,emb_189,emb_190,emb_191,emb_192,emb_193,emb_194,emb_195,emb_196,emb_197,emb_198,emb_199,emb_200,emb_201,emb_202,emb_203,emb_204,emb_205,emb_206,emb_207,emb_208,emb_209,emb_210,emb_211,emb_212,emb_213,emb_214,emb_215,emb_216,emb_217,emb_218,emb_219,emb_220,emb_221,emb_222,emb_223,emb_224,emb_225,emb_226,emb_227,emb_228,emb_229,emb_230,emb_231,emb_232,emb_233,emb_234,emb_235,emb_236,emb_237,emb_238,emb_239,emb_240,emb_241,emb_242,emb_243,emb_244,emb_245,emb_246,emb_247,emb_248,emb_249,emb_250,emb_251,emb_252,emb_253,emb_254,emb_255,emb_256,emb_257,emb_258,emb_259,emb_260,emb_261,emb_262,emb_263,emb_264,emb_265,emb_266,emb_267,emb_268,emb_269,emb_270,emb_271,emb_272,emb_273,emb_274,emb_275,emb_276,emb_277,emb_278,emb_279,emb_280,emb_281,emb_282,emb_283,emb_284,emb_285,emb_286,emb_287,emb_288,emb_289,emb_290,emb_291,emb_292,emb_293,emb_294,emb_295,emb_296,emb_297,emb_298,emb_299,emb_300,emb_301,emb_302,emb_303,emb_304,emb_305,emb_306,emb_307,emb_308,emb_309,emb_310,emb_311,emb_312,emb_313,emb_314,emb_315,emb_316,emb_317,emb_318,emb_319,emb_320,emb_321,emb_322,emb_323,emb_324,emb_325,emb_326,emb_327,emb_328,emb_329,emb_330,emb_331,emb_332,emb_333,emb_334,emb_335,emb_336,emb_337,emb_338,emb_339,emb_340,emb_341,emb_342,emb_343,emb_344,emb_345,emb_346,emb_347,emb_348,emb_349,emb_350,emb_351,emb_352,emb_353,emb_354,emb_355,emb_356,emb_357,emb_358,emb_359,emb_360,emb_361,emb_362,emb_363,emb_364,emb_365,emb_366,emb_367,emb_368,emb_369,emb_370,emb_371,emb_372,emb_373,emb_374,emb_375,emb_376,emb_377,emb_378,emb_379,emb_380,emb_381,emb_382,emb_383
Argentina,-0.018055916,-0.026308596,-0.0855943,-0.015647631,0.018931974,0.08456638,0.04611349,0.12057212,0.044695478,0.063017845,-0.0076771025,-0.08938832,-0.06707218,0.06508713,0.043836396,0.0026246898,-0.03421283,0.012666135,0.051128566,-0.02425808,-0.03626175,0.017640421,0.04070478,-0.026129352,-0.0065820413,-0.08202304,0.028637707,0.0045795226,-0.06279702,-0.13082616,0.025709406,0.017657723,0.07527824,0.021737913,-0.07831486,0.0001039089,0.041870978,-0.097169876,0.008353215,-0.038705774,-0.027818808,0.012641707,0.019124608,0.040600866,0.0002983424,-0.009316272,0.0034824563,0.047074392,-0.028389452,0.021006824,-0.0358539,0.027693566,-0.024772888,0.036308456,0.014548911,0.07371024,-0.0030830824,-0.041597642,0.07343295,0.0062455977,-0.0009907343,0.044138096,-0.025348442,0.008216807,-0.00915303,-0.08415768,-0.0043952246,-0.010361136,-0.013804587,0.026521504,0.06287565,0.01062479,0.011711287,0.005538014,-0.010876024,0.019296203,-0.04903728,0.015224043,0.055597197,-0.035707183,0.03174689,-0.034443274,0.0074578812,0.008456354,0.0288818,-0.001170153,-0.026985087,0.023175867,0.07522785,0.039483063,0.04178115,0.031810053,-0.022221752,0.041547384,0.043904163,0.028303009,0.052119043,-0.053714257,-0.03625613,0.054895572,0.043115377,0.029232085,0.0017138991,0.013547614,0.0028037366,0.04493425,0.07816654,0.034060333,-0.011070797,0.027678074,-0.01691207,0.042776402,-0.09644752,0.032690562,-0.060081974,-0.035296436,-0.017415559,0.033782046,-0.05968017,-0.014618938,0.02301615,0.033670317,-0.08493531,-0.01773582,-0.032024983,0.03336616,0.017444992,4.15345e-34,0.057169344,0.0011904297,0.005515907,0.020707862,0.005963436,0.019018482,-0.0034489427,0.028418314,-0.10179859,-0.032675356,-0.075443506,-0.018893804,-0.029278815,0.039561808,0.04939018,0.04166572,-0.014811009,0.00031689455,-0.0061915247,0.054830432,0.03463541,0.019616041,0.0020104146,-0.033795264,0.049023,0.051831275,-0.004481795,-0.06396622,-0.04053535,-0.00892847,0.0071113077,-0.03742586,-0.098510414,0.009897636,0.028230393,-0.035180513,-0.05363218,-0.004040257,-0.033265714,-0.008042259,0.02361815,0.021633646,-0.05139096,-0.031611472,-0.026702648,-0.027406491,0.008466216,0.018961765,0.0025153034,-0.0026721484,-0.019548625,-0.011092669,-0.036666896,-0.014487901,-0.0207646,0.007513238,-0.021052208,-0.0017844612,-0.045739815,0.02377744,0.06733167,0.011578268,-0.030910064,-0.014714488,-0.059181716,0.0033443903,-0.023502965,0.01094142,0.075863674,-0.060683146,-0.030821795,-0.05696568,0.072643705,0.063314945,-0.0153562855,-0.022627743,-0.0014635937,0.004148718,-0.011826873,-0.028671809,-0.062676474,0.02823536,-0.0025903098,-0.052539933,-0.031560376,0.030651769,0.0130379945,-0.000287553,-0.08817839,0.056372065,0.029708005,-0.0044230735,0.00083034503,0.0039384244,-0.05747962,-2.2904032e-33,-0.04650284,-0.01804373,0.01635086,0.011475415,-0.013556732,-0.001444292,-0.004631908,0.082105145,0.0357862,-0.024468884,0.012923431,0.03393214,0.011777711,-0.05388185,0.020410497,0.03073754,-0.025591008,-0.006525964,-0.011287154,0.003174175,0.08563068,0.0010028195,0.032015044,-0.009429807,-0.02682946,0.0254982,0.06559982,0.033516802,-0.055920713,-0.029945556,0.07805615,-0.037694912,0.017323773,-0.047038574,-0.07676357,-0.015835607,-0.04893787,0.08125776,0.02093731,0.0885262,0.07872094,0.049070023,-0.077718,-0.015053117,-0.0018522406,0.015982516,0.011587774,-0.016026637,-0.022309937,-0.009473808,-0.020070953,-0.0135524925,-0.11639138,0.02433063,0.00539584,-0.0748439,-0.0606941,-0.034491003,-0.058179975,-0.013664088,0.055711146,0.087344006,-0.04590735,0.029708004,0.04301715,0.038568236,-0.043471657,-0.05099389,0.005537827,-0.010577218,0.0052765803,0.007135519,-0.0022661553,0.048396677,-0.06870839,0.030572094,-0.062852405,0.002881408,0.049431864,0.025573874,-0.016712569,-0.041975625,-0.047603313,0.040568814,-0.011968206,0.018389499,0.03477061,-0.060064103,0.0874526,0.03250333,0.04416401,0.0057161488,-5.1715113e-05,-0.05241026,0.011018744,-4.3204995e-08,-0.049838386,0.008707963,-0.04553183,0.03139336,-0.07929683,0.03926737,-0.040620703,-0.058003478,0.071643256,0.04166226,0.06441455,-0.05181697,0.027761573,-0.05470076,0.02779674,0.009433991,-0.026573597,0.11997865,-0.006489242,0.039971482,0.01926441,0.0395358,-0.047513273,0.04544703,0.049888466,-0.019990787,-0.1043567,-0.013821271,-0.047666423,0.025631277,0.03499181,0.03089676,0.06988353,-0.07570614,0.027057346,0.049846094,0.014108909,-0.11344015,-0.0031955794,0.014769435,0.04723686,-0.03852181,-0.060024053,-0.024521107,-0.030705163,-0.0865729,0.011334816,-0.021442512,-0.04858542,-0.029362842,0.080256306,0.033525616,-0.036100257,0.04121029,0.0523061,0.019909972,-0.07773374,0.0030609055,-0.05752831,-0.008476373,0.0523789,-0.11109723,-0.031033292,0.018022569
Poland,-0.0436096,0.03308252,-0.09279406,-0.0016001852,-0.020236975,0.06948049,0.046327703,0.093896285,-0.0037564433,0.043576065,-0.050699838,-0.06284741,-0.016689492,0.078158565,0.011313406,0.00957085,0.010848579,0.061069846,0.01022718,-0.0100466935,-0.059403554,0.00025817077,0.10943599,-0.02993378,0.03416118,-0.08872562,0.020179415,0.06420313,-0.06732386,-0.098980024,-0.019618345,0.026314735,0.033000372,0.02709043,-0.030613732,0.01534231,-0.0077614905,-0.056436244,-0.07725375,0.022850042,0.014439408,-0.014119887,-0.019389892,0.040213216,-0.009578627,0.032149997,-0.03493963,0.0031614956,-0.07513324,0.040924575,-0.081296064,0.02588965,0.009737492,0.012689207,0.027761238,0.032125387,-0.03869216,0.03828216,0.028505217,-0.065902844,0.013442811,-0.005335039,-0.06339442,0.007849702,0.0007013191,-0.09934241,-0.017303433,-0.009520128,0.0010345271,0.0145614,0.05852554,-0.023463935,-0.061145537,-0.04810001,0.0039694975,0.010523835,-0.020846684,0.007897159,0.06510856,-0.06591426,0.07140175,-0.041881792,-0.056584463,0.011596995,0.016118778,-0.0047699977,-0.018235661,0.06991589,0.042337596,0.05805262,0.05999638,0.0362428,-0.014206701,0.0336361,-0.007982027,0.059862934,0.06738012,-0.0105627235,-0.031554963,0.05988366,0.037331242,-0.02173371,0.04497201,0.010601515,0.012709244,-0.0031188412,0.05276938,0.051203232,-0.023029013,-0.011800272,0.0007819211,0.02120634,-0.09524285,0.008196557,0.004933016,-0.008001123,-0.00072971353,0.024121538,0.008241442,0.00035768654,0.0012654942,0.025115838,-0.07771512,0.026260449,0.015125923,0.11446238,0.012108408,3.7357569e-34,0.08042094,-0.0063734,0.02150652,-0.0022000684,-0.039469313,0.019065183,0.006476072,0.006054593,-0.10611641,-0.036052153,-0.07728818,0.008336405,-0.0036536823,-0.0071331942,-0.0064005973,0.01738464,-0.013140577,0.009955563,-0.060186476,0.10325689,0.08146255,0.030848157,-0.03692697,-0.02499357,0.0138807,0.0267931,-0.021214785,-0.06397433,-0.056272358,0.0025502944,0.019054526,-0.06591781,-0.12142428,0.009654087,0.009533064,-0.029959485,-0.11862753,-0.029826222,0.009256608,-0.09921382,0.009484507,-0.044382367,-0.10767215,0.011249788,-0.034172144,-0.018849108,-0.032981478,0.0071713696,-0.022128027,-0.040406656,0.022900918,0.012020469,-0.040392183,0.01741521,-0.06088099,0.02861066,0.04071319,0.028606387,-0.00447433,-0.004236791,0.022051256,-0.01293209,-0.047085334,0.0043665413,0.03876932,-0.07612608,-0.04325655,0.040289406,0.025081558,-0.05439182,0.014271665,-0.0680817,0.08716316,0.08063748,-0.016534964,-0.029674608,0.0042543835,0.026345385,-0.00045923828,0.009520016,-0.063060604,0.021984555,-0.031039769,-0.08833937,-0.055522528,0.008513345,0.015925981,-0.05516776,-0.029094215,0.05180574,-0.0009269266,-0.053031735,0.022169579,-0.012175999,-0.054144677,-2.1552689e-33,-0.010775125,0.053107344,-0.00013372024,0.035292488,0.008970136,-0.0024902318,0.009754115,0.059777986,0.043899614,0.018279156,0.06857005,-0.018936425,0.031221395,0.011392372,0.037811212,0.033266507,-0.016846104,0.042948816,0.046684656,0.0077606426,0.052433614,-0.013193001,0.0038834666,0.06317959,-0.056515258,-0.004190897,0.033898734,0.0034352676,-0.08834183,0.043142352,0.043997064,0.0008816547,0.02433648,-0.018611267,-0.016410269,-0.03205658,-0.037200253,0.05497455,0.00046055525,0.07856506,0.049879912,0.0072814208,-0.0702718,0.044775363,0.061291583,0.0009164286,0.016246427,-0.0040677963,-0.053753562,-0.02303184,-0.012669504,0.07695497,-0.093623236,0.03450685,0.008930398,-0.005559763,-0.06113127,-0.063381165,-0.0043091145,0.0015550512,0.029591633,0.029105384,-0.047356043,0.02091126,0.031824805,0.066024445,-0.0396353,-0.0013510908,-0.044716667,-0.057618815,-0.007333041,-0.010942851,0.04440694,0.031975362,-0.049446363,-0.006255163,-0.05265991,0.079531685,0.012981311,0.008830653,0.011702172,-0.056862917,-0.044814818,0.036158588,-9.175511e-05,-0.01416335,0.035326038,-0.04598777,0.021858387,-0.019510707,0.016226765,0.038259003,-0.0058023073,0.028406309,0.05001612,-4.1823093e-08,-0.025381487,0.03844628,-0.036573783,0.055284537,-0.037078023,8.0636666e-05,-0.033953823,-0.0572769,0.019994592,0.032982063,0.065100096,-0.05782703,0.017985273,-0.055477224,0.05791942,0.04806293,-0.0467169,0.09100967,0.0019408454,0.11525264,0.06012733,0.02040871,-0.02966043,0.028737573,0.0030828288,0.02960268,-0.048770465,-0.011701438,-0.0052018785,-0.007883715,0.052829966,0.04643811,0.07486842,-0.005920006,0.020534422,0.066862784,0.010314175,-0.083336376,-0.0058622356,0.057721563,-0.053168666,-0.047732808,-0.0031013347,-0.029661626,-0.051152438,-0.06614505,-0.023118213,-0.07232843,-0.03564838,-0.034527987,0.028142627,0.046167806,-0.031727735,0.007287008,0.10276862,0.04892871,-0.0408856,0.02396739,-0.09468586,-0.039451577,0.041467987,-0.076026656,-0.022673352,0.0035601554
Portugal,-0.024076417,0.009021928,-0.08123633,-0.004773274,0.0082629975,0.09455119,0.0045873397,0.10445313,0.032840338,-0.0002704057,0.014147395,-0.14547229,-0.061967984,0.06739834,-0.0048029562,0.009741224,-0.015724467,0.02889484,0.023791201,0.023954114,-0.05418911,0.0039796988,-0.0025742438,-0.019111896,-0.016507646,-0.053013638,0.07438092,0.023995446,-0.08434858,-0.10961863,0.01606778,-0.024243014,0.05234464,0.01894494,-0.11433406,-0.0060088723,0.0007181479,-0.083153896,0.029428177,0.047859523,-0.008333099,-0.029759036,-0.020858625,0.023644127,0.01577854,0.012542813,0.018629856,0.015826883,-0.033872996,0.018956868,-0.06498002,0.05973677,-0.024332471,0.02772154,-0.008794895,0.030572994,-0.004055445,0.028286804,0.03593067,-0.0235311,0.050945126,0.034300692,-0.0023192836,0.0050445297,-0.034543194,-0.081133775,-0.02530718,0.010534899,-0.0042942534,0.014771483,0.008954209,0.0027601263,0.027184345,-0.040843148,0.032501042,0.07496131,-0.074763775,0.014234214,0.06048809,-0.073291555,0.035476416,-0.039140146,-0.059212472,-0.011641459,0.044302035,-0.012276563,0.041715257,0.03495948,0.039568786,0.0437039,0.053735618,0.035760753,-0.036344577,0.04824391,0.019732188,0.040266912,0.041362606,-0.0053416304,-0.059522506,0.032870673,0.007954141,0.048476923,0.019035611,0.0113384165,-0.024711544,0.03766852,0.07152965,0.037739925,5.699689e-05,-0.010259793,-0.02706617,0.024545757,-0.093198836,-0.0066769645,-0.02402662,-0.0001845413,-0.042285744,-0.013273127,-0.026999822,0.004396563,0.025856765,-0.016036857,-0.0676955,0.004093449,0.018752092,0.058820464,0.040972814,1.1675495e-33,0.0767349,-0.0028496312,0.001907592,0.01298118,-0.017754463,0.009814022,-0.04449742,0.012908453,-0.099810354,-0.04645935,-0.05597991,0.005549281,-0.040370367,0.040966716,0.022354348,0.056798197,-0.025154183,0.01337638,-0.050350737,0.04231762,0.039750066,0.016074544,-0.030530576,-0.026875483,0.038843405,0.085631855,-0.03816004,-0.09411012,-0.040249504,0.0024422863,-0.011324867,-0.064240105,-0.11287337,0.015896307,-0.04001961,-0.023681346,-0.08671645,-0.01978646,-0.0044538486,-0.019757489,0.035565406,-0.005898546,-0.022602202,-0.008855738,-0.07665695,-0.053872205,-0.015870666,0.028829824,-0.017505992,-0.015825246,-0.036640115,-0.056830764,-0.0021451449,0.021904252,0.008302068,-0.06484004,-0.05649326,0.04463431,-0.031651244,0.0018805838,0.061321635,-0.024722928,-0.029188091,0.038039196,-0.02834927,-0.04862328,-0.036840223,0.06878043,0.060973305,-0.08322533,-0.0065832934,-0.0017099981,0.10817587,0.058601223,-0.047209427,-0.04470367,0.028309219,-0.007311771,-0.0031512168,0.032970358,-0.069952376,0.01953845,-0.012508659,-0.08988919,-0.02325716,0.05423574,0.030605597,-0.00821984,-0.05573762,0.09090402,0.003347401,-0.0023629956,-0.011823305,-0.028100416,-0.007667382,-3.1317392e-33,-0.017850442,-0.0023676744,0.024857506,0.008821812,0.00508657,0.003095038,-0.013822004,0.06906945,0.007690015,-0.033473555,0.021598859,-0.024273027,0.01631544,-0.042127024,0.019854603,0.020873891,-0.0019421518,-0.007835994,0.03263896,-0.00017243369,0.09884322,-0.0057573766,-0.007390448,0.015655229,-0.019914208,0.019592494,0.016341101,0.021366833,-0.07652154,0.019123651,0.06112717,0.018608887,0.017566128,0.0042576506,-0.05876149,0.001220573,-0.048840843,0.087927066,0.018660728,0.11309862,0.06428671,-0.011655152,-0.08452128,0.01957659,0.031846076,0.029012041,0.022557015,-0.033009812,-0.0049122255,-0.0050598225,0.0035918541,0.026043918,-0.12243696,0.026404724,0.005444468,-0.02339719,-0.06535416,-0.047336992,-0.039301414,-0.0080261715,0.02634442,0.04870219,-0.0326285,-0.012634661,0.0064651463,0.09279494,-0.049746796,0.006244026,-0.012064397,-0.05027632,0.034727734,-0.03290456,0.021045903,0.05919639,-0.040766466,0.0016514865,-0.043441102,0.05227111,0.0063227275,0.03197176,-0.005343205,-0.11519896,-0.020264145,-0.0065425457,-0.008245095,0.01754239,-0.001268297,-0.073098145,0.024838243,0.011726586,0.012721102,0.033439294,-0.0043321983,-0.02237687,0.0205436,-4.326347e-08,-0.012378599,-0.0071299863,0.00045018303,0.03771015,-0.0501477,0.0502285,-0.03247387,-0.017697679,0.008751358,0.042118657,0.09604431,-0.07560061,0.019907158,-0.04617581,0.08336235,0.001727003,-0.031578526,0.13372037,0.0058255414,0.060268704,0.0036413986,0.022331709,-0.03775381,0.0015091787,0.0355399,0.02043265,-0.059343554,-0.024766762,-0.052089978,-0.0045200945,0.1012557,0.03440025,0.08788335,-0.025076594,0.010255031,0.055256747,0.014116156,-0.055947915,-0.03215331,0.00479619,0.02723942,-0.04249357,-0.09814024,-0.03357283,0.009723371,-0.04332869,-0.00533006,-0.03426058,-0.02928789,-0.048076626,0.032773327,0.041961607,0.019674247,0.030552479,0.07013634,0.044057433,-0.01963158,0.032273933,-0.04100742,-0.02397152,0.022181619,-0.06292725,-0.025210239,0.0132038165
France,-0.0077372864,-0.02043395,-0.06513064,-0.065598406,0.026552843,0.07673082,0.043667097,0.123537935,0.04253222,0.028278332,-0.028431347,-0.08722661,-0.00067173823,0.0502094,0.016275236,-0.02796917,-0.005884703,0.022084957,0.026137184,-0.012625188,-0.058040656,0.024155218,0.08576032,-0.043173924,0.0081337765,-0.10022275,0.02325221,0.019544752,-0.059217744,-0.12549481,0.040548388,0.030320069,0.023205204,0.008286216,-0.08195456,-0.0030875602,-0.013991917,-0.06490593,-0.013481579,0.03555008,0.005298066,-0.040046614,-0.030266948,0.004778961,0.0066565475,0.029294537,-0.015351787,0.021383103,-0.044281237,0.01704897,-0.05396228,0.08487764,0.0020501271,0.018398361,-0.0119651975,0.042294495,-0.019671047,0.0030928864,0.07965233,-0.030559104,0.021640904,0.039432652,-0.012534276,0.015118761,-0.010044083,-0.08380812,-0.0375238,-0.011941846,-0.020409595,0.029283691,0.021488998,-0.0035195665,-0.0230346,-0.054468453,0.06717491,0.039053135,-0.06632215,0.015667731,0.05785034,-0.07828536,0.042635262,-0.047328606,-0.003148011,0.021640895,0.042357206,0.00012612424,0.05459802,0.029524729,0.058317475,0.012098054,0.028676294,0.0056698243,-0.00037333817,0.053461954,0.00933715,0.04196661,0.044142134,-0.028559973,-0.07244813,0.052069515,-0.0095521975,0.019519895,0.015458193,0.031985816,-0.019479657,0.020329352,0.055001903,0.04443571,-9.361414e-05,-0.021599738,0.0017328761,0.022758048,-0.090106204,6.758579e-05,-0.009750128,-0.025600638,-0.02748584,-0.010647959,-0.016480712,-0.010610599,0.02080225,0.011105796,-0.08333195,-0.008902487,0.0028824448,0.0703198,0.018907882,7.344101e-34,0.07635062,0.03445496,0.05823251,-0.016808145,-0.02787866,-0.012675594,-0.038259894,0.022137342,-0.09839014,-0.03165473,-0.060845092,-0.002918975,-0.022752061,0.06432593,0.02873048,0.027638571,0.0029802485,0.026386255,-0.024664948,0.054454777,0.06871364,0.02776283,-0.007325946,-0.0022459584,0.06656396,0.034158863,-0.013684758,-0.038573004,-0.07010896,-0.007288253,-0.014469455,-0.07667841,-0.089556865,0.039006755,-0.022101736,-0.016977124,-0.09313974,0.0047385846,0.014482671,-0.02906919,0.018510634,-0.0016703135,-0.052000903,-0.04261372,-0.064018525,-0.022094416,-0.0030532526,-0.007635169,-0.017982846,-0.009835251,-0.00048065218,-0.020576624,-0.020425677,-0.0066811284,-0.004725304,0.012925913,-0.011687406,0.007215332,-0.033087563,-0.02037621,0.055065207,-0.005579808,-0.057132572,0.016045904,-0.041078035,-0.02919054,-0.01724708,0.031113762,0.044578005,-0.11537837,-0.030318862,-0.012819918,0.10673033,0.039681215,0.028281195,0.01686638,0.0011958904,-0.0012803718,0.015382825,-0.027486997,-0.05614989,-0.022604218,-0.042708606,-0.05455522,-0.047730748,-0.014188054,0.01529671,-0.018894805,-0.052306823,0.044392195,-0.019117376,-0.061173525,-0.0015578296,0.0042273263,-0.06625959,-2.1942602e-33,-0.02844007,0.048554394,0.02600085,0.038181018,0.041530665,0.00033756666,0.030892748,0.07896229,0.04239244,-0.018155497,0.03274615,-0.017517854,0.017677046,-0.033087008,0.01905646,0.034624595,-0.005911179,0.0069657248,0.021902248,0.011998044,0.0792962,-0.015568131,-0.011797901,0.004034313,-0.03737498,0.05860821,0.04318861,0.016229445,-0.083359346,-0.005400778,0.040344436,0.016565055,0.03597411,-0.0064531392,-0.038028087,-0.0037985507,-0.03690844,0.08471118,0.020964766,0.074472815,0.029235598,0.0019162328,-0.040020004,0.017858455,0.05749811,0.0031035696,0.015492423,-0.046628162,-0.014973781,0.014950514,-0.013401303,0.074842244,-0.095586896,0.02667335,-0.016345585,-0.015627837,-0.044818133,-0.02327637,-0.056476187,-0.013344251,0.05961589,0.0730621,-0.025307776,0.03462779,0.02426819,0.040271763,-0.0861822,-0.0035831335,-0.041188903,-0.054810666,0.018855847,-0.021968486,0.042760924,0.040450595,-0.050869405,-0.0024032998,-0.059820134,0.028172886,0.027489245,0.042442907,-0.021523006,-0.0965216,-0.061382394,0.03160918,-0.029194638,0.035943836,0.025650507,-0.09091063,0.08423374,-0.032456603,0.042406805,0.0037872777,-0.023363343,-0.00397061,0.07501994,-4.390615e-08,-0.0011426162,0.019227386,-0.039358262,0.038520534,-0.06364592,-0.013642,-0.033353247,-0.043037638,0.021764543,0.030031782,0.0657086,-0.04265159,0.014469331,-0.06765665,0.057971828,0.012169535,-0.03993674,0.0952772,-0.00043630128,0.06915602,0.02678141,0.013809326,-0.022204105,0.00046867845,0.049977787,-0.040323816,-0.06481946,-0.045917094,-0.046723604,0.020091502,0.060480412,0.046306677,0.05065219,-0.06620727,0.02586738,0.040682863,-0.01158473,-0.059731916,0.03053116,0.042969577,0.03613219,-0.016041858,-0.045678955,-0.02903592,-0.008278802,-0.047750223,-0.00017132307,-0.0487481,-0.014517065,-0.058326457,0.03801673,0.068499275,-0.025320176,0.011649428,0.07570291,0.07119492,-0.08487579,0.029144222,-0.040046424,-0.0510289,0.017386355,-0.05673139,-0.01500022,0.0068784766
Belgium,-0.0045893705,-0.015883269,-0.043396275,-0.029692175,0.020455575,0.08694449,0.014473914,0.13497387,0.027144393,0.004711833,-0.032287296,-0.10947708,-0.0053614257,0.015333994,0.032796632,0.004714367,-0.002319729,0.031981967,0.038074944,-0.028379995,-0.07488134,0.01776993,0.06327693,-0.047549542,0.022126958,-0.060176462,0.054290492,0.0051939087,-0.06501325,-0.10789097,0.0036147535,-0.0023088495,0.034059506,0.0014417688,-0.0519063,0.01466178,-0.032230705,-0.073144265,-0.038002864,0.018642258,0.017097306,-0.022624627,-0.0086264,-0.020545235,-0.003610968,0.026193833,-0.007793291,0.023888007,-0.054845773,0.011785046,-0.016002001,0.056714892,0.015873685,0.047805004,0.00929727,0.042097528,-0.057564307,0.024787951,0.09245796,-0.03989806,-0.003956164,0.051360033,-0.004901132,0.0061222864,-0.021181507,-0.0825568,-0.06559939,0.006427383,0.018746896,0.019889697,0.051193986,-0.018647507,-0.022170912,-0.035449337,0.04776823,0.028121946,-0.072710946,0.020212594,0.05912252,-0.07307434,0.04310553,-0.018129855,-0.005846559,-0.004163194,0.017776616,-0.02567325,0.06447318,0.023540694,0.05436786,0.004770024,0.037400868,-0.017706072,-0.02065757,0.025565004,0.014550621,0.031783655,0.086446725,-0.018749395,-0.054703947,0.06041417,0.029267268,0.005611687,0.0047008456,0.03513512,-0.0031718514,0.0001358493,0.048305202,0.04165518,0.028879246,-0.0014586258,0.030357536,0.02524913,-0.099651255,-1.5728327e-05,-0.0021694694,-0.047125895,-0.036849134,-0.006814458,-0.0058682696,0.02917841,0.039332163,-0.013267802,-0.084360965,0.027686559,0.019575756,0.05614072,0.040852662,7.451263e-34,0.05395247,-0.01837702,0.059318177,-0.0059735538,-0.011896789,-0.023202918,-0.038285766,0.018726083,-0.08917304,-0.058026526,-0.08592222,0.0010740255,-0.020198904,0.022636006,0.028955115,0.039075457,-0.0406711,0.033634737,0.005494983,0.05451963,0.03625024,0.01785986,-0.015933648,-0.009275085,0.019700358,0.031117897,-0.001733402,-0.0911981,-0.041903343,0.008187774,-0.020321267,-0.07697387,-0.10209587,0.033000678,-0.05833128,0.0053916043,-0.100346796,-0.026963005,-0.024165526,-0.049623918,0.009531302,0.0070157833,-0.074738845,-0.054704413,-0.04862844,0.008001733,-0.006170251,0.0079301065,-0.03477232,-0.0008115794,0.014009915,-0.03051572,-0.029078238,-0.01004327,-0.0023549923,0.000256981,0.012721606,0.028236309,-0.022958945,-0.0014765774,0.07255956,-0.013705089,-0.03655336,0.004271912,-0.017619452,-0.02162253,-0.044964038,0.034944,0.054085802,-0.119897306,-0.040155925,-0.021027377,0.09457816,0.047343533,-0.0027824854,0.033318225,0.008472561,0.008990469,0.006361304,0.009154281,-0.049205072,-0.010951445,-0.058961134,-0.07476445,-0.026850391,-0.021810377,-0.017020237,-0.018721413,-0.0523136,0.068928964,0.001846992,-0.04673996,-0.030275285,0.031573284,-0.07482638,-1.7717679e-33,-0.032540765,0.016866669,0.02718932,0.030367991,0.021194186,-0.0021734794,0.002964332,0.104449496,0.049309462,0.009141928,0.048386227,-0.02671871,0.01651211,0.023377195,0.012084768,0.043739613,-0.018079797,0.028514678,0.03884894,0.026485924,0.08025361,-0.040845755,-0.019053614,0.0012378434,-0.06225475,0.067899324,0.01802989,0.0007035667,-0.081423245,-0.012702141,0.041520506,0.014590807,0.025210768,0.0018315524,-0.05282226,-0.010989081,-0.030641416,0.07461542,0.03272993,0.063611485,0.053408224,0.020729454,-0.039949447,0.030660676,0.038564406,-0.032107458,0.0247845,-0.037016675,-0.007892057,0.0020117094,-0.0097129205,0.045708545,-0.103902824,0.033986993,-0.049366284,-0.02127958,-0.035749216,-0.016942473,-0.04069124,-0.004593963,0.02935611,0.06692723,-0.012356542,0.044438176,0.019347265,0.072177716,-0.09422422,0.013820083,-0.041789185,-0.06551302,0.033924285,-0.02199399,0.06651422,0.028125487,-0.028190142,0.0037645649,0.00722937,0.029040465,0.009804013,0.02192184,-0.024137923,-0.081839465,-0.04843737,0.050058376,-0.043236297,0.06611477,0.05073001,-0.06220015,0.06848437,0.002843171,0.03037873,0.04010818,-0.010389778,0.011882407,0.054833714,-4.376507e-08,-0.06500012,0.015353921,-0.046943385,0.083910026,-0.026161462,0.019692132,-0.03680918,-0.029696947,-0.0002795168,0.028441804,0.06912668,-0.04635941,-0.029271385,-0.07894372,0.0760683,0.040633705,-0.06986972,0.114161715,-0.0034408986,0.059899904,0.02302068,0.013420805,0.015917715,0.02023365,0.029973578,-0.012667053,-0.035238866,-0.031056283,-0.015742645,-0.018670082,0.041441,0.07908066,0.0210446,-0.033940244,0.0229252,0.025168719,-0.027120814,-0.047034606,0.007485982,0.049469836,-0.0028204662,-0.0076448144,-0.047000643,-0.03363149,0.0004279845,-0.03964122,-0.013721956,-0.02073544,-0.03267018,-0.065175354,0.012148902,0.014818379,-0.007465464,0.03215001,0.07542861,0.04122307,-0.069413096,0.020854153,-0.06857261,-0.035539385,0.013746474,-0.06732039,-0.010747288,0.04727675
Egypt,-0.03367774,0.020984463,-0.066476375,-0.03261082,-0.042557046,0.0855779,0.05436233,0.06336695,0.014441296,0.07467809,-0.024536254,-0.099498376,-0.02161613,0.030411601,0.02963803,-0.023982726,0.010166589,0.023589348,-0.0005302264,-0.04438801,-0.04589565,0.028190834,0.06754672,-0.027405497,0.009164048,-0.06910832,0.014768521,0.06819224,-0.052253082,-0.12555033,0.030332638,0.009875736,0.068945915,0.031253744,-0.0673196,0.05602363,-0.013958873,-0.07937977,0.017214954,0.035586294,0.083980896,0.0152396625,0.029801935,0.010458783,0.0031830897,0.010743765,0.003179257,0.0030206004,-0.024132995,0.056362502,-0.08047771,0.052199338,-0.004782129,-0.0122709675,-0.007065757,-0.010961594,-0.028826542,-0.009612819,0.033072744,-0.09416738,0.0011435442,0.06133563,-0.03218483,0.01615956,-0.0207045,-0.114796825,-0.024466507,-0.032519236,0.03335638,-0.015537588,0.01887294,-0.0014545489,-0.028501607,-0.010026384,-0.0040603685,-0.023139916,0.008127546,-0.057057634,0.064549655,-0.036416803,0.057004478,-0.06097826,-0.036445662,0.021677267,0.024093306,-0.04332077,-0.021541541,0.074137464,0.0697589,-0.008631951,0.07971592,0.011467528,0.0005006023,0.034013152,0.051185735,0.06285063,0.010740749,-0.033441823,-0.07806662,0.071236126,0.0039561335,0.009738833,-0.00080047833,0.025563886,0.0074817706,0.01866799,0.047529463,0.04678714,-0.03748779,-0.014846616,-0.005040901,-0.00793975,-0.08580516,0.028843846,0.021881487,-0.005483741,-0.05360928,0.008409922,-0.021750314,-0.03510212,-0.006587489,-0.023784224,-0.012958817,0.011208218,-0.0151686855,0.06536662,-0.013622899,2.070052e-34,0.050728574,-0.018210422,0.036572807,-0.023291703,-0.020611413,-0.00837729,-0.024038725,0.031190816,-0.09714608,-0.03999496,-0.053106844,0.010429666,0.0055738515,0.017048918,0.015849238,0.015550918,-0.017242711,0.011955696,-0.06801172,0.08259751,0.03128858,0.029603846,0.014674013,-0.028979199,0.052114945,0.018341064,-0.027015308,-0.039798513,-0.013969796,0.013463011,-0.0019373099,-0.03628454,-0.13181241,0.0043976507,-0.002470068,-0.02268327,-0.15529922,-0.007540539,-0.009319832,-0.050135475,-0.011455327,0.0021955785,-0.043934323,-0.036321044,-0.05891837,0.025867857,-0.013026144,0.023489147,0.008435781,-0.04016859,0.035534285,0.004947622,-0.041438986,-0.021397552,-0.02644562,-0.04910572,-0.02013996,0.04116946,-0.024046639,0.044651274,0.056697454,0.0038737506,-0.041360185,0.024986975,-0.021280667,-0.05065975,0.009874915,0.05803013,0.05442363,-0.07143022,0.020513065,-0.038520887,0.076850705,0.07135235,-0.024009727,-0.0021624018,0.03371292,0.0032212473,-0.035494443,0.012523527,-0.0504608,0.013777884,-0.017983353,-0.065585606,-0.06658973,-0.013978157,0.05550387,-0.025777739,-0.05631411,0.018898793,0.010254787,-0.020193435,-0.0075418884,0.0052311835,-0.038708773,-2.3142027e-33,-0.025386563,0.022892987,-0.027562924,0.0072227707,0.0044527855,-0.027488036,0.067280084,0.0802274,0.04530312,0.015890868,0.08941034,0.0107821785,0.025142752,-0.051448602,0.065144144,0.0055419677,-0.020408386,0.028120687,0.01393722,5.958395e-06,0.09816671,0.0019319286,-0.0034939353,0.009342043,-0.01641471,0.008788866,0.005163444,0.034741696,-0.0914324,0.022109292,0.06434764,0.014267771,0.0042311144,-0.013476046,-0.06663987,-0.011507177,-0.0380638,0.0460952,0.018032696,0.0716295,0.11246499,0.050688438,-0.028422581,0.04128851,0.06735202,0.045831934,0.008170433,0.0024396526,-0.042774275,-0.02502599,-0.036958694,0.037747025,-0.06646666,0.013141654,0.015058181,0.015655648,-0.05476462,-0.004318133,-0.05890886,-0.03727348,0.018157925,0.016825086,-0.008416713,-0.005174273,0.005084533,0.026112508,-0.0225583,-0.03651172,-0.030006608,-0.017373111,0.00044123948,-0.012639357,-0.004614214,0.025701182,-0.07431859,0.06624505,-0.08071324,0.041608326,0.02243264,0.02032116,-0.015145075,-0.067146756,-0.054967,0.041615736,0.011810547,0.034147695,0.030473858,-0.05603312,0.053113654,0.008262119,0.03115622,-0.032527797,0.015381072,-0.0105787655,0.010051448,-4.4873744e-08,-0.062499404,0.013704373,-0.012190099,0.037425146,-0.06255121,0.08857906,-0.04475145,-0.05934557,0.04467759,0.046468705,0.08423379,-0.06613327,0.023582853,-0.044055924,0.022258852,0.028013848,-0.07158281,0.10020647,0.005240539,0.023602027,0.015950054,0.003917045,-0.030146718,0.052121438,0.004982737,0.011259215,-0.072595336,-0.022756372,-0.04347105,0.029625736,0.06800002,0.02129911,0.103434056,-0.061612025,0.023990395,0.039763045,0.025172556,-0.10500227,0.0036986093,0.042112954,0.01990938,-0.030672409,-0.030331654,-0.013143597,0.008140329,-0.05564527,0.024413597,-0.06242058,-0.05859385,-0.07002432,0.09408906,0.044633254,-0.0125228055,0.03791391,0.08815099,0.018730449,-0.109758765,0.012489352,-0.04465688,-0.012265178,0.08280895,-0.075058825,-0.039731134,0.011220531
Germany,-0.00719793,-0.004404441,-0.07783242,-0.027724598,0.0012908175,0.12034173,0.03875741,0.13580722,0.032436214,0.01483965,-0.03821605,-0.11294928,-0.021877155,0.06481839,0.029264372,0.004191932,-0.0067011393,0.0014125884,0.028025862,-0.0313626,-0.08854759,0.013952042,0.07048521,-0.061823957,0.030554324,-0.074682206,0.04404327,-0.0074825673,-0.07975114,-0.119510725,0.038631245,0.008859218,0.045677878,0.0039608674,-0.020049214,0.005565645,-0.0047815195,-0.06544253,-0.040349223,0.018257134,-0.029765313,-0.02985405,0.00047707462,0.027175657,-0.015327707,0.057483457,0.011796304,0.027336579,-0.0633391,0.04758236,-0.046357427,0.035409793,0.01359057,0.068761356,0.04764852,0.036544614,-0.034004644,0.015796533,0.034387235,-0.042253762,-0.011030567,0.026671408,-0.028652584,-0.00493607,-0.015703006,-0.09518389,-0.04367003,-0.01951633,-0.012388172,0.027041864,0.055515014,-0.028815087,-0.019611169,-0.026729196,0.041837722,-0.014899258,-0.05792161,0.022038411,0.085110515,-0.067105934,0.026838496,-0.025415733,-0.021466428,0.008474711,0.0019877462,-0.009700747,0.008269823,0.021156404,0.059203327,0.03086206,0.039881364,-0.014980681,-0.009082721,0.0328805,0.011230558,0.04152334,0.075521536,-0.026406553,-0.022065785,0.049932458,0.009251452,-0.0016308127,0.00802981,0.031592727,0.0020398945,-0.001278499,0.06116731,0.07589301,-0.0069386833,-0.009902361,0.027945496,0.032821447,-0.0797969,0.012177327,-0.0061764945,-0.045387052,0.001280075,0.010866649,-0.013506339,0.0013814323,0.033559177,0.017531596,-0.055054966,0.048610814,-0.014398054,0.08626609,0.039092183,2.5516894e-34,0.061219305,-0.03289385,0.031883482,0.002278965,-0.0431837,-0.004613151,-0.0071752225,0.021525376,-0.10362596,-0.047228582,-0.06705861,-0.015439079,-0.01627768,0.021517817,0.010007599,0.033330098,-0.034218553,0.017473299,-0.02330791,0.08266259,0.07171666,0.024908511,-0.008573795,-0.008773937,0.051224146,0.03919261,0.016361143,-0.046422236,-0.042989217,-0.005849661,0.015032956,-0.069043994,-0.11950168,-0.017210957,-0.02096524,-0.00645181,-0.09447009,0.010599791,-0.026670061,-0.05760277,0.037710935,0.0016675955,-0.09208644,-0.04367471,-0.016069973,0.0051125274,-0.030227656,-0.0013773735,-0.02754045,-0.01958339,-0.0010822434,-0.012706038,-0.013874074,0.020917028,-0.01613258,0.036095314,0.038743086,0.011445406,-0.04459166,0.013784808,0.014647325,0.012873769,-0.052188203,-0.005783289,-0.009920068,-0.037923552,-0.017252088,0.028721428,0.013294871,-0.06076958,-0.028599922,-0.04172543,0.10238661,0.05490333,-0.031251453,-0.025407026,-0.013132949,0.03233863,0.00081811554,-0.02412277,-0.05827867,0.0064982544,-0.036305163,-0.0787389,-0.028334018,-0.018293394,-0.018182253,-0.037032433,-0.07998167,0.057270896,0.008856116,-0.021416891,-0.025698593,0.027547795,-0.0818108,-1.9968273e-33,-0.030514192,0.0008441576,0.020335939,0.03573232,0.01198974,0.033264507,-0.00084153615,0.10178893,0.032507367,0.0050246273,0.03692486,0.01663541,-0.007878554,0.013920936,0.022640057,0.0155810425,-0.019351536,0.018876214,0.021349924,0.021289576,0.09960145,-0.027283749,-0.007341866,0.0017740309,-0.06920595,0.045080595,0.048263725,0.046736073,-0.07115871,0.0073952335,0.05640444,-0.022469025,0.022340294,-0.045035634,-0.040033437,-0.011499444,-0.05158101,0.07870806,-0.0009241365,0.06600272,0.05772845,0.027281849,-0.08492073,0.027405912,0.037907247,-0.009128123,-0.020688955,-0.023089437,-0.033952143,0.0005305767,-0.019292202,0.016651666,-0.078523636,0.019620197,-0.041424554,-0.025250224,-0.05737821,-0.04473312,-0.0044579473,0.006094293,0.04370013,0.073358655,-0.012374784,0.03545495,0.024021959,0.034810565,-0.058513537,-0.025153896,-0.027370252,-0.03298873,-0.005633357,-0.0019510539,0.06353564,0.036080405,-0.044457953,-0.0020111313,-0.028174492,0.06228681,0.029078119,0.033304267,-0.002439285,-0.04750494,-0.027643882,0.05641012,-0.0021535873,0.04078646,0.04539256,-0.055605788,0.06959283,0.007872096,0.017751347,0.032299634,0.0016160844,0.0028479,0.04213218,-4.378641e-08,-0.06276004,0.013166878,-0.04075085,0.044953987,-0.062380828,-0.003839712,-0.04121812,-0.06199921,0.018135121,0.016736478,0.069299884,-0.03209209,-0.011192091,-0.0556164,0.056544717,0.013608513,-0.05750383,0.08682707,-0.00089953316,0.08694801,0.03893987,0.026007464,-0.0016751622,0.037700143,0.037814196,0.009807085,-0.056436628,-0.026484545,-0.034710597,0.011536612,0.036618643,0.067667276,0.0683071,-0.0054658484,0.014656084,0.0394445,-0.02520961,-0.08169297,-0.001994943,0.05228698,0.005245296,-0.028919488,-0.040213365,-0.03856879,-0.025816068,-0.06872707,-0.020977331,-0.03758582,-0.03649459,-0.050704274,0.033280667,0.03769981,-0.04090795,0.036076017,0.055829793,0.066857114,-0.070367314,0.018389992,-0.059328727,-0.03401153,0.047067143,-0.095901825,-0.02689261,0.036038313
Brazil,-0.009186678,-0.034292422,-0.07735167,-0.016571019,-0.0014641985,0.082896344,0.028435625,0.11057161,0.027595917,0.04063916,-0.0016223688,-0.117575444,-0.05341119,0.07092212,0.018979264,-0.015654154,-0.027871415,0.013137914,0.04167361,-0.0021645636,-0.048808306,-0.007964398,0.015958626,-0.010332432,-0.012291307,-0.020528996,0.048467197,-0.013253512,-0.06524005,-0.13267747,0.021818377,0.0032496802,0.074859716,0.006780481,-0.09675398,0.018869782,-0.0073093995,-0.0730755,-0.004241811,0.017794065,0.0024326046,-0.032286428,0.009601268,0.01361297,-0.008488488,-0.023468874,0.03026174,0.04420747,-0.0040557724,0.0038012648,-0.061634295,0.0850689,-0.035369415,0.055520695,-0.00734013,0.04475956,0.02291393,-0.025919402,0.046579827,-0.010751033,0.02696873,0.038079288,-0.00052799156,0.0047505586,-0.028349569,-0.11425286,-0.045118693,-0.008652095,-0.030058976,0.040932965,0.03255333,0.008976975,0.036113065,-0.036201894,0.025394954,0.05928525,-0.043056387,0.019513113,0.06654194,-0.052820846,0.026675506,-0.040776893,-0.032712758,0.006987702,0.013672436,-0.0031578084,0.03985202,0.010766986,0.058936123,0.016875124,0.050820515,0.028644979,-0.006631439,0.032666754,0.015785666,0.04342794,0.058310833,-0.02780751,-0.04546653,0.027459314,0.009356105,-0.014606499,0.0016831026,0.02003452,-0.013780269,0.029855136,0.033993304,0.051279042,0.021224573,0.018622003,-0.019114887,0.018914836,-0.10152007,0.06568988,-0.036711648,-0.01913618,-0.034803636,-0.0019440384,-0.037497025,0.008112432,0.03204265,-0.04125903,-0.05122132,-0.013740106,0.0074450984,0.037565123,0.02399746,7.489734e-34,0.07516596,-0.016672272,0.0423295,-0.012604231,-0.025010651,0.01161091,-0.038345687,0.0364813,-0.103115074,-0.053553034,-0.066978365,0.027439961,-0.038413156,0.07118222,0.028579755,0.076233424,-0.039364357,0.012680626,-0.03022144,0.054194536,0.05693792,0.044189636,-0.03306159,-0.0065133306,0.03735593,0.087788016,-0.04186186,-0.09513036,-0.07668731,0.004558507,-0.010465875,-0.07055799,-0.10646609,0.043334838,-0.04678436,-0.0114646405,-0.06414803,-0.007067393,-0.03276645,-0.0028910742,0.028410418,-0.0053292518,-0.035090737,-0.04702453,-0.04689701,-0.023745716,0.0034932205,0.0059795217,-0.0041505746,0.03145996,-0.04289773,-0.040626697,-0.000896534,-0.0044747144,0.009269324,-0.027558025,-0.032012526,0.027721886,-0.025831727,-0.0010054408,0.040554166,-0.0077026235,-0.033117395,0.0066606486,-0.052865542,-0.023786044,0.016817067,0.044325072,0.06806713,-0.083005086,-0.04876471,-0.0065376726,0.06905236,0.060598925,-0.020750098,-0.05063884,0.018969819,0.020765083,0.010818977,0.021265486,-0.040097956,0.04179325,0.0062102964,-0.05618217,-0.0135709895,0.04969792,-0.00033683024,0.029782461,-0.08898151,0.08100947,-0.008641011,-0.008661903,-0.016820995,-0.0024507332,-0.043831557,-2.911041e-33,-0.029019028,-0.04911965,0.045910258,0.041553102,0.0040472727,0.0036108084,-0.018294618,0.117572546,0.014755293,-0.03222033,0.026334526,-0.00096096075,0.024965048,-0.035485208,0.008862855,-0.0041926517,-0.007056117,-0.018339142,-0.025609778,-0.00011749493,0.091863185,0.0044377027,-0.008561646,-0.004939498,-0.044383384,0.005132057,0.05911895,0.0016565344,-0.084532835,-0.007875427,0.04721548,0.013771465,0.005332861,-0.016452013,-0.041934654,-0.051858194,-0.05539699,0.083650626,0.017646957,0.091629274,0.06894773,0.033853583,-0.042594098,-0.012485303,0.02450726,-0.016427403,-0.013224566,-0.015539339,-0.018054651,0.0379085,-7.482802e-05,-0.005708322,-0.118716255,0.047352295,-0.036689345,-0.041594625,-0.05930027,-0.01354257,-0.030787095,0.017405929,0.038530916,0.056619905,-0.02502437,-0.0026623833,0.01092578,0.060558565,-0.06096708,-0.0008294679,-0.020403408,-0.034147635,0.035799567,-0.031571995,0.022506531,0.071008444,-0.024009159,0.020116486,-0.0696852,0.02920343,0.061273314,0.032991745,0.0077887056,-0.07295293,-0.019064827,0.012742337,-0.01169604,0.057809666,0.018485978,-0.076819226,0.06581503,0.029546164,0.031710688,0.014849295,-0.0076170866,-0.030867813,0.013524828,-4.4401492e-08,-0.040764805,0.014572971,-0.0011955013,0.047073625,-0.058107886,0.056715947,-0.03681025,-0.05469043,0.051842764,0.045966767,0.11648721,-0.071784355,0.015131206,-0.04792734,0.043478426,0.008846382,-0.02646551,0.12509683,0.006815084,0.059605364,-0.00042381254,0.0046296003,-0.018771375,0.025638428,0.05746807,-0.016478647,-0.07794692,-0.040679924,-0.022118485,-0.011563527,0.027147459,0.013372933,0.057949662,-0.02469635,-0.003727952,0.03338773,0.007310142,-0.0972088,-0.006720782,0.008207533,0.06703725,-0.04157425,-0.06449521,-0.053848237,0.004416424,-0.040127963,0.0030762574,-0.036854807,-0.045652874,-0.04693786,0.015000943,0.0401141,-0.015630366,0.01172724,0.052249335,0.028170347,-0.03891363,0.018873475,-0.039587915,-0.024653824,0.032701757,-0.07888614,-0.033172842,0.033431325
Netherlands,0.009370978,-0.010293132,-0.060319856,-0.05088698,0.030515803,0.08489351,0.02257961,0.10428263,0.012573428,0.033053625,-0.048869178,-0.10567259,-0.062173083,0.041720726,0.009410323,0.000582646,0.0075929286,0.039848857,0.038663495,-0.027053287,-0.068693176,-0.006527386,0.07169016,-0.05720711,0.009220914,-0.05404583,0.064597994,0.013581888,-0.061675403,-0.11117357,0.012436912,-0.0063426537,0.024881398,0.010729678,-0.07682358,0.01656636,-0.033500593,-0.028579788,-0.054708276,0.034984436,0.007837144,-0.023918636,-0.0003896033,-0.016893238,0.005226456,0.03173413,-0.043559093,0.01960048,-0.056353156,0.020619715,-0.024578543,0.046884052,0.008151456,0.019790225,0.019174822,0.0487991,-0.06524506,0.046926107,0.052028358,-0.053215567,0.01756503,0.049001984,-0.022400463,0.0020613447,0.0034408201,-0.084398545,-0.055469524,0.027066687,-0.020430103,0.021739213,0.027565025,-0.013065411,-0.03526964,-0.039708745,0.032887835,0.050598077,-0.04978484,0.0008253201,0.06585774,-0.05389574,0.044627115,-0.010965452,-0.02034897,-0.01909736,0.008455246,0.02227126,0.049520604,0.020445064,0.056049783,0.007934489,0.06206944,-0.0036172622,-0.014630658,0.044667285,0.014013261,0.05581943,0.061139517,-0.008846184,-0.028631657,0.05627961,0.03720318,0.033922926,0.014700949,0.020389529,-0.03296325,0.008739839,0.042698286,0.038464833,0.021496119,0.011453933,-0.004787058,0.051239844,-0.07152376,-0.008349846,-0.00037706338,-0.060906254,-0.027042512,0.0026527606,0.02618182,-0.0040164115,0.012121107,0.024672614,-0.095064774,0.044606116,0.03881206,0.09477962,0.05697595,7.205115e-34,0.045046486,-0.005723747,0.07180357,-0.0053955857,-0.015630828,-0.03404821,-0.007333906,-0.018743707,-0.1061381,-0.039877716,-0.070437014,-0.0023094567,-0.026753778,-0.020330463,0.011783554,0.033771425,-0.0040070144,0.022860838,-0.02243779,0.07879965,0.034037333,0.034644388,-0.02877131,-0.015895203,0.017895594,0.0019763869,-0.017254181,-0.07228206,-0.04015619,-0.0068725506,-0.018960439,-0.06380319,-0.11841623,0.032073844,-0.05677323,-0.026537243,-0.084637776,-0.033985667,-0.0069053276,-0.085840665,0.021326307,-0.01169683,-0.05541049,-0.013315681,-0.061432768,-0.010487712,-0.014454637,0.007043584,-0.027024973,0.008303164,-0.012798393,-0.0292547,-0.022215707,3.067331e-06,-0.0120265065,-0.0017906588,0.0037120811,0.010184662,0.0003621984,0.024111722,0.040160883,0.006026977,-0.053740412,0.005671919,0.00830926,-0.068035424,-0.053260364,0.018608116,0.03787334,-0.09421685,-0.015168358,-0.012161608,0.09328293,0.044680044,0.014319593,0.012426034,0.0077601043,0.028740356,0.013708181,-0.002898606,-0.070244014,-0.014055225,-0.07769586,-0.08092948,-0.009844997,-0.0089311125,-0.028078707,-0.043905143,-0.02771263,0.100889936,0.014947113,-0.053341962,-0.045722816,0.017255923,-0.063457504,-1.959209e-33,-0.0369096,0.020391688,0.005588016,0.044149656,0.029659228,0.014016793,0.005502602,0.08895047,0.024829261,-0.013590671,0.055907074,-0.025921779,0.011857134,0.013557433,0.027353888,0.014142614,-0.0030699742,0.043951724,0.047050256,0.016196895,0.103762835,-0.011572923,-0.019272845,0.03274317,-0.028214185,0.047675982,0.03470764,0.026345605,-0.09004274,-0.013493632,0.064520225,0.013473015,0.014596584,0.011632176,-0.05504512,-0.034919303,-0.01268049,0.07842293,0.002819935,0.06499238,0.021768762,0.0047373534,-0.07927361,0.04729192,0.032721378,0.001044509,0.001984423,-0.012232874,-0.0005743837,-0.006373962,-0.044010703,0.062736884,-0.07950845,0.02953586,-0.018046701,-0.02525539,-0.03786982,-0.032250535,-0.0138678625,0.022050805,0.023924563,0.06428237,-0.03921081,0.03334242,0.040315297,0.05468404,-0.07763732,0.0068864543,-0.027737297,-0.079584524,0.014422388,-0.0027258396,0.07390738,0.028368955,-0.031946223,-0.036710393,0.015445005,0.039572284,0.017624065,0.02417864,-0.019494489,-0.07288618,-0.034009926,0.026696678,-0.02344158,0.061273273,0.059876144,-0.080381624,0.023049314,-0.016678747,0.06562732,0.05277854,-0.032659777,0.013474724,0.04330888,-4.2946343e-08,-0.05962951,-5.5909248e-05,-0.03678094,0.011439119,-0.038181,0.016202765,-0.0060534584,-0.023904525,-0.012007031,0.036664795,0.09306192,-0.05604579,0.030078357,-0.063646115,0.08832443,0.023729773,-0.06182395,0.12808958,-0.012151578,0.06800625,0.030622544,0.021557653,-0.025371304,0.012848534,0.026183132,0.008619962,-0.014667017,-0.0138536515,-0.0179246,-0.004303473,0.042289536,0.078145646,0.08500176,-0.004257603,0.030082988,0.033388056,-0.027486555,-0.044556443,-0.0032750338,0.031067789,-0.02475077,-0.017365737,-0.041766115,-0.031586897,-0.006877644,-0.04530803,-0.0070941546,-0.012477357,-0.015962582,-0.10160661,0.0030183182,0.05216042,-0.011337694,0.014915055,0.07412455,0.021815132,-0.072281815,0.023554461,-0.07732738,-0.0397575,0.052678984,-0.0865416,-0.03677644,0.05153053
Korea Republic,-0.031681564,0.025103522,-0.031038607,-0.04162094,0.039495215,0.052301962,0.058344092,0.07244563,0.0007687002,0.06532942,0.00035895177,-0.1055356,0.00047976512,-0.008393265,0.05410697,-0.012365446,-0.0021503223,0.042394422,0.015707498,-0.079752274,-0.05154853,-0.045982413,0.050229732,-0.017949285,-0.008040521,-0.08853328,0.06519472,0.035515424,-0.05041141,-0.11671002,0.004852276,0.014434681,0.03696173,0.044124514,-0.053631067,0.040142942,-0.03936333,-0.030251937,-0.047147058,-0.017178038,0.002587499,-0.044384427,0.04187967,-0.024193106,0.044837598,0.021650866,-0.04619832,-0.06272948,-0.038593814,0.025646625,-0.009698879,0.068650424,-0.007514525,0.055135686,0.018093372,0.058226544,-0.049669962,0.045740146,0.086901285,-0.032043725,-0.015201511,0.052921824,-0.045801226,-0.009147718,-0.0008461548,-0.065148674,-0.0004668672,0.0032107157,0.01979798,0.006562513,0.048091665,0.023969036,0.022925304,-0.025915345,-0.022806458,0.01570597,-0.00803388,0.023486951,0.08379487,-0.04883898,0.045676988,-0.010932909,-0.0029236784,-0.0007807493,-0.038010333,0.0020616874,-0.08093522,0.0016032753,0.030010803,0.030790512,0.060915537,0.05920227,0.018261086,0.024999455,0.013887454,0.07344086,-0.0013940444,-0.015791027,-0.0029879496,0.0723528,0.021362584,0.062842555,0.018961305,-0.0047950135,0.011255801,-0.019442312,0.08706667,0.02097184,0.02051702,0.03626396,-0.008737456,0.037170466,-0.09254813,0.01800271,-0.0003017763,-0.04059261,-0.038499292,-0.0077093444,-0.045575332,-0.0045775115,0.029534703,-0.025886249,-0.0938942,-0.043178923,-0.0044481033,0.049348406,0.047975734,6.6279073e-34,0.083133295,0.012917192,0.046134513,-0.055759735,-0.075021766,-0.017536035,0.012462653,-0.027227243,-0.10965241,-0.013273947,-0.07968705,-0.026687458,-0.052986387,-0.025377212,0.01360624,0.027407832,-0.049166523,0.018829677,-0.041078694,0.11511556,0.06301954,0.057279963,-0.016542649,-0.060378455,0.05681756,0.030742541,-0.027732901,-0.059913643,-0.016349137,0.01826006,-0.012069139,-0.06914271,-0.08078717,0.03966679,-0.035991058,-0.038441494,-0.09770505,-0.0006742772,-0.005164576,-0.054780588,0.023859572,0.0010134265,-0.080862656,0.029355746,-0.03869181,0.020811727,0.00401141,-0.01937005,0.020332534,-0.025825936,-0.028242659,-0.034245756,-0.038767554,-0.02036218,0.03194697,-0.05148102,0.03884595,-0.050678313,-0.027500529,0.033865117,0.020472486,0.012051503,-0.06662907,0.022675842,0.0058443863,-0.06350469,-0.025442924,0.017296163,0.012640027,-0.12663245,0.0069974116,-0.059052724,0.057762794,0.04317001,-0.02927124,-0.016472816,0.03033069,-0.0061720116,-0.019314665,0.021183645,-0.057982653,-0.02677741,-0.049497988,-0.04464725,0.01249265,-0.002514826,-0.026469363,-0.047651976,-0.02565744,0.03420864,-0.0015348304,-0.03970688,-0.0023592766,0.019925665,-0.071871474,-2.2869832e-33,-0.029775953,0.06302945,0.006896504,0.03868247,0.04920556,0.018254692,0.06995041,0.089295045,0.03921666,-0.0023387705,0.02338717,-0.003925956,0.013723472,-0.0069375588,0.055270534,0.012108403,0.0017995246,0.07215599,0.02461927,0.0645763,0.09283335,-0.0059818006,2.3901694e-05,0.0472423,-0.0036769437,0.051695623,0.049540903,0.04736412,-0.086587034,0.031595606,0.09866061,-0.04275772,0.005605687,0.005590393,-0.007453703,-0.08456182,-0.03572218,0.042058844,-0.0009405,-0.001213895,0.04937895,0.0018113317,-0.039004035,0.028496636,0.033383083,0.021515286,0.0074241506,0.006438731,-0.022314712,-0.057065092,-0.044521566,0.019544195,-0.08402757,0.0136456415,-0.03866453,-0.021012973,-0.06250908,0.006300734,0.022615409,-0.028094681,0.03501577,-0.0026828558,-0.0017646893,0.037549067,-0.0011988368,0.04570271,0.10073644,-0.01287231,0.010662467,-0.03574413,-0.0119173145,0.0054521263,0.021994043,0.022006648,-0.04429885,0.058192737,-0.039850987,0.06298695,0.04835344,0.013451155,-0.020842101,0.015284482,-0.067799486,0.0018350151,-0.008013912,0.05997355,0.013010311,-0.034503296,0.07946291,-0.020301143,0.00013285651,0.01228064,-0.030467805,-0.0024020462,-0.007992478,-4.0846185e-08,-0.01815017,-0.013280572,-0.017085413,0.036406606,-0.072565265,0.043978866,-0.035013128,-0.098022886,0.03587003,0.044667862,0.11444819,-0.037490793,0.005255819,-0.08009516,0.02657344,-0.024495946,-0.024777604,0.13807546,-0.013564203,0.042936936,0.03618197,-0.005347287,0.01951105,0.0056862882,0.06127191,0.011322312,-0.08412863,0.0067060506,-0.027639043,-0.00011924548,0.054099426,0.037920304,0.010119507,-0.011152927,0.07266863,0.03327341,0.001101084,-0.08179741,0.017520558,0.019019088,-0.02282341,-0.014828651,-0.008416003,-0.015007668,-0.035172455,-0.09860556,0.043944445,-0.04086855,-0.036418684,-0.062112365,0.015030625,-0.011036003,-0.076560825,-0.0059772576,0.08466313,0.03853407,-0.025064996,0.017019412,-0.064068265,-0.045781575,0.039801426,-0.087387994,-0.07638291,0.02857717
Slovenia,-0.0077637443,0.0059952745,-0.10794017,-0.009081582,-0.010367591,0.071364194,0.048648514,0.117362484,0.023444412,0.02536743,-0.025163783,-0.06613395,-0.050882094,0.042260587,0.017568301,-0.015527509,0.009111006,0.044476926,0.014350587,-0.0020852084,-0.08314784,0.008462894,0.09107842,-0.028326958,0.017215502,-0.06898786,0.0279129,0.04785566,-0.043186944,-0.14370942,0.03322607,0.020274948,0.05117887,0.014952414,-0.040123913,0.0019739957,-0.021635292,-0.060431544,-0.049068328,0.013289514,0.045825835,0.0094180135,-0.0237202,0.054092467,-0.029365111,0.072122976,-0.0061000045,-0.0042584054,-0.044151336,0.01908043,-0.09485141,0.048586275,-0.0016007926,0.03344363,-0.05727079,0.012339729,-0.023101447,0.027416866,0.051222418,-0.061085697,0.019478094,0.012970321,-0.022149555,0.031208362,-0.017797403,-0.06419828,-0.07707584,-0.01219316,-0.015981553,0.03329007,0.053975623,-0.019212747,-0.062250037,-0.03186027,0.008908953,0.033797175,-0.028323775,-0.0023985505,0.060841504,-0.06350791,0.07169501,-0.046833366,-0.030340465,-0.0021732,0.015781673,-0.009130198,0.025443062,0.028378047,0.076132976,0.010122899,0.06856381,0.03859379,0.0066458113,0.018800221,0.01324692,0.05497884,0.05043678,-0.030025367,-0.025727749,0.076155186,0.044422545,0.0019736204,0.019565135,0.03390529,-0.03382815,0.031722166,0.041548733,0.052302763,-0.0134854205,0.037507866,-0.002508604,0.021682637,-0.07379497,-0.004054115,0.011428851,-0.03513665,-0.00017897354,0.056264102,0.028349338,-0.0003721016,0.022593835,-0.0048859064,-0.06994657,0.009162636,0.013972323,0.08991389,-0.019116577,5.629177e-34,0.05373365,0.014655345,0.019033113,-0.014689363,-0.051559765,0.0012396197,-0.011113722,-0.014073068,-0.11526567,-0.028435243,-0.07660208,-0.0008189052,0.008669896,0.006984411,0.0059978976,0.048932396,-0.039082758,0.02010622,-0.059448205,0.083614424,0.06999386,0.0106262155,-0.03648434,-0.014348029,0.031415615,0.024827572,-0.0041966084,-0.052476447,-0.05615913,-0.013250955,0.006339955,-0.044286728,-0.11794282,0.01807859,-0.0009584466,0.005956542,-0.09692716,-0.0048933406,-0.012766394,-0.07837791,0.012522814,-0.037729293,-0.07073649,0.0045050983,-0.022665689,-0.02126018,-0.021578835,0.029499166,-0.01204678,-0.07208493,-0.014265023,-0.028493185,-0.035098445,0.0276766,-0.017987184,0.013760853,-0.010190735,0.024501767,-0.024874957,-0.012919938,0.060052443,0.0004284312,-0.052457534,0.008908582,-0.012560226,-0.059917018,-0.018878086,0.042822465,0.06151832,-0.09518548,0.007744884,-0.06585787,0.08296017,0.0669298,-0.030995533,0.002513758,0.023212036,-0.010744279,0.01658842,0.0242073,-0.087997705,-0.0073805745,-0.051853262,-0.0740287,-0.014758612,-0.03773441,-0.024404604,-0.047943875,-0.061360385,0.04930888,0.03246258,-0.026016505,0.0159886,0.022144543,-0.07095786,-1.4913667e-33,-0.025456883,0.04113937,0.007694606,0.05188188,0.025219116,-0.010780621,0.018194687,0.08380533,0.04271093,0.013784406,0.045022216,-0.03572719,0.016819168,-0.017085854,0.03445979,0.036504563,0.014161391,0.04629822,0.018048055,0.0030574964,0.03855157,0.022038562,-0.006659332,0.02665565,-0.036727697,0.03472651,0.0482313,0.026172105,-0.08744854,0.013016748,0.04711328,-0.021033218,0.0032809002,-0.013768113,-0.032637414,-0.0165828,-0.050393622,0.039505832,0.015207851,0.06977594,0.035134643,0.0259656,-0.0596122,0.046348155,0.06736785,-0.013938199,0.016997013,0.007116604,-0.017152544,-0.0073520783,-0.009596677,0.050241236,-0.100007795,0.06430192,0.0032581831,-0.014959556,-0.044530448,-0.017095296,-0.070324585,0.006355218,0.070987016,0.048997376,-0.019884178,0.018835006,0.036925074,0.04613975,-0.049985845,-0.0036103986,-0.056642942,-0.027790016,-0.0008407893,-0.01133157,0.031694468,0.050013278,-0.050309148,0.046704415,-0.041146394,0.08108603,0.023005122,0.011030462,-0.01912999,-0.0787092,-0.051064912,0.040067766,0.006768468,0.039886672,0.0067229723,-0.08981308,0.07838967,-0.0012641606,0.02389928,0.021489855,0.011135819,0.026792515,0.030376159,-4.1023043e-08,-0.006007106,0.016373105,-0.046565775,0.040750645,-0.029807486,0.017820837,-0.04439123,-0.078697026,-0.01628421,0.040909197,0.037994683,-0.06542341,0.023953699,-0.043708183,0.07583151,0.04583324,-0.027526377,0.10621659,-0.005729081,0.054216444,0.05659183,0.004660071,-0.0169795,0.03659975,0.0062259864,-0.016589692,-0.06520083,-0.024635112,-0.0003638364,-0.031862393,0.06479085,0.05425177,0.09196483,-0.056344338,0.034601584,0.07666225,-5.685512e-06,-0.0911913,-0.0171353,0.032088608,-0.008871601,-0.02991645,-0.024207458,-0.021133529,-0.038737215,-0.056492057,-0.022241604,-0.06267935,-0.04723795,-0.0588974,0.012351479,0.055405203,-0.04598304,0.037460733,0.10055504,0.040933315,-0.0639916,0.056204528,-0.0659402,-0.021708785,0.028084032,-0.06283424,-0.03799325,0.008485938
England,-0.009644623,-0.04128609,-0.06923175,-0.048175685,0.02446784,0.08203067,0.04749868,0.0720239,-0.0010155812,0.023269687,-0.05245835,-0.098845035,-0.024707854,0.05844606,0.027473353,0.019417599,-0.023162222,-0.0018688304,0.009288426,-0.019418344,-0.07965101,0.061950833,0.051422447,-0.0115993675,0.0058262553,-0.073301844,0.053160902,0.03133879,-0.078008376,-0.119894356,0.023480402,-0.022567103,0.068613276,0.009043542,-0.060459904,0.015317412,-0.0080599515,-0.06306517,-0.019306036,0.010582237,-0.017826332,-0.047089655,0.020423137,0.033937734,-0.00097535603,0.0621651,-0.01184473,0.006526825,-0.039517388,0.015093214,-0.048257284,0.0578894,-0.0033653106,0.014754318,0.003467632,0.039240293,-0.053507634,0.01790295,0.04195447,-0.05604436,-0.016273474,0.04332777,-0.011793859,0.015111236,0.00093006523,-0.08186302,-0.049450237,-0.021502677,0.01577901,-0.0035717648,0.022879299,0.0010125022,0.008078306,-0.043564018,0.025753006,0.034318298,-0.0529513,0.0074240733,0.04293055,-0.043488402,0.027614744,-0.037007388,-0.03148092,0.040121887,0.009990604,-0.03081375,0.008582564,0.026736122,0.03957643,0.036652118,0.052041706,-0.023468785,-0.01178201,0.06409796,0.03120129,0.052235775,0.058028452,-0.06540999,-0.0662787,0.057440095,-0.0152934855,0.023332266,-0.0075752717,0.043308727,-0.0012872708,-0.021899033,0.014593418,0.056143597,0.021505324,-0.04513231,0.06267056,0.055291545,-0.11499071,0.03094284,-0.00074225996,-0.06947524,-0.022305138,0.010824005,-0.006364539,0.0022740953,0.024575368,0.061653487,-0.05828035,-0.013766031,-0.02293255,0.07237172,0.0416673,8.4896645e-34,0.071123555,0.003843576,0.028165948,0.0069122375,-0.021622516,-0.018349577,-0.02011953,0.0317541,-0.05911385,-0.046958063,-0.02265038,-0.009875817,-0.013177856,0.002495218,0.0059895283,0.044107515,-0.034148913,0.025907576,-0.03980556,0.082247905,0.015650822,0.019201562,-0.008046461,-0.027105113,0.001046633,-0.008010575,-0.012403845,-0.047104232,-0.018875983,0.0042283153,0.021391826,-0.05174475,-0.114882596,0.037220713,-0.014580027,-0.030208007,-0.103223,-0.021101315,0.037931193,-0.043537404,-0.012626684,0.005763398,-0.049413223,-0.048841417,-0.052440446,-0.017801177,-0.0067075626,0.01987011,-0.05306494,0.0036750222,0.03553291,-0.03922763,-0.014915684,-0.010573186,-0.015680915,-0.04055028,0.017532803,0.031117339,-0.02240528,0.013236574,0.0628434,0.012216753,-0.030842654,-0.01266025,-0.04614099,-0.07108812,-0.017681146,-0.010061909,0.011200089,-0.067396924,0.0040716953,-0.013005109,0.11378039,0.05785122,-0.024139922,-0.02553194,0.0052895313,0.03040566,0.006651869,-0.0038154619,-0.05550392,0.023287036,-0.045030802,-0.07674982,-0.024407374,-0.012942029,-0.0004020416,-0.04268533,-0.046178617,0.047546234,0.009058213,-0.040461414,-0.03291882,-0.0091776,-0.025530212,-2.515414e-33,-0.042517785,0.011901315,0.019656483,0.044079307,-0.011192777,-0.015578585,0.053522367,0.058318466,0.07110406,0.017125808,0.039677784,0.03598805,-0.008051209,-0.012275958,0.04353048,-0.01096044,-0.010596656,0.001467236,0.034813512,0.025835166,0.12306463,-0.04301522,-0.00997231,-0.0086357705,-0.0039605047,0.034153014,0.01769508,0.03352292,-0.071563385,-0.020611897,0.076078884,0.021052837,0.02657536,-0.04390147,-0.06580279,-0.025347786,-0.023417572,0.06916714,0.031794924,0.047572266,0.07424276,0.001067207,-0.051262904,0.01161517,0.020151764,0.009234191,-0.0070905243,0.001717079,-0.009398288,0.06779326,-0.023552863,0.06855443,-0.09547909,0.01728602,-0.036932733,-0.029415542,-0.076883405,-0.029907975,-0.036779035,-0.0115218265,0.037125222,0.045512203,-0.045404617,0.028359314,0.013372504,0.08447217,-0.032765597,-0.026683843,-0.026106672,-0.034805555,-0.036652062,-0.028429974,0.07988571,-0.004830243,-0.038544945,0.006413632,-0.021433538,-0.0034922855,0.023882635,0.02953749,-0.008459673,-0.05744286,-0.027856495,0.027523989,0.0032348728,0.025341347,0.039836306,-0.017492779,0.031898983,-0.019527316,0.042808898,0.015045548,-0.009573517,-0.029176665,0.045285415,-4.6077226e-08,-0.06829266,-0.0006465791,-0.035648692,0.020503176,-0.020936709,0.05063519,-0.038774353,-0.021294098,0.05613361,0.029658569,0.089092575,-0.059185803,0.0029752457,-0.07835466,0.05031524,0.010870876,-0.077919774,0.085609294,-0.011112662,0.0616638,0.024149496,0.00866402,-0.014852939,0.039638337,0.038323924,-0.005975559,-0.026778556,-0.033351634,-0.048620857,0.026458489,0.063784495,0.057548244,0.07881347,-0.01881573,0.021263719,0.017322166,0.0022047358,-0.042954635,0.0018759044,0.048991192,0.012976716,-0.035161044,-0.065656364,-0.025252014,-0.009972865,-0.05208889,-0.032041516,0.0258044,-0.051289443,-0.062437993,0.07126387,0.041667067,0.010172167,0.04442465,0.069520645,0.05910844,-0.050178908,-0.0011334046,-0.06037691,-0.015809717,0.023411369,-0.07132062,-0.010317007,0.02051534
Senegal,-0.008589868,-0.0067270473,-0.11020507,-0.0050222464,0.0002890033,0.0614002,0.04247906,0.058001917,0.02814961,0.085668795,-0.031035544,-0.119232446,-0.04476617,0.043630354,0.049332026,-0.005004552,-0.023889722,-0.013953577,0.0076142764,-0.037984084,-0.08547989,0.05020125,0.04371737,-0.011925862,-0.011960652,-0.07795644,0.003762016,0.03799973,-0.031022798,-0.1531838,-0.0021457274,0.020001616,0.047823314,0.026835846,-0.05828305,0.023289705,0.0028199267,-0.04634027,-0.025697509,0.0026564167,0.058897723,-0.016196938,0.00031147568,-0.014576824,0.010085024,0.040906552,-0.013898875,0.042846266,-0.01527489,0.00063259364,-0.0806352,0.06559911,-0.059184626,0.025441729,-0.00046169318,-0.0034633463,0.009539323,-0.006867891,0.06739676,-0.043587886,0.039101794,0.00960515,0.0018157621,0.0026828141,0.013456247,-0.101547875,-0.018345453,-0.040990766,0.0016643077,0.013715779,0.03542817,-0.023338526,-0.015658878,-0.02168723,-0.0043255533,0.043462675,-0.045070846,0.029019872,0.07223896,-0.022335941,0.044796,-0.028752128,0.00736657,0.033474334,0.026106609,-0.036286432,0.0034806617,0.010616604,0.060699224,-0.034311414,0.06264429,-0.018702816,0.027165407,0.02736338,0.011303657,0.0116732735,0.014454294,-0.042271875,-0.05845523,0.055493925,-0.028870845,-0.028137986,-0.021239502,0.021980792,-0.011916853,0.027359847,0.056036867,0.054010365,0.0134128975,0.042585887,-0.022043228,0.055681683,-0.10634355,0.058216203,0.0036776366,-0.022690779,-0.05204606,0.006012494,-0.008509995,0.0108934445,0.0009829294,-0.0075162826,-0.049459264,-0.041011695,-0.03507158,0.055902313,0.024973784,3.480227e-34,0.119777255,0.019938452,0.040655147,-0.04940745,0.0041037146,-0.01606045,-0.026999492,0.032995425,-0.08227342,-0.05049532,-0.053438514,-0.004170354,0.0034165867,0.05784068,0.01660533,0.0312611,-0.020336408,0.004247654,-0.040840954,0.0685657,0.06897387,0.030605424,-0.030830767,-0.025512366,0.05926426,0.022929369,-0.06100578,-0.05698875,-0.061491136,0.012539083,-0.005023267,-0.090042405,-0.12060296,-0.007755653,-0.05153456,-0.045718327,-0.118923545,0.015227761,-0.014714737,-0.029589819,0.03546015,-0.015264919,-0.059481576,-0.022723159,-0.061726328,0.005080734,0.018319936,0.019820552,-0.021236122,-0.0013025826,-0.041383564,-0.030787058,-0.029200157,0.0014720865,0.0009562266,-0.03083005,-0.00013536378,-0.007501939,-0.027726999,0.0070192087,0.07562313,-0.036090925,-0.055662915,-0.005519899,-0.041045215,-0.042650696,0.015545456,0.05373249,0.06928556,-0.1367861,-0.0028734796,-0.021310478,0.07792896,0.056611694,-0.030525306,-0.020338062,0.049881477,0.033863325,0.03082083,0.0008747299,-0.035107963,0.015139754,-0.037510455,-0.07417145,-0.095568456,0.017931081,0.027065812,-0.03315815,-0.08049569,0.014164056,0.0019123768,-0.028545232,0.008527182,-0.004696085,-0.040493697,-2.1291544e-33,0.014635299,0.027949762,0.012328932,0.030499004,0.032839,-0.017702324,0.05928249,0.07611668,0.023446376,-0.008223241,0.055563185,0.003053724,0.03962348,-0.024993388,0.040639285,0.014000318,-0.022809414,0.037868965,0.059014168,0.006276422,0.06281135,0.0048753545,0.0013951774,-0.020681426,-0.01796412,0.028505499,0.02952954,0.009886126,-0.08399281,0.014980068,0.037928473,-0.008380798,-0.0036083672,0.00020102778,-0.042189956,-0.04890858,-0.04250795,0.05608907,0.0047850707,0.072559625,0.080781735,0.07321862,-0.04240389,0.02109781,0.044486966,0.032500714,0.023715876,0.0106085725,-0.020489171,-0.020865165,0.00832185,0.0638997,-0.0902131,0.042869028,-0.013849136,-0.013886367,-0.05458159,-0.009996615,-0.064494245,0.0037624205,0.023852643,0.02859199,-0.021502534,-0.00025904388,0.021521837,0.058666185,-0.053498615,-0.02242294,-0.0116283335,-0.028535126,-0.01428468,-0.043848485,0.03459524,0.03507964,-0.08201388,0.03675629,-0.073436484,0.029431004,0.045083277,0.030068653,-0.028872935,-0.07333168,-0.048557725,0.02255027,-0.028357778,0.07595072,0.04506496,-0.101279885,0.06901903,0.025802389,0.0038271786,-0.005313604,-0.0023569784,0.018443238,0.054079227,-4.2372836e-08,0.01480164,0.0076237437,-0.017380755,0.06888138,-0.021917803,0.03877459,-0.03670731,-0.06474825,0.04735212,0.049406294,0.056890227,-0.06572308,0.012461832,-0.050717104,0.061440486,0.039269004,-0.0291867,0.10061321,0.01608366,0.04771572,0.036330443,-0.008280352,-0.00831693,-0.0016128469,0.034620564,0.020176286,-0.054448217,-0.041967463,-0.03833059,0.030208286,0.052534983,0.033198014,0.052501738,-0.05037875,0.033349764,0.03259806,0.012130238,-0.10033878,-0.015512003,0.042073224,0.04329423,-0.0032082004,-0.038293462,-0.021532306,0.0131732365,-0.044451285,0.005300192,-0.03080889,-0.08117572,-0.06361454,0.05164014,0.04337018,-0.029699838,0.07084923,0.070556894,0.046123978,-0.09320179,0.0037794914,-0.056094233,0.022416044,0.07097658,-0.07338858,-0.030272182,0.003923409
Croatia,-0.0020572257,0.006777394,-0.09278282,-0.0030189736,-0.01744219,0.08116273,0.04228026,0.13414085,0.042557105,0.049712747,-0.029948968,-0.08268336,-0.06847779,0.07810996,0.038280092,-0.029491134,-0.02960133,0.045074254,0.031540178,-0.021630716,-0.09536087,-0.0056610573,0.079303764,-0.050066125,0.028172875,-0.0340585,0.046131413,0.058886066,-0.04174685,-0.12460776,1.4256638e-05,0.014774557,0.05288679,0.0029652596,-0.03802604,0.013598732,-0.032710593,-0.074354,-0.04235596,0.0069233947,0.039694674,0.021181833,-0.026010934,0.035240367,-0.0072975927,0.040901665,-0.026312133,0.015625251,-0.03615323,0.011459493,-0.07437325,0.09815646,-0.0018560496,0.021958455,-0.021063149,0.027771337,0.017353134,0.008530996,0.054165516,-0.07405748,0.025888352,-0.008594291,0.025170319,-0.003725872,-0.021524586,-0.085379295,-0.07421397,0.014555432,0.00022953584,0.032317825,0.013104974,0.015546212,-0.04342256,-0.0037257439,0.007313433,0.019251617,-0.03785458,-0.008105133,0.07076529,-0.060829923,0.07277202,-0.045449093,-0.06950401,-0.011998798,0.008962574,-0.0034508973,0.038146902,0.0066937674,0.06352613,0.036607854,0.04932102,0.014733156,0.008229052,-0.0152990725,0.019320725,0.044219572,0.043462474,-0.030181358,-0.023873664,0.05033198,0.04984129,-0.009546305,0.004626621,0.025442181,-0.03681794,0.02775934,0.037004244,0.006718645,0.035114173,0.040311165,-0.02552604,-0.008102568,-0.09228372,-0.0111860875,-0.02513361,-0.0185183,0.019553524,0.07111093,-0.0139117725,0.006961457,0.025049731,-0.033778813,-0.06529815,0.0045770635,0.027156942,0.07977414,-0.017824862,8.975084e-34,0.037733145,-0.008315631,0.03194678,0.012074535,-0.017279282,-0.02044699,-0.013029623,-0.020218842,-0.10986232,-0.04340408,-0.087038316,0.0068854736,-0.0088509135,0.0103582395,-0.004824252,0.044798087,-0.02718819,0.011058504,-0.050977655,0.07281237,0.08938946,0.012012026,-0.0050966423,-0.019635107,0.04132983,-0.0008407051,-0.011540485,-0.036729306,-0.044829123,-0.015028316,-0.035541363,-0.052859392,-0.11046361,0.0133589255,-0.0035572832,-0.01776233,-0.094920024,-0.018426599,-0.0047890856,-0.05127805,0.034820024,-0.039965726,-0.032841377,-0.006216467,-0.04066902,-0.032851294,-0.03279856,0.02588113,-0.008488724,-0.015269154,-0.025070326,-0.034733105,-0.011108895,0.0068802643,-0.010508959,-0.0011539783,-0.0068577556,0.005920786,-0.012148963,-0.0072569423,0.067271754,-0.006196639,-0.060517736,0.0015060569,-0.021152688,-0.022423353,-0.009128549,0.07717365,0.068261966,-0.078698486,0.0046118475,-0.05112713,0.062422924,0.071634635,-0.021869166,0.0033256877,0.003293901,0.014324834,0.020529434,0.0047335485,-0.078159295,0.028958319,-0.029578723,-0.059140053,-0.022615548,-0.017893575,-0.017001776,-0.025613574,-0.04894776,0.052036088,0.039950904,-0.048060447,0.016186323,0.021119768,-0.08216154,-2.058098e-33,-0.0399593,0.026428785,0.015112154,0.037162576,0.019636339,-0.0036055122,0.003994396,0.08093801,0.023998082,0.010633208,0.047605734,-0.024298334,0.018807573,-0.02216644,0.029415568,0.049988385,0.017938577,0.059903804,0.0057880073,-0.018537555,0.07295828,-0.0057745366,-0.0037932757,0.034325127,-0.0517261,0.034759864,0.07368396,-0.008726004,-0.09548775,-0.012087071,0.04065092,-0.015747942,-0.022843137,-0.006085526,-0.01501934,-0.048454504,-0.008561248,0.055227485,-0.0024020474,0.07240155,0.046810057,0.03310464,-0.07103476,0.05420471,0.028158579,-0.03894954,0.026516214,0.0093187345,-0.0100596,0.00712293,-0.012830399,0.03602712,-0.09540697,0.066175,-0.016773475,-0.025080778,-0.039517216,0.0034954266,-0.056965437,0.036663342,0.042294163,0.010411963,-0.019876031,0.026143376,0.047290687,0.05770379,-0.05076357,0.0080155125,-0.052153613,-0.08191867,0.0022824716,-0.0073973117,0.04075226,0.05582727,-0.023203216,0.03913843,-0.0301622,0.05833161,0.065824255,0.024750484,-0.021130228,-0.098288506,-0.091108784,0.049710337,-0.025199989,0.03972267,0.017539792,-0.09168834,0.05711818,-0.007458544,0.028488345,0.028961955,0.013057332,0.009021528,0.029395344,-4.2317808e-08,-0.034099486,7.571686e-05,-0.029754478,0.043749485,-0.041554894,0.028396955,-0.04530968,-0.06637203,0.0068574953,0.035773892,0.05907875,-0.0586486,0.025506318,-0.064709425,0.07220673,0.06355837,-0.033405185,0.15082891,-0.0052370504,0.0613891,0.036610328,0.01767576,-0.048911236,0.04906501,0.013980257,-0.005766994,-0.068920076,-0.013433692,0.0011109279,-0.027997501,0.057109423,0.023993427,0.05221894,-0.032242436,0.005194066,0.044612844,0.008402194,-0.09603448,-0.026730042,0.054614622,0.0240306,-0.033331294,-0.06492256,-0.014218943,-0.045539957,-0.034988027,-0.04509477,-0.033276025,-0.073570415,-0.060047805,0.04151721,0.056537166,-0.027904212,0.040517855,0.07283782,0.028080959,-0.05637608,0.042291895,-0.055279072,0.0054236623,0.03978511,-0.060808633,-0.021310497,0.042358737
Costa Rica,0.019448385,-0.027150597,-0.05993816,0.00044536687,0.057155948,0.06344052,0.029472468,0.11040169,0.04335363,0.06240017,-0.0010473754,-0.08345496,0.012653539,0.01917356,0.07389721,0.022678368,-0.023875205,0.012406517,0.04279288,-0.0047781114,-0.0257895,-0.016198797,0.020923825,-0.025641913,-0.014495747,-0.06422281,0.020897917,-0.024480758,-0.10539567,-0.09664657,-0.02447212,0.016050559,0.078736246,-0.0014513935,-0.061149944,0.03620471,0.010055981,-0.044554748,-0.03113532,0.0115418,-0.073610514,-0.035404745,0.06527886,0.030496234,-0.023433415,-0.049709544,0.01787865,0.0025323657,-0.012554552,0.026095785,-0.03430094,0.042445965,-0.014337633,0.044916626,-0.010356438,0.051232964,-0.06624613,-0.023967493,0.099886246,-0.028526533,0.013443781,0.03091963,-0.05282589,0.015078791,-0.033723727,-0.09749362,0.018044112,-0.008453075,0.032855947,0.007710318,0.06260251,0.024836104,-0.019643635,-0.03569751,0.034295097,0.036100045,-0.039811388,0.039781388,0.06258899,-0.017763777,0.0324408,-0.007547076,0.00074278173,-0.03427455,0.0065022516,0.028533047,0.016789984,0.019223493,0.047067534,0.026004197,0.060560096,0.03161686,-0.0151925925,0.037767142,-0.0037404054,0.02377958,0.049561176,-0.036125112,-0.054287557,0.077341594,0.03767852,0.008728335,-0.014215613,0.013430433,0.047513857,-0.0045225774,0.041827742,0.078513116,0.0030145121,0.008173147,-0.013064008,0.03807842,-0.124414705,0.07259594,-0.02606048,0.0045798584,0.011489868,0.022511851,-0.02926702,-0.0038831842,0.042010088,-0.031872462,-0.088991605,-0.006138061,-0.0065033687,0.016127385,0.05969822,5.0320796e-34,0.09817795,0.00343893,0.060455874,-0.022028318,0.0015176582,-0.025950873,0.007804486,0.022219708,-0.113334745,-0.017609479,-0.03758488,-0.012653069,0.0041971835,0.06886135,0.04643334,0.033014316,-0.03799369,-0.0007256507,0.016508378,0.039971534,0.01491383,0.040150862,-0.004250503,-0.04478443,0.033445228,0.063149646,-0.02972158,-0.08816524,-0.050580606,0.010734102,-0.01790696,-0.060023773,-0.08533571,0.06547395,-0.013784421,-0.025120532,-0.07713095,-0.014593625,-0.014358071,-0.015523162,-0.0047326894,0.017602606,-0.062495403,-0.046936218,-0.043666452,-0.032115743,0.0020254108,0.040419478,-0.042805098,0.02651609,0.002177279,0.03513925,-0.014853563,-0.00028555052,-0.014801109,-0.028609268,-0.0062305867,0.027126467,-0.06576224,0.04999067,0.09017395,-0.007007626,-0.01028241,0.0019646138,-0.04317815,-0.046969227,-0.040737804,-0.0107329,0.08213863,-0.0865768,-0.004469353,-0.08034297,0.08437929,0.056883875,-0.006601089,-0.0067653926,0.011259457,0.024685211,-0.0021574479,0.021098122,-0.052145433,0.006221441,-0.01594102,-0.06381842,-0.05722531,0.05960398,0.022638006,-0.03911312,-0.07343956,0.04444758,-0.011726653,0.02709923,-0.005308439,0.00542083,-0.03609155,-2.5850937e-33,-0.03418889,-0.010082876,0.055840775,0.006993481,-0.0129574565,-0.021783018,-0.0036787167,0.05735808,0.020040017,-0.024941899,0.04025958,-0.023450486,0.0023850591,-0.033458173,0.023456829,0.03930055,-0.02196237,-0.006494212,-0.007520052,0.03593181,0.07495985,-0.0154264355,0.030482516,0.0141977975,-0.00526497,0.0017907242,0.047703627,0.02200055,-0.07813056,-0.021307427,0.04828053,-0.0024010942,0.028772213,-0.031699885,-0.063519835,-0.014242352,-0.10265804,0.07243907,0.056990158,0.1098782,0.065896675,0.00728137,-0.042325873,0.0061939918,-0.0011863438,-0.023396447,0.01803297,-0.008905042,0.003485217,-0.029769264,-0.014943259,-0.0014026552,-0.12526391,0.032519072,-0.0066786134,-0.027990479,-0.051851902,0.018080126,-0.05340786,-0.04052638,0.023016836,0.08868061,-0.059558272,0.04470125,0.07426752,0.05269814,-0.051831473,-0.06417218,-0.046864886,-0.029350653,0.025979143,-0.03343545,0.013576002,0.025171366,-0.046159387,-0.035529688,-0.045274287,0.015632937,-0.0066727395,0.048643738,-0.0017130863,-0.038469825,-0.030471796,0.02443575,-0.02273774,0.041593876,0.052101083,-0.090278715,0.056387663,0.03141658,0.025882848,0.032565583,-0.0378463,-0.0205671,0.030023403,-4.2088057e-08,-0.012085446,-0.021900155,-0.06458983,0.025737286,-0.07940494,0.0522864,-0.030763078,-0.0631003,-0.0019584815,0.08700149,0.09531514,-0.038900185,0.021178657,-0.06359556,0.02598418,-0.010694945,-0.0012331865,0.16134281,-0.023091331,0.04853414,-0.007824677,0.03091564,0.012132737,0.018071683,0.056852054,-0.008148063,-0.041448463,-0.004446612,0.020918176,0.022538543,0.014816587,0.034757107,0.019963928,-0.087113954,0.016796127,0.05251157,-0.016405871,-0.09848891,-0.016517244,0.041841913,-0.0125274565,0.007063768,-0.077792645,-0.018342504,-0.004473086,-0.09587564,-0.021605974,-0.0027526366,-0.062935255,-0.055705253,0.053924277,0.007980177,-0.032852937,0.0027537579,0.107973784,0.02880942,-0.081634596,0.024308756,-0.05235546,-0.0007256205,-0.023437815,-0.09524376,-0.035738036,-0.03745753
Italy,-0.041159965,0.0081785545,-0.07722845,-0.0077695395,-0.021049011,0.060484,0.052573718,0.12056863,0.027271379,0.0021107637,-0.0103259375,-0.09519886,-0.040968835,0.10098015,0.011448138,-0.02585897,-0.002852685,0.06350932,0.022090422,0.00042950045,-0.041243706,-0.005640755,0.06226673,-0.011653138,0.020117614,-0.060494196,0.038567565,0.032521136,-0.08663891,-0.10959167,0.0031693706,0.04330061,0.06193055,0.001127015,-0.03114283,0.02685672,-0.015523307,-0.07623826,0.014314425,-0.011467925,0.0068060746,-0.01858082,0.033611618,0.051876318,0.03309451,0.023268042,0.011507893,0.04345807,-0.037658814,0.005088489,-0.07630894,0.06542342,0.007143476,0.048106585,-0.026790643,0.06623625,-0.0019653193,-0.025457576,0.044659328,-0.046151698,-0.015233218,0.027139802,-0.006572425,0.029810268,-0.025768284,-0.044225812,-0.081089534,-0.045921747,-0.011526193,0.025666753,0.046057887,-0.009652378,-0.018647444,-0.039506856,0.049325634,0.04072987,-0.040169276,0.011169275,0.058447756,-0.072474964,0.07445294,-0.06045979,-0.014573665,0.018168056,0.04650545,0.005325898,0.0204332,0.02023322,0.043940656,0.024108145,0.04329632,0.047913004,-0.011417846,0.012813479,0.043596942,0.025015634,0.030651992,-0.022913337,-0.056943778,0.06442057,0.01433215,-0.010917951,0.02720135,0.04891033,-0.0075058243,0.030758915,0.077669844,0.040552694,-0.02442573,0.0017577145,-0.018743057,0.014315402,-0.10358908,-0.0059138583,-0.01969534,-0.013490175,-0.024857957,0.05156566,-0.007159413,0.002145122,0.02562066,-0.0017094797,-0.08173864,-0.011946285,0.003910943,0.06378939,-0.015273934,1.1079634e-33,0.066084065,0.009573753,0.034421593,-0.01688414,-0.015570183,0.012826926,-0.018628106,-0.02159386,-0.11547158,-0.046265937,-0.083506286,-0.008862645,-0.013424052,0.032009833,0.035490062,0.041916844,-0.011694775,0.016414827,-0.015098411,0.04535302,0.06251428,0.008069829,-0.007364144,-0.053375788,0.022901734,0.046384078,-0.01926682,-0.038743712,-0.061635368,-0.0038767906,6.303243e-05,-0.036411066,-0.10372691,0.008704114,-0.00977304,-0.014805471,-0.116843455,-0.02467483,-0.0018068143,-0.0076876213,-0.038153592,0.03576123,-0.060337335,-0.0581227,-0.02870896,-0.036762904,-0.014829506,0.031609263,-0.008934439,-0.030421218,0.022796977,-0.021226298,-0.029908221,0.02314702,-0.0091423,0.011779202,0.014789482,0.013695619,-0.03796391,0.011446157,0.07449778,0.00850512,-0.037648726,-0.00084763725,-0.031040236,0.0077461964,-0.011043859,0.05682137,0.048411872,-0.068877324,0.0003948172,-0.052717365,0.08799397,0.07011754,-0.027585689,-0.004330272,-0.0042249435,-0.009883658,0.00044888983,-0.024529139,-0.045773413,-0.015380398,-0.013672883,-0.036872707,-0.033484083,0.018000158,-0.00096890837,-0.010243227,-0.0537303,0.035297506,0.015061985,-0.046727393,-0.0033773598,0.010701604,-0.04878985,-1.689396e-33,-0.020925561,0.027786091,0.024402687,0.01734495,-0.045394976,-0.030711193,-0.016003713,0.049712714,0.0689409,0.029875929,0.034218676,0.00094254094,0.02399977,-0.048806664,-0.009937967,0.07037411,-0.00045929456,0.017088005,0.011225953,-0.019164458,0.08551741,-0.024624165,-0.018173423,-0.006538073,-0.060994174,0.032759964,0.059939545,0.03362012,-0.07379763,-0.032731485,0.025037007,-0.017780265,0.0026461985,-0.061044663,-0.015218855,-0.0067802477,-0.044671904,0.081543125,0.06783308,0.07053238,0.027504193,0.016004669,-0.028774394,0.031409517,0.06417034,-0.0039327447,0.012993821,-0.004856593,-0.033364337,0.003517781,-0.023551166,0.022552544,-0.0851944,0.024659619,-0.028550472,-0.037320193,-0.03507705,-0.017105559,-0.054156523,-0.028242515,0.08036588,0.04634651,-0.044188205,0.034572057,0.02002096,0.05521537,-0.08539168,-0.02223814,-0.015634561,-0.014755846,-0.01234664,-0.022984717,0.015376447,0.056684423,-0.059500936,0.04547631,-0.061216198,0.051850025,0.07037769,0.043027367,-0.0018512429,-0.096695825,-0.070921384,0.04569487,-0.022013227,-0.012885471,0.04886492,-0.06670108,0.08754156,0.009919064,0.020570248,0.044272203,0.014785835,-0.030498419,0.035241943,-4.2435847e-08,-0.012593227,-0.00636882,-0.04605488,0.0703614,-0.051380895,0.038111627,-0.0500656,-0.063784644,0.05619108,0.020318657,0.038483236,-0.053790946,0.02163462,-0.080899045,0.039259773,0.047361445,-0.015490602,0.09074722,0.010333562,0.07192439,0.04738613,0.017439904,-0.022078946,0.010557488,0.0142141,-0.05481672,-0.05102133,-0.014136672,-0.06350178,0.025169587,0.06515293,0.024589956,0.06251292,-0.06985877,0.016135488,0.08115076,-0.024607178,-0.107311465,0.005677558,0.0093904305,0.012878151,-0.038580187,-0.0328586,-0.025742365,-0.0029762406,-0.07048222,-0.014535797,-0.051542133,-0.045692272,-0.053487934,0.04799402,0.031767692,-0.009101735,0.034685664,0.098014005,0.066667415,-0.03155366,0.05697454,-0.022064188,-0.010516586,0.008904021,-0.07779212,-0.03322385,0.010196155
Norway,-0.014422886,0.022786956,-0.04825971,-0.0379699,0.059978347,0.07465015,0.0082232095,0.10522336,0.026594551,0.05885562,-0.052677087,-0.0916727,-0.021776002,0.019273605,-0.0070242407,-0.013633303,-0.007571621,0.027120966,0.04474314,0.03378888,-0.062855124,0.02868564,0.05963866,-0.046687372,0.05896958,-0.034778472,0.06118271,0.0184312,-0.07491151,-0.09632255,0.029416692,-0.038344584,0.059918553,0.016385803,-0.0803145,0.043069303,-0.02118495,-0.09840256,-0.055206206,0.07757361,-0.0048628366,-0.01803068,-0.0013832327,-0.023965562,0.006626156,0.056676697,-0.028491342,-0.032296434,-0.04472501,0.048077106,-0.043675818,0.015933493,0.007316352,0.026430493,0.039264537,0.027466571,-0.05833575,0.007961912,0.051983636,-0.056383725,0.01329749,0.0073760576,-0.012719298,0.004399699,-0.026261266,-0.08835938,-0.07691176,0.01020143,-0.017942585,0.005854502,0.07674741,0.008550609,-0.029328605,-0.031901024,0.030166151,0.038623914,-0.044591695,-0.018592253,0.051288933,-0.04153916,0.054646224,-0.039306987,-0.06774765,0.0020940567,0.014447416,0.0011420302,0.04828631,0.013253256,0.032034125,0.03709892,0.053094134,0.029898137,-0.01570509,0.040946495,0.015838709,0.039262626,0.05030618,0.024817158,-0.060873635,0.05022512,-0.0111804465,0.033446997,0.013699139,-0.007089805,0.0033604691,-0.006418895,0.053949244,0.060092293,0.00033129868,-0.013999232,0.014961327,0.008004132,-0.09439932,0.0022468646,0.014598647,-0.027319929,-0.04493505,-0.016263122,-0.0014158699,0.01386463,0.025632678,0.024184737,-0.07553915,0.04962462,0.03299376,0.08492769,0.03296978,2.261095e-34,0.044773396,-0.0008938229,-0.011016435,0.00043552698,-0.046119183,-0.014615777,-0.042931184,-0.038998462,-0.070382826,-0.016021196,-0.07926526,0.004880863,-0.056390557,0.014396995,0.008342469,0.027790252,0.00088754966,0.013601165,-0.043301355,0.09404787,0.08283618,0.0071143606,-0.028462863,-0.019707877,0.019364994,-0.00477811,0.005725718,-0.10071415,-0.011009357,-0.006840461,-0.009418071,-0.07088481,-0.09583982,0.024351308,0.020939115,-0.0047413204,-0.091482095,0.009803648,-0.0030106877,-0.028571274,-0.019101547,-0.021737928,-0.09310833,-0.014934034,-0.033268675,-0.0059867403,0.0119908955,0.028148582,-0.014189227,-0.057184152,0.001981135,-0.002064562,0.00723642,0.024434807,0.0049751294,-0.033104192,-0.0011919953,0.02006616,-0.03709872,0.02184815,0.032961648,0.0003226553,-0.012768655,0.0050527095,0.026575943,-0.062848225,-0.024825059,0.0055639315,0.032394905,-0.08394638,0.00399476,-0.045407154,0.124446034,0.057346664,-0.008368383,-0.01679273,-0.0037097118,0.032284956,-0.01336261,0.022219757,-0.07144766,-0.019229623,-0.06667452,-0.057764754,-0.021079285,-0.0053943945,0.02761492,-0.057646092,-0.037208516,0.05582792,0.023672098,-0.062830195,-0.011405438,-0.020535877,-0.06435201,-1.5536448e-33,-0.030515008,0.013400974,0.0057439557,0.045006808,0.010984693,0.03212706,0.031592242,0.095030665,0.011317786,0.0075316867,0.058745395,-0.03809652,-0.0009511765,-0.00847088,0.029543882,0.006474072,-0.015029462,0.06884493,0.02821056,-0.027109858,0.1293429,-0.029170673,-0.0033906677,0.026647944,0.0006097333,0.042114243,0.033583354,0.032510307,-0.11895848,-0.019278597,0.039205384,0.012391906,0.051871806,0.016388338,-0.049839422,0.044065624,-0.035914868,0.08480597,-0.00768067,0.050904483,0.06571433,-0.036473565,-0.05742289,0.042182885,0.017574236,-0.026998498,0.011704784,0.031481914,-0.006315143,-0.018895494,-0.020798234,0.06729404,-0.09416981,0.0016871117,0.0092500895,-0.014104907,-0.0589336,-0.027905928,-0.011585234,-0.006923577,0.037805438,0.02947851,-0.026484542,0.036032315,0.022514362,0.058193997,-0.057181653,-0.038801875,-0.021163156,0.0002832078,-0.011531795,-0.027557151,0.06714603,0.008311178,-0.013073861,-0.0073968866,-0.014418344,0.040009852,0.02771384,0.003401557,-0.02920085,-0.07622625,-0.028496554,0.060582217,0.00069885515,0.045292933,0.05075062,-0.07759316,0.012137014,-0.012419441,0.016635915,0.04924174,-0.023227932,-0.027642576,-0.0052390825,-4.321499e-08,-0.035718054,0.018943088,-0.04508797,0.04418617,0.003336799,0.0424898,-0.029242069,-0.059021402,-0.0404036,0.06493091,0.057251137,-0.022157932,-0.0060692136,-0.105501525,0.096445076,-0.013035219,-0.0341232,0.16239344,-0.019280002,0.07939543,0.024773821,0.03913208,-0.0587604,0.010827511,0.015378984,0.02529387,-0.019493235,0.0019328772,0.0188852,0.0073655103,0.0896345,0.054411832,0.040191695,-0.030179812,0.03486564,0.032851122,-0.0629988,-0.03534794,-0.02783649,0.022892613,-0.055108327,0.011985295,-0.025722068,-0.016273886,-0.06782552,-0.044483922,-0.020276215,-0.02967731,-0.028233612,-0.03975165,0.030525321,0.01634753,-0.028343307,0.022922218,0.057356514,0.06540015,-0.019209985,0.001679162,-0.09536946,-0.021181373,0.018242957,-0.09919916,-0.0342792,0.051451482
Spain,-0.0024503116,-0.021121843,-0.06874737,-0.0025897599,0.0030896284,0.06812102,0.036490493,0.0836049,0.02592288,0.0065337447,-0.0042484193,-0.10015739,-0.031224197,0.08042999,0.020101553,-0.016187683,-0.028915467,0.0080618765,0.030643972,0.002316678,-0.05097493,0.00083087006,0.01492735,-0.0011289034,-0.0084496355,-0.09075531,0.04878963,0.0033887406,-0.085736506,-0.13585909,0.010763418,0.011233734,0.06274026,-0.004343249,-0.08860968,-0.012872596,0.01068565,-0.06042092,-0.054184746,0.0048695514,-0.033932574,-0.012674642,0.0006104116,0.053922042,0.0068413047,-0.023555513,-0.007561772,0.016364623,-0.011803656,0.024665566,-0.06629063,0.046308085,0.0008250021,0.022553362,-0.022776013,0.048842497,-0.033117358,-0.011911539,0.08317986,-0.02098955,0.030449443,0.056428272,-0.023436729,0.0061559486,-0.039550234,-0.07103056,0.005724565,-0.006287194,-0.039979495,0.021621259,0.042169295,-0.011717994,0.002055497,-0.03697788,0.06800013,0.048111867,-0.061661094,-0.03180698,0.043820765,-0.060306646,0.027939541,-0.04958286,-0.057983298,-0.012736747,0.03717203,-0.008064531,0.02315402,0.023852851,0.053661775,0.04820751,0.04887413,0.046164412,-0.02352742,0.036324393,0.014492869,0.06232181,0.060279854,-0.0138392905,-0.041666545,0.05236287,0.03677929,0.0140763,0.030241199,0.014442175,-0.012475948,0.034068942,0.058419,0.035210457,-0.016032528,-0.0052392785,-0.005638297,0.04641894,-0.09371705,0.0046157977,-0.036577486,-0.011967464,-0.014434094,0.0063368366,-0.0032570467,-0.03296049,0.0298213,0.027289994,-0.07838361,0.00678286,0.008906911,0.054384798,0.0119395675,7.6383646e-34,0.044603243,-0.017197529,0.024726734,0.01822224,-0.00084948464,-0.017124562,-0.00059015653,0.016387753,-0.12616591,-0.049786776,-0.08427107,0.0010637721,0.00218873,0.04374154,0.038055126,0.052781157,-0.016961882,0.009466118,-0.025852807,0.065762006,0.05155966,0.031500712,-0.01100216,-0.01899828,0.049644124,0.059294578,-0.032416046,-0.061041538,-0.064306185,0.008323745,-0.020984938,-0.06099006,-0.08048035,0.019391201,0.019330747,-0.011374172,-0.054840717,-0.026622193,-0.019434351,-0.026605178,0.018148405,0.013968101,-0.035414364,-0.028134355,-0.07600088,-0.043990083,-0.0065667103,0.02954388,-0.03752728,0.01579108,-0.012498147,-0.031932123,-0.009422289,0.00525495,-0.019686284,0.023376163,-0.024426376,0.039080396,-0.021914376,0.0020394046,0.065527625,0.014183476,-0.034923814,0.021484217,-0.034164514,-0.04081587,-0.025155038,0.044963185,0.07701127,-0.08992663,-0.0149418,-0.01616466,0.08310053,0.060867816,-0.0026156644,-0.022246992,-0.013655437,0.008895039,0.010507027,0.018132124,-0.057594806,0.010130253,-0.01226845,-0.053176183,-0.025726922,0.042306088,0.041578103,0.013988838,-0.08237396,0.0844811,0.01544735,0.006494479,0.02763553,-0.016635282,-0.024508946,-2.5397882e-33,-0.013784263,0.0016536141,0.05939196,0.017938297,0.0032778597,-0.004075411,0.009082209,0.05275399,0.022396747,-0.041727263,0.042997867,-0.0127779925,0.026933575,-0.061529648,0.010212515,0.03947879,-0.0027945756,-0.0012217755,-0.011077699,0.015756277,0.05507805,-0.0016299415,-0.013181794,0.01554654,-0.021464588,0.0018655667,0.03936215,0.033691224,-0.086592235,0.00086210005,0.032776028,0.010654826,0.011448524,-0.03994178,-0.07065696,-0.016642187,-0.05080873,0.061641783,0.048184443,0.11562258,0.038782034,0.03782376,-0.0730866,0.036241952,0.021005832,0.058873508,0.02613918,-0.03362681,-0.0058444347,-0.01581221,-0.005388021,0.00971457,-0.1092584,0.037563253,0.017730558,-0.06049393,-0.051979024,-0.041260667,-0.05910773,-0.008722249,0.03779321,0.05259214,-0.031463116,0.012296054,0.039149657,0.08195092,-0.06693313,-0.034706388,-0.047845773,-0.063257635,0.017414259,-0.012877527,0.0021627306,0.050304033,-0.07159672,-0.00939101,-0.060265753,0.045746114,0.026948584,0.045064013,0.028876793,-0.11315934,-0.046207644,0.001832717,0.0026302089,-0.0014901997,0.015913596,-0.058668286,0.05922644,0.011699457,0.01794533,0.015778055,-0.011954379,-0.032654725,0.05804018,-4.3168324e-08,-0.04657428,-0.0026854952,-0.03983494,0.011294062,-0.07277899,0.05715277,-0.033103913,-0.021263057,0.03886783,0.03781395,0.108505994,-0.05306875,0.015234276,-0.04874003,0.045603942,0.020181702,-0.01997108,0.13060002,0.00616808,0.057683345,0.01678243,0.03870315,-0.052441344,0.022083942,0.048736572,-0.022224925,-0.06403757,-0.020141078,-0.01089776,-0.00848548,0.04857774,0.023951607,0.048370074,-0.07014867,0.01945078,0.053654533,0.00037418198,-0.06351211,0.012152761,0.021057494,0.032034162,-0.023115512,-0.11772536,-0.047598522,-0.00754351,-0.05939047,-0.033703197,-0.022231156,-0.0633386,-0.062211152,0.07717652,0.042141486,0.0063877916,0.03372155,0.100192204,0.032600403,-0.044206273,0.029085713,-0.055817857,-0.010485277,0.030292736,-0.055373345,-0.014316898,-0.0023204016
Scotland,-0.004370363,-0.072020374,-0.077392876,-0.046595514,0.04443273,0.055397067,0.05461944,0.065523185,0.002716484,0.056869224,-0.059869554,-0.07040924,-0.024153214,0.059344552,0.042882342,-0.009269358,-0.016698953,0.012378973,0.03514756,-0.010982505,-0.06244248,0.051207226,0.07026655,-0.014890461,-0.009055371,-0.035333086,0.04779448,0.01764495,-0.0891152,-0.09545741,0.019253967,-0.01993735,0.060189337,-0.0068969135,-0.043744188,0.027945586,-0.003995546,-0.042082652,-0.07778034,0.0018787328,-0.055150643,-0.046437968,0.017313587,0.047357388,0.036461152,0.02959291,-0.020779097,-0.0026579208,-0.016708339,-0.0067742784,-0.04923682,0.048499826,-0.0015225698,-0.01252299,0.037025925,0.0276308,-0.06502897,-0.021818949,0.06493251,-0.05805456,-0.018937137,0.027161865,-0.027748879,0.008188083,0.010093024,-0.07888124,-0.028889844,0.004763106,0.024059033,-0.002258779,0.051158383,-0.01974041,-0.039427012,-0.055255607,0.03355458,0.048192877,-0.018558988,0.004224688,0.03748152,-0.029766407,0.026506102,-0.037373472,-0.038993433,0.02410444,0.010394739,-0.029671863,0.008137176,0.0017402726,0.010475636,0.05098429,0.092127115,-0.0015989067,-0.0008888993,0.038579382,0.037184943,0.041017838,0.04878074,-0.04924271,-0.055384055,0.06672152,-0.041288685,0.015394606,-0.0067069116,0.042637415,0.002846827,-0.034742046,0.006742946,0.055709824,0.034523617,-0.03266038,0.049683347,0.037507404,-0.11743968,0.056859277,0.03346668,-0.04680631,-0.029561361,0.035761513,0.008501298,-0.011647963,0.0063235224,0.08740939,-0.090445094,0.015325955,-0.019713344,0.08946393,0.033841863,4.372654e-34,0.059240356,0.0032666444,0.050123524,0.0024215707,-0.0071391095,-0.043336418,-0.007346517,0.016082441,-0.05607261,-0.015118608,-0.01971864,-0.01770267,-0.0038440914,0.004011416,0.013739339,0.026490882,-0.038384456,0.009895697,-0.022678586,0.09081887,0.021396656,0.04695749,0.004578072,-0.030228937,0.013002695,-0.024219602,-0.024247862,-0.03970601,-0.023078144,0.011384379,-0.020332126,-0.056279775,-0.10042098,0.017113207,-0.0017016925,-0.046014726,-0.0749907,-0.034557782,0.010723953,-0.009946698,-0.06285859,-0.018819356,-0.06527805,-0.05863371,-0.0583778,-0.029309189,0.00790691,0.026556883,-0.07167458,0.009620459,0.03232645,-0.0046823965,0.0053579137,0.0044190963,-0.033976883,-0.0051282034,0.04337594,0.011661243,0.0066018603,0.009360824,0.084231146,0.016853701,-0.00956876,-0.036665525,-3.8768253e-06,-0.06184001,0.0047541275,-0.019269193,0.017454721,-0.0549495,-0.006091656,-0.006618845,0.08821781,0.036419623,0.005944261,-0.0003496635,-0.024058508,0.07623827,0.010806055,0.010718166,-0.06406841,0.0286083,-0.037939545,-0.05902583,-0.010644578,-0.0021109849,0.011068121,-0.052551847,-0.06521116,0.029190568,0.004662554,-0.03169604,-0.010231018,0.0071566734,-0.047008965,-2.1577843e-33,-0.022160925,0.012440627,0.02628096,0.050764207,-0.042988777,0.0013716227,0.0651462,0.040824257,0.063503526,0.011105542,0.05424109,0.006226178,0.002515815,-0.05267059,0.039990183,0.0015589925,-0.042133506,0.038558822,0.008354421,0.023232425,0.11385096,-0.030353546,0.023408435,-0.014797253,0.007065648,0.0026660422,0.04787828,0.037858687,-0.08837487,-0.03840709,0.055374622,0.006629392,0.027922016,-0.0687759,-0.06422636,-0.005564606,-0.009907416,0.06282884,0.027929079,0.0861579,0.06554789,0.016128808,-0.048100576,0.0294756,0.01756591,0.0035146729,0.0031354884,0.026202368,0.0027367114,0.01964823,-0.0009838401,0.07607394,-0.09502238,0.03497882,-0.011196666,-0.04535153,-0.06834538,-0.0018009209,-0.03689452,-0.0029259424,0.0230499,0.03269752,-0.040136665,0.020218836,0.06103967,0.07133688,-0.05587799,-0.042403966,-0.022620317,-0.044985484,-0.039090727,-0.049960792,0.07421499,-0.0014114914,-0.030312497,-0.013305071,-0.017725904,0.0137458835,0.05736768,0.04654057,0.0022782704,-0.052476816,-0.025614059,0.043966126,-0.007906504,0.0095463665,0.08065759,-0.03463193,0.048250355,-0.014104381,0.05243584,0.007403861,0.00077560823,-0.029121824,0.043754473,-4.4756558e-08,-0.06962764,0.016990269,-0.04251578,0.025860189,-0.009389578,0.042723347,-0.020510951,-0.053643372,0.009899539,0.053191733,0.09385672,-0.059493124,-0.0019042592,-0.110583395,0.027828557,0.0060036737,-0.06985999,0.10870152,-0.0144028105,0.053685825,0.040268444,0.011253809,-0.030170335,0.021676049,0.019359296,-0.02117309,-0.015505609,-0.04394799,-0.020328922,0.02162464,0.024464715,0.030567216,0.040036216,-0.0145783285,0.024965782,-0.003929213,-0.03749323,-0.036914375,0.021862747,0.05225009,-0.06023932,-0.05064317,-0.061005794,-0.031275038,-0.031492524,-0.020040357,-0.05663128,0.040061776,-0.094919086,-0.06811255,0.10024981,0.048707534,0.018318756,0.03729116,0.06957646,0.0660096,-0.03566245,-0.006441453,-0.092248894,-0.0049612257,0.027077379,-0.08698625,-0.027208721,0.015507639
Uruguay,-0.04493855,-0.023190672,-0.0846751,-0.022222888,0.023391679,0.076957084,0.039216492,0.11893244,0.03239621,0.08325814,0.004267438,-0.07342405,-0.016449532,0.0762741,0.056897897,0.0049685747,-0.027603425,0.024190657,0.044398393,-0.017256161,-0.037296593,0.025597433,0.061460968,-0.001882992,-0.010937682,-0.049484175,0.02544621,0.0027388656,-0.08100322,-0.09535979,-0.010667687,-0.0015148033,0.06706734,0.034633502,-0.08179981,0.020617628,0.021758702,-0.09151147,0.03263968,0.010647663,-0.03964175,0.00017710116,0.020769563,0.037142415,-0.002046813,-0.03126976,0.029443672,0.05110177,-0.014862262,-0.002567102,-0.031870455,0.06800007,-0.034131676,0.017629283,0.002152911,0.026295504,-0.0025269291,-0.033507552,0.05134279,0.00810341,-0.0038019142,0.033506863,-0.02018911,0.010878943,-0.0098808305,-0.11527659,-0.032639407,0.0029342237,0.018943429,0.01975812,0.03630159,0.0026544323,0.019624941,-0.013493121,-0.0062056966,0.00846736,-0.065420166,0.036536217,0.036733642,-0.03890563,0.035835892,-0.050240673,-0.030832177,0.03288925,0.046159968,0.00012286237,0.0045351465,0.05346049,0.056212157,0.049708202,0.049215026,0.028938912,0.004983499,0.081416786,0.012121696,0.028117184,0.058980104,-0.037716515,-0.0733045,0.059881963,0.037577923,-0.0040772627,0.0053789346,0.030776937,0.0070442366,0.044011768,0.053249728,0.067199975,0.011670839,-0.0012022029,-0.046032302,0.032207523,-0.11142178,0.061467983,-0.06798474,-0.0107186455,-0.012016809,0.008940832,-0.054235134,-0.023646437,0.02975612,-0.0019937523,-0.039242934,-0.02054267,-0.030241376,0.047423173,0.043659315,4.7687464e-34,0.06061958,0.0041995742,0.024974661,0.020451715,-0.031562377,0.039541982,-0.0359219,0.06513613,-0.095860064,-0.050236117,-0.061756127,-0.011552371,-0.024179539,0.04488827,0.027673647,0.03189693,-0.055490065,0.01831957,0.002666134,0.0607871,0.017763937,0.017987397,0.017930772,-0.030697014,0.025962079,0.07447553,-0.048852865,-0.08716296,-0.05102289,0.012995212,0.019894937,-0.024237735,-0.10370337,0.025690041,0.0036937045,-0.050879046,-0.06680946,-0.011277887,-0.01582168,-0.00028039273,-0.0029589871,-0.0077667753,-0.053251006,-0.02972175,-0.01606427,-0.017697424,0.007961843,0.072640285,0.0017063553,0.015904265,-0.014348004,-0.0062849894,-0.019936863,-0.043115437,0.0067727515,-0.01797792,-0.009147128,0.04350393,-0.042413127,0.008928096,0.051035665,0.0129337525,-0.024064599,-0.012180101,-0.05152241,-0.0028779977,-0.029978326,0.004823507,0.08055764,-0.06542673,-0.024705468,-0.03146572,0.08106421,0.08861116,-0.0021048584,-0.04222054,0.040407408,0.02717208,-0.0015144693,0.011079371,-0.064186364,0.035596352,-0.0011477853,-0.058891598,-0.046264086,0.06040481,0.06169215,-0.016869629,-0.06729368,0.07363846,0.0069860695,-0.012329909,-0.046645105,-0.016334724,-0.012975346,-2.2594873e-33,-0.03901061,-0.030682676,0.014067902,0.010299334,-0.015586293,-0.05174612,-0.0055452026,0.09071924,0.029184716,-0.014857952,0.041458495,-0.002128938,0.020759169,-0.044682723,0.021651022,0.015315035,-0.029844,-0.029430011,-0.019837512,0.014038917,0.0940389,-0.02328605,0.03139221,-0.018091112,-0.050861213,0.0141699705,0.04848195,0.025314389,-0.05656055,-0.015681079,0.06663266,0.011595271,0.0053383727,-0.04531674,-0.07887783,-0.022403311,-0.08289121,0.0903636,0.021987578,0.060151257,0.067876495,0.046207767,-0.06426202,-0.014439156,0.031646755,-0.0068456796,-0.00091692246,0.01268043,-0.04343676,-0.006320562,-0.0028005983,0.0033627916,-0.1035009,0.015802229,0.016474225,-0.0627282,-0.06741449,-0.025192628,-0.0439152,-0.028741417,0.048733704,0.06294451,-0.05533886,0.017172676,0.027786987,0.021511564,-0.056066155,-0.016493328,-0.00014902513,0.00240261,0.024090601,-0.04470996,0.019126318,0.04166933,-0.028791795,0.021990215,-0.081778236,0.0034505764,0.02051381,0.027921392,-0.019735254,-0.006864894,-0.043418273,0.023531033,-0.013500205,0.05296043,0.020702446,-0.056780983,0.07882521,0.04492651,0.019762302,0.038751215,0.0036390552,-0.05388587,0.019218069,-4.3793793e-08,-0.056126233,0.016257262,0.00010838014,0.033956207,-0.04797849,0.046223167,-0.07875349,-0.051469725,0.08924874,0.040743455,0.08102944,-0.036091834,0.022989094,-0.04467005,-0.009452761,0.0050572325,-0.029016586,0.14618622,0.0007820185,0.05786275,-0.0127002625,0.03286419,-0.034988802,0.017275589,0.049947497,-0.019216748,-0.07696448,-0.033924535,-0.043821864,-0.0071977125,0.042673316,-0.0033129246,0.06798875,-0.07883962,-0.011163982,0.04950101,-0.0048133,-0.12536152,-0.021894112,-0.022368336,0.038506504,-0.05410442,-0.054847516,-0.026066326,0.005648676,-0.0774715,-0.0033916454,-0.013994273,-0.062555104,-0.03184162,0.047754508,0.009410653,-0.027129568,-0.016630292,0.07764979,0.011672265,-0.0646093,-0.00075440336,-0.04639727,-0.02279996,0.011243443,-0.09483126,-0.025378771,0.008818961
