nationality_name,emb_0,emb_1,emb_2,emb_3,emb_4,emb_5,emb_6,emb_7,emb_8,emb_9,emb_10,emb_11,emb_12,emb_13,emb_14,emb_15,emb_16,emb_17,emb_18,emb_19,emb_20,emb_21,emb_22,emb_23,emb_24,emb_25,emb_26,emb_27,emb_28,emb_29,emb_30,emb_31,emb_32,emb_33,emb_34,emb_35,emb_36,emb_37,emb_38,emb_39,emb_40,emb_41,emb_42,emb_43,emb_44,emb_45,emb_46,emb_47,emb_48,emb_49,emb_50,emb_51,emb_52,emb_53,emb_54,emb_55,emb_56,emb_57,emb_58,emb_59,emb_60,emb_61,emb_62,emb_63,emb_64,emb_65,emb_66,emb_67,emb_68,emb_69,emb_70,emb_71,emb_72,emb_73,emb_74,emb_75,emb_76,emb_77,emb_78,emb_79,emb_80,emb_81,emb_82,emb_83,emb_84,emb_85,emb_86,emb_87,emb_88,emb_89,emb_90,emb_91,emb_92,emb_93,emb_94,emb_95,emb_96,emb_97,emb_98,emb_99,emb_100,emb_101,emb_102,emb_103,emb_104,emb_105,emb_106,emb_107,emb_108,emb_109,emb_110,emb_111,emb_112,emb_113,emb_114,emb_115,emb_116,emb_117,emb_118,emb_119,emb_120,emb_121,emb_122,emb_123,emb_124,emb_125,emb_126,emb_127,emb_128,emb_129,emb_130,emb_131,emb_132,emb_133,emb_134,emb_135,emb_136,emb_137,emb_138,emb_139,emb_140,emb_141,emb_142,emb_143,emb_144,emb_145,emb_146,emb_147,emb_148,emb_149,emb_150,emb_151,emb_152,emb_153,emb_154,emb_155,emb_156,emb_157,emb_158,emb_159,emb_160,emb_161,emb_162,emb_163,emb_164,emb_165,emb_166,emb_167,emb_168,emb_169,emb_170,emb_171,emb_172,emb_173,emb_174,emb_175,emb_176,emb_177,emb_178,emb_179,emb_180,emb_181,emb_182,emb_183,emb_184,emb_185,emb_186,emb_187,emb_188,emb_189,emb_190,emb_191,emb_192,emb_193,emb_194,emb_195,emb_196,emb_197,emb_198,emb_199,emb_200,emb_201,emb_202,emb_203,emb_204,emb_205,emb_206,emb_207,emb_208,emb_209,emb_210,emb_211,emb_212,emb_213,emb_214,emb_215,emb_216,emb_217,emb_218,emb_219,emb_220,emb_221,emb_222,emb_223,emb_224,emb_225,emb_226,emb_227,emb_228,emb_229,emb_230,emb_231,emb_232,emb_233,emb_234,emb_235,emb_236,emb_237,emb_238,emb_239,emb_240,emb_241,emb_242,emb_243,emb_244,emb_245,emb_246,emb_247,emb_248,emb_249,emb_250,emb_251,emb_252,emb_253,emb_254,emb_255,emb_256,emb_257,emb_258,emb_259,emb_260,emb_261,emb_262,emb_263,emb_264,emb_265,emb_266,emb_267,emb_268,emb_269,emb_270,emb_271,emb_272,emb_273,emb_274,emb_275,emb_276,emb_277,emb_278,emb_279,emb_280,emb_281,emb_282,emb_283,emb_284,emb_285,emb_286,emb_287,emb_288,emb_289,emb_290,emb_291,emb_292,emb_293,emb_294,emb_295,emb_296,emb_297,emb_298,emb_299,emb_300,emb_301,emb_302,emb_303,emb_304,emb_305,emb_306,emb_307,emb_308,emb_309,emb_310,emb_311,emb_312,emb_313,emb_314,emb_315,emb_316,emb_317,emb_318,emb_319,emb_320,emb_321,emb_322,emb_323,emb_324,emb_325,emb_326,emb_327,emb_328,emb_329,emb_330,emb_331,emb_332,emb_333,emb_334,emb_335,emb_336,emb_337,emb_338,emb_339,emb_340,emb_341,emb_342,emb_343,emb_344,emb_345,emb_346,emb_347,emb_348,emb_349,emb_350,emb_351,emb_352,emb_353,emb_354,emb_355,emb_356,emb_357,emb_358,emb_359,emb_360,emb_361,emb_362,emb_363,emb_364,emb_365,emb_366,emb_367,emb_368,emb_369,emb_370,emb_371,emb_372,emb_373,emb_374,emb_375,emb_376,emb_377,emb_378,emb_379,emb_380,emb_381,emb_382,emb_383
Argentina,-0.02501413,-0.028689517,-0.069470935,-0.023127537,0.021252217,0.075388774,0.0631732,0.119832665,0.04724743,0.06451871,-0.0003810239,-0.09648113,-0.06396351,0.06493572,0.038737986,0.005210705,-0.025995377,0.0140374,0.04179726,-0.04004015,-0.03745315,0.006833533,0.03724418,-0.034752395,-0.01660514,-0.081774145,0.03759629,0.012282928,-0.05642605,-0.114203505,0.020950334,0.016780498,0.07453787,0.030446198,-0.07017518,0.015347114,0.046013117,-0.091906115,0.0123807,-0.037934847,-0.017873986,0.010203366,0.023181476,0.051870503,0.0018062813,0.0029942458,-0.01146227,0.040533714,-0.03475928,0.020088585,-0.040010057,0.021067314,-0.02458223,0.03668367,0.02640029,0.08347249,-0.018470617,-0.040000852,0.07168851,0.0059853713,0.0047247624,0.03764172,-0.022795858,0.0026920508,-0.00570308,-0.079866454,-0.011194804,-0.005978326,-0.011641408,0.040080585,0.06448819,0.010642124,0.014607843,0.009320239,-0.02705607,0.010176591,-0.05426798,0.0051763,0.050728165,-0.029272867,0.026342664,-0.022723228,0.024880212,0.0061378907,0.010996858,-0.010857392,-0.02813254,0.007086843,0.06832855,0.0293218,0.044222895,0.02665215,-0.020845862,0.033460427,0.048692618,0.03748367,0.059080813,-0.053498026,-0.038615506,0.048393603,0.038336303,0.037044395,0.013504043,0.01604064,-0.0153496675,0.032680746,0.07809096,0.043775342,-0.012076325,0.029211696,-0.025643948,0.049776014,-0.11176997,0.02848687,-0.057321634,-0.03440676,-0.019315012,0.040338174,-0.05787428,-0.012665027,0.025526913,0.029069684,-0.09922002,-0.008410358,-0.021213146,0.029344263,0.021985505,1.3770192e-33,0.046353884,0.009504923,0.0040840404,0.022221843,-0.0049246377,0.01834813,0.0035850124,0.024409492,-0.093646616,-0.0354326,-0.06862576,0.00091829366,-0.044808514,0.05801265,0.041839544,0.04744893,-0.029059323,-0.0093314275,-0.00848465,0.062193576,0.04577083,0.016473867,0.01120755,-0.03598374,0.04267218,0.044825204,-0.0047109416,-0.069935255,-0.033381134,-0.011222458,0.004644339,-0.049242992,-0.09106387,0.01672961,0.01973139,-0.028464338,-0.060635712,-0.012204335,-0.023817096,-0.020260032,0.023041258,0.008532985,-0.055931333,-0.017243598,-0.037080713,-0.030290386,0.007415965,0.0070888693,0.011565168,-0.012994683,-0.014392512,-0.016887212,-0.038790863,-0.028314404,-0.02516101,0.0030947286,-0.027017297,0.0023478158,-0.050730668,0.01795323,0.06500023,0.0060886103,-0.03935132,-0.016038489,-0.05302401,0.0037795478,-0.018193819,0.010008474,0.080376096,-0.05694419,-0.021777479,-0.05964061,0.06210471,0.07084692,-0.026699293,-0.018570133,0.0019327323,0.0036149202,-0.005331275,-0.014561521,-0.06569309,0.026124517,-0.008500253,-0.056442503,-0.042095914,0.034498338,0.015631022,0.01315716,-0.07306686,0.051691633,0.03961191,0.011916783,0.00325791,-0.011057771,-0.06720711,-3.1824383e-33,-0.04965303,-0.016969498,0.018633734,0.013357157,-0.0047292667,0.007970343,-0.011862927,0.08476467,0.056960437,-0.010023083,0.012509168,0.046136934,0.0037692585,-0.06301455,0.006195732,0.034108542,-0.03679573,0.006632095,-0.0102053415,-0.00010374883,0.09098279,0.0036527237,0.045970697,-0.017547475,-0.031717096,0.020440232,0.064499184,0.034646895,-0.06477583,-0.027069608,0.0772361,-0.040310323,0.022545772,-0.048250716,-0.0664085,-0.027919888,-0.053969722,0.07124858,0.008613722,0.10156904,0.071475044,0.04480689,-0.07037374,-0.017904872,-0.0029108645,0.011644431,0.0068805534,-0.01460387,-0.009998812,-0.0036346798,-0.012925314,-0.008474942,-0.1197215,0.010740737,0.00041814966,-0.061362762,-0.051116154,-0.04127839,-0.04652477,-0.018966036,0.046097256,0.07704014,-0.028316077,0.039799985,0.04203866,0.031559035,-0.044999555,-0.053149667,-0.01025256,-0.0108416295,0.0020849025,0.00039370902,-0.008721897,0.045887586,-0.077439904,0.023652721,-0.064875916,0.008915589,0.0464924,0.01668672,-0.02722038,-0.03550997,-0.04147879,0.043378692,-0.0070213517,0.022510866,0.033283602,-0.05637415,0.08096429,0.033116125,0.05160915,0.0011896837,-0.0057825795,-0.03629361,0.0032074326,-4.4574026e-08,-0.057513695,0.006246082,-0.036243405,0.02232665,-0.07681347,0.034895603,-0.033464935,-0.06164715,0.076939255,0.041085046,0.06737227,-0.055061575,0.021380626,-0.053904537,0.034593698,0.0019699512,-0.03092535,0.13308424,-0.00634145,0.055930674,0.028831739,0.041832738,-0.042843025,0.049216527,0.046710327,-0.016318703,-0.10254868,-0.018513048,-0.057068948,0.018469574,0.038913086,0.043118913,0.08065291,-0.07423016,0.020004813,0.06040331,0.020298792,-0.11595758,-0.022102563,0.022771975,0.046996005,-0.021864854,-0.059295304,-0.022155233,-0.019841306,-0.091901846,0.013862361,-0.034371957,-0.039432608,0.0005012986,0.07591851,0.020590752,-0.037304096,0.037249174,0.050238565,0.0053095315,-0.08758049,-0.00037771353,-0.051053617,-0.015017439,0.058595642,-0.09944497,-0.022017397,0.023843579
Brazil,-0.0087363655,-0.027786523,-0.06730516,-0.022426022,-0.0028668887,0.076760046,0.04999029,0.11177731,0.02164028,0.04360514,0.013470007,-0.11846943,-0.036676034,0.075166576,0.023827888,-0.010892423,-0.020782296,-0.00026128528,0.02628837,-0.018668503,-0.054946523,-0.0037449223,0.02373278,-0.02400774,-0.029146679,-0.024850555,0.0490981,-0.0027663817,-0.07022421,-0.12345563,0.020866353,0.015177109,0.07860581,0.014730172,-0.098508924,0.030438863,-0.0051481146,-0.03439895,0.011780655,0.013323979,0.005573713,-0.034885526,0.013192811,0.028643053,-0.005974834,-0.0006143621,0.026283966,0.037909616,0.004240027,0.007842312,-0.07950716,0.08078869,-0.0244627,0.053849168,0.0068692644,0.04467491,0.006537976,-0.021883545,0.04328354,0.0030016114,0.024421837,0.03732293,7.419526e-05,-0.0022238286,-0.02341978,-0.10785402,-0.05184736,0.0032631767,-0.024130374,0.055769995,0.030766066,0.009681629,0.023023298,-0.022564659,-0.0021004626,0.032717034,-0.043217238,0.016691057,0.06349387,-0.04553679,0.0071825483,-0.03636973,-0.028659476,0.010573794,0.0005134894,-0.008388421,0.04023018,-0.011208455,0.05280245,0.012185832,0.0577791,0.027609427,0.00079631986,0.013629972,0.016248565,0.040576853,0.072920725,-0.033099003,-0.053089168,0.023312412,0.021498783,-0.022704292,0.006965273,0.024054574,-0.038003236,0.029823096,0.037895918,0.064860635,0.012454991,0.020537652,-0.030190986,0.023000889,-0.11952862,0.04862005,-0.031196184,-0.01324158,-0.034800276,0.005003058,-0.036223803,-0.009160527,0.035460643,-0.039603446,-0.04592336,-0.007839664,0.017240342,0.03430704,0.02007349,1.7957467e-33,0.057556506,-0.01724305,0.025197586,0.0071546095,-0.038041744,0.0071275467,-0.026302118,0.040330723,-0.0952787,-0.041039407,-0.06590119,0.037273917,-0.052657876,0.09176873,0.020532448,0.09069322,-0.072281286,-0.0036870183,-0.039188154,0.058933213,0.058661677,0.044853427,-0.012581308,0.0055400264,0.034806143,0.08068711,-0.01643857,-0.09853729,-0.077405624,0.0011602974,-0.012308105,-0.07729452,-0.1083007,0.039065238,-0.047190096,-0.007043316,-0.07239818,-0.0076161623,-0.0318507,-0.004584123,0.03614857,-0.023876306,-0.03952414,-0.035851922,-0.050975163,-0.016353162,0.0033372114,-0.0020152768,-0.0050696204,0.030172382,-0.038454253,-0.042499166,0.0074847443,-0.024859764,-0.0049349153,-0.026168644,-0.035498038,0.04409139,-0.03597519,-0.007372988,0.03444686,-0.004174695,-0.038210332,0.0046010176,-0.06425921,-0.020662,0.018622484,0.050802276,0.08529741,-0.07896075,-0.029191134,0.0013858964,0.060348213,0.060870767,-0.02283762,-0.04390534,0.0070000887,0.00561447,0.017737115,0.031373933,-0.043359976,0.0485553,0.015688967,-0.05809108,-0.01316291,0.0413486,0.01455078,0.03397475,-0.08181619,0.07996018,0.002292277,0.0171171,-0.018279724,-0.0068708095,-0.038030602,-4.0335527e-33,-0.029213767,-0.05424881,0.05846072,0.035724,0.015484216,0.010015413,-0.027956586,0.12788565,0.025423143,-0.027245978,0.017700512,0.021337982,0.013663039,-0.049196146,0.0044589275,-0.01239638,-0.017965402,-0.019223835,-0.025331527,0.0012187625,0.0869765,0.009865703,0.0061470005,-0.01893923,-0.064169526,-0.003543783,0.0552055,0.015138069,-0.06509515,-0.002213783,0.047043853,0.016020965,0.0075871656,-0.02386934,-0.036715213,-0.054237563,-0.047905166,0.058499835,-4.2990137e-05,0.10873723,0.063433886,0.037347246,-0.03468773,-0.023977436,0.017011162,-0.019866297,-0.014797981,-0.014723675,-0.021028755,0.032843012,0.01636203,-0.0065293782,-0.10948636,0.03949972,-0.028721519,-0.030331526,-0.03953221,-0.018899813,-0.017006584,0.015354306,0.02773758,0.030855741,-0.0059756082,0.0035861572,-0.0011604391,0.054596372,-0.056000974,-0.0029668398,-0.038815472,-0.03147694,0.043013446,-0.04063785,0.017640064,0.06881429,-0.027593693,0.0173734,-0.07309949,0.045507617,0.06545979,0.029771782,-0.0009940817,-0.069569744,-0.017168883,0.016129473,-0.015075145,0.056653738,0.0020850764,-0.07594364,0.06079225,0.032332845,0.040881194,0.005963484,-0.01860824,-0.010067273,0.005953273,-4.760854e-08,-0.04648193,0.003070179,0.010961487,0.03907742,-0.066186726,0.049734227,-0.046772167,-0.053488858,0.064821586,0.035749055,0.1204298,-0.05971465,0.0061414344,-0.040839043,0.043869514,-0.0021987238,-0.027959662,0.13789627,0.005642019,0.07707416,0.0050287414,0.0015222419,-0.026501527,0.021743337,0.045382045,-0.020844908,-0.08807686,-0.051753238,-0.02864609,-0.02733181,0.017021362,0.029765954,0.061000235,-0.032816194,-0.015850676,0.036603913,0.0071006636,-0.119301,-0.013456657,0.011280751,0.07100713,-0.034006182,-0.07805659,-0.04629495,0.015202267,-0.053105667,-0.001103949,-0.05173906,-0.050249238,-0.022672027,0.009521207,0.040174104,-0.0014286637,0.00477471,0.046631627,0.024283137,-0.042518523,0.010885356,-0.03141139,-0.028714111,0.041795593,-0.051681064,-0.027834253,0.02833833
Colombia,0.022412112,-0.046000913,-0.04586742,-0.022147076,0.008403245,0.07619841,0.055602755,0.1155552,0.027048651,0.056346767,-0.02584752,-0.081759185,-0.060935035,0.025003105,0.021634566,0.01862168,0.008314891,0.005173954,0.047944322,-0.012838114,-0.04596901,-0.022903277,0.040651735,-0.0065786312,-0.052494936,-0.05323412,0.053908747,0.010247416,-0.058953527,-0.09634517,0.0019214638,0.0026848626,0.08660565,0.04069731,-0.10041589,0.0074973977,0.02230672,-0.017803676,-0.0037398837,0.010750166,-0.0027226212,-0.008444568,0.01758166,0.061081212,-0.028034588,-0.02839024,-0.0064376,0.039707813,-0.012033304,-0.008959787,-0.040014744,0.032661404,-0.038422648,0.067684755,0.0027457406,0.05710773,-0.04331144,-0.007498188,0.09605786,-0.015511111,-0.007194904,0.06683666,-0.024436202,-0.011018131,0.0022904926,-0.05990601,-0.044808295,0.030977082,0.01394686,0.035642877,0.07299142,0.04003334,-0.030105658,0.0044046394,-0.00047083592,0.027258674,-0.033674285,0.012709467,0.019462867,-0.02707563,0.02079939,-0.017131208,0.0047019175,-0.007896381,0.0014449919,-0.015685035,-0.019600885,0.01971889,0.045485456,-0.02024596,0.08896251,0.052933756,-0.020802047,-0.0058887647,0.020542772,0.049653403,0.056150693,-0.03800232,-0.043693163,0.030851444,0.062109474,0.020436086,1.5229488e-05,-0.0061796336,-0.048050575,-0.0029466972,0.061669532,0.046998158,0.007941168,0.009035943,-0.02611192,0.056891643,-0.096028715,0.050025225,-0.043545824,-0.055427253,-0.051001795,0.030491728,-0.03153665,-0.04645878,0.030370899,0.028249662,-0.090502314,-0.0122488495,-0.020413283,-0.020727362,0.06463997,1.6219488e-33,0.037414003,0.0046241106,0.0016622848,0.015854033,-0.01676556,-0.019638687,-0.0017839832,0.00552205,-0.13092357,-0.020842152,-0.05774469,0.009000377,-0.032736614,0.04072129,0.068796635,0.07753484,-0.071826026,0.010466231,0.022988608,0.059461415,0.02724892,0.03535753,-0.0113021275,-0.009312539,0.0547366,0.058448985,-0.013917769,-0.10426727,-0.06926925,-0.0078712925,-0.046881773,0.0037121905,-0.07679699,0.044979397,-0.033350393,-0.013871824,-0.061598934,-0.008767539,-0.040532432,-0.03731039,0.0155775165,0.0043227114,-0.05750491,-0.010170274,-0.024217747,-0.00208048,0.012591207,0.025672682,0.00933829,-0.012267416,0.009983218,-0.029234022,-0.01618467,-0.005390941,-0.029800087,-0.019668818,-0.019213896,0.023181237,-0.021980088,0.034523536,0.11112873,0.009649764,-0.03785867,0.0025357122,-0.04912957,-0.06481057,-0.013287515,0.04806405,0.09812833,-0.0663719,-0.021992398,-0.029955344,0.052695,0.0442565,-0.02504805,0.000280513,0.003580508,-0.006079885,0.017584117,0.03027275,-0.061190493,-0.009604991,-0.01173856,-0.042172574,-0.012090918,0.021546789,0.046116292,0.018971866,-0.10372352,0.07716726,0.001096652,0.018722009,-0.03882837,0.010352111,-0.03653138,-3.206441e-33,-0.04486663,-0.043950282,0.047403034,0.035529584,-0.008843093,-0.0024729236,0.008859069,0.08927862,0.05331779,-0.015388555,0.0433042,-0.015504307,0.01223953,-0.03171995,0.0102538,0.010648219,-0.041651767,0.0037170202,-0.029900748,0.005986302,0.074202284,0.020049999,0.013671804,-0.008676348,-0.05135035,0.020206217,0.0831867,0.03410134,-0.07803249,-0.010575727,0.082272895,0.004897058,0.017321337,-0.028069852,-0.105776675,-0.012420321,-0.0344278,0.05471634,0.037592307,0.08458485,0.04801641,0.069154054,-0.04715148,-0.02771036,0.01788923,0.017936267,0.024031924,-0.014617772,0.001165073,-0.012721231,-0.010007273,-0.01505379,-0.10955096,0.035017673,-0.0042862156,-0.06517179,-0.050795462,-0.045143053,-0.029485207,-0.06355891,0.013297053,0.082345776,-0.021280639,0.0319179,0.031466156,0.04509806,-0.039032523,-0.028722186,-0.0039711655,-0.04938434,0.019814176,-0.0123960925,0.015375871,0.07768733,-0.07747063,0.0310986,-0.046587266,0.040760856,0.043263476,0.050381415,-0.018508853,-0.04780105,-0.026631603,0.028375996,-0.018142262,0.04464573,0.012673482,-0.06351266,0.08170251,0.04724977,0.030921431,0.01219606,-0.037434038,-0.02656748,-0.006969219,-4.4557705e-08,-0.045020603,-0.01405854,-0.023451768,0.02666046,-0.076522104,0.05209685,-0.030199023,-0.03432521,0.027783467,0.060509462,0.0781386,-0.0836732,0.010852397,-0.05166777,0.042704895,-0.019623725,0.00048516612,0.14088465,-0.009408065,0.031722255,0.003471539,0.04271013,-0.0076375413,0.017938083,0.028602453,0.0029117619,-0.105425715,-0.042334225,-0.021193922,-0.0024521076,0.0643103,0.034536563,0.06791311,-0.059375115,0.01921149,0.044966284,0.0072965515,-0.09311685,0.008609924,0.005739246,0.022021214,-0.020273533,-0.10016971,-0.02413217,0.0037220488,-0.11513297,-0.0076794494,-0.0016622259,-0.040545978,-0.010831501,0.036866363,-0.0020620725,-0.015531657,0.0013260349,0.06646083,0.0067035584,-0.09160999,0.030441953,-0.06445421,-0.037898067,0.043124743,-0.07941819,-0.04730176,0.02764997
Ecuador,0.011782359,-0.039118115,-0.059147876,-0.0055880356,0.02915031,0.028128363,0.038195148,0.10425652,0.022057684,0.043978516,0.015609846,-0.06274156,-0.034509562,0.045480173,0.045255415,0.0030090748,-0.021129416,-0.00075138506,0.04641414,-0.01049547,-0.04021041,0.023479553,0.052264333,0.024232456,-0.03819061,-0.049424447,0.03147263,0.045817435,-0.055806465,-0.11867191,-0.019853787,-0.010296448,0.079620615,0.024613734,-0.09194644,0.047051195,0.017887773,-0.06828385,-0.007009194,0.019569354,-0.027259793,-0.047423534,0.0069579077,0.022941152,-0.029213438,-0.017410707,-0.007574622,0.031433847,-0.020207236,-0.028055994,-0.046476845,0.016761081,-0.018495437,0.057066817,0.000446607,0.058801822,-0.056354012,0.002882286,0.06367935,-0.034554757,0.006887017,0.064717345,-0.034445614,0.018578881,-0.020273153,-0.063897096,-0.042739145,0.003458759,0.012892436,0.038611446,0.08704029,-0.004457954,0.008206624,-0.007154957,-0.0037248512,0.041185983,-0.083634295,0.019495381,-0.01524825,-0.009933756,0.041261733,-0.02294669,-0.03480723,0.011951466,0.013659324,-0.0024010125,0.012173436,0.0085215485,0.022110302,-0.0002639823,0.06788934,0.059017923,-0.018631103,0.04820987,0.0037106848,0.049504247,0.08295185,-0.030352358,-0.07466792,0.036811266,0.06438855,0.020075805,0.00032740043,-0.0033566873,-0.0031039333,0.014651274,0.03862061,0.0518902,0.0038819234,-0.0024106181,-0.029559521,0.032638926,-0.12352734,0.045928743,-0.029583696,-0.014133224,-0.061302636,0.032514807,-0.026680548,-0.024044232,0.036223225,0.0058019483,-0.078812964,-3.854529e-05,0.027133016,0.03311683,0.03347682,1.5528384999999998e-33,0.0765582,0.02021225,-0.039657906,0.013127904,-0.017793704,-0.0021974954,-0.016676534,0.0413051,-0.09084383,-0.037519023,-0.058681313,0.010805885,-0.05212809,0.030692313,0.038776718,0.07588457,-0.081088334,0.020943344,0.012363716,0.09089777,0.04444546,-0.0036811656,-0.023133475,0.010384639,0.0041594603,0.06890706,-0.046131473,-0.13383117,-0.046288215,0.00048230152,-0.019682605,-0.049330585,-0.096626356,0.029973311,-0.0460524,-0.023013264,-0.092965834,-0.015872281,-0.008283483,-0.015450693,-0.013926626,-0.018065173,-0.056575835,-0.043635633,-0.021915782,-0.028143857,0.02946383,0.06718954,-0.0058906963,-0.014520245,-0.0071377777,-0.049851656,-0.008094343,-0.03273582,-0.025927393,-0.04681119,-0.0013932319,0.06576444,-0.03742669,0.034812104,0.08282389,0.0052462746,-0.016580828,9.5373594e-05,-0.041678365,-0.0622162,-0.03371384,0.028211202,0.086439356,-0.052234106,-0.0098430235,-0.04519159,0.065892056,0.07664117,-0.0038754814,-0.038380597,0.014795751,-0.00013708518,0.03879935,0.055131156,-0.06009015,0.043329068,-0.034166906,-0.0474332,-0.024781875,0.041443214,0.055928174,0.019887961,-0.069435984,0.09388503,0.009134101,0.0066241208,-0.04350963,-0.03948823,0.00047639062,-3.1048207e-33,-0.035930593,-0.0048920726,0.052527115,0.044341233,0.019212373,-0.02618784,-0.005008638,0.107489854,0.067431755,-0.018593645,0.030458573,-0.011695941,0.0050156913,-0.05851299,0.0060265106,0.0042567123,-0.052302726,-0.017912313,-0.0008628269,0.022044433,0.0748052,0.008640587,0.011016901,0.003943036,-0.019356253,0.018680943,0.061267786,0.0069851917,-0.07631909,-0.0025081364,0.06973721,0.011575291,0.008244641,-0.031004887,-0.07427785,-0.012978369,-0.055267684,0.087418444,0.025036965,0.091277584,0.067597374,0.05007044,-0.02072328,-0.03259891,0.0150131425,-0.0021736003,0.031068869,0.0015627819,-0.012026088,0.007834749,-0.00785538,0.032040093,-0.11839686,0.02686391,-0.0013596221,-0.06323169,-0.07105406,-0.016951256,-0.019011267,-0.037942436,0.0064270026,0.032680728,-0.046901695,0.051382083,0.00015802358,0.043512657,-0.040573638,-0.044991337,-0.017173128,-0.0065574544,0.015113926,-0.050849877,0.03071094,0.05521404,-0.03604623,-0.0080240285,-0.06580244,0.032340333,0.030630698,0.033001687,-0.029705243,-0.031621363,-0.05090942,-0.004421423,0.0015463216,0.04905047,0.008388396,-0.043823726,0.053202357,0.0077863485,0.04430159,0.031370077,-0.03458015,-0.04422603,0.013735559,-4.5895018e-08,-0.025070565,-0.025711821,-0.006688463,0.04280642,-0.0045121275,0.049249887,-0.034350112,-0.026009014,0.056559604,0.053607564,0.10447571,-0.03178663,0.0019803185,-0.083464295,0.03684973,-0.01566074,-0.01276887,0.17595893,-0.012724206,0.07458541,0.044240277,0.006758588,-0.050577912,0.013416256,0.052670617,0.0069346395,-0.064159386,-0.03836974,-0.023617817,-0.013362358,0.094767295,0.027506055,0.057901815,-0.06554835,0.028145207,0.0518971,-0.010244789,-0.0730343,-0.033771303,-0.0005068721,8.716019e-05,-0.041789725,-0.09557354,-0.028106807,-0.018035274,-0.09098021,-0.031319994,-0.01011586,-0.039335076,-0.002488479,0.023105761,-0.021902185,0.022346865,-0.010299472,0.067605026,0.020913009,-0.016476493,-0.0007483249,-0.08499115,-0.046910923,0.019238893,-0.06220474,-0.0103192385,0.01881746
Uruguay,-0.034636192,-0.0237361,-0.07281837,-0.033675216,0.023214571,0.0776463,0.0504508,0.12289964,0.02888697,0.08564872,0.0029096866,-0.07061147,-0.014367268,0.066766344,0.05757149,-0.012900028,-0.019256221,0.024205506,0.044900034,-0.031284258,-0.043959226,0.020306367,0.07135498,-0.011919216,-0.031171212,-0.04519079,0.031752422,0.00870579,-0.08127872,-0.07946766,-0.012928775,0.004353552,0.0671876,0.04322768,-0.08844697,0.026641767,0.026688354,-0.06800241,0.0261726,0.009303804,-0.028223466,-0.0037426043,0.014416541,0.0350255,-0.010352792,-0.021542933,0.017744431,0.0453242,-0.016354142,-0.005848992,-0.04394396,0.057430446,-0.044145055,0.008201275,0.021045666,0.028774967,-0.024229785,-0.028100686,0.05130656,0.0086308485,0.0025174543,0.032309473,-0.016101066,-0.0044645495,0.005157129,-0.102127984,-0.052587133,0.01725297,0.025065307,0.030633502,0.040937945,0.017345546,-0.007509808,0.0048791235,-0.031535484,-0.0071330657,-0.06117239,0.04176064,0.022894226,-0.028254109,0.026070414,-0.044209637,-0.028681345,0.041719414,0.029296892,-0.0027149986,0.003160735,0.028630674,0.049268585,0.0366375,0.07046605,0.0338378,0.0029119807,0.06356757,0.020712186,0.026605764,0.06637693,-0.041642785,-0.07302244,0.046386637,0.03940493,-0.0044642584,0.020597009,0.020270022,-0.014859001,0.031182574,0.05029122,0.064612575,0.005975864,-0.007618125,-0.05950392,0.040549956,-0.12383352,0.055518236,-0.057952516,-0.008565162,-0.027654674,0.010514302,-0.056468435,-0.038591307,0.037097696,0.007724363,-0.04232724,-0.007679667,-0.021350762,0.03481843,0.056001004,1.3922404e-33,0.051574074,0.016877254,0.015738009,0.033759587,-0.043683853,0.038465336,-0.019307604,0.06180097,-0.086068526,-0.039202888,-0.06542695,-0.0010398447,-0.042581473,0.06684185,0.028619273,0.04508329,-0.08157344,0.005012015,0.014004054,0.063483514,0.028366677,0.015954338,0.028675126,-0.021895854,0.026892832,0.05823857,-0.045767196,-0.09014813,-0.0585964,0.0028914912,0.01278042,-0.02843716,-0.101401314,0.021973653,-0.0021698552,-0.04043079,-0.073471025,-0.016924806,-0.0062993923,-0.0014574181,0.0043779346,-0.016677944,-0.057302587,-0.0087432405,-0.013189903,-0.011880083,0.00950936,0.05576322,0.0071896287,0.01223427,-0.012736155,-0.015735697,-0.02127976,-0.054774996,-0.012610619,-0.014123057,-0.008844792,0.05236172,-0.053178806,0.008923396,0.06901351,0.012708201,-0.029702531,-0.015838029,-0.04937143,-0.008574193,-0.022955792,0.022299824,0.10575196,-0.06446601,-0.0048925052,-0.028135996,0.075534984,0.07441985,-0.0092467675,-0.026022933,0.022863377,0.02310389,0.022722991,0.02644669,-0.06518228,0.043138985,-0.01590983,-0.069234654,-0.04572994,0.06608549,0.07092127,-0.011468487,-0.070057385,0.08063461,0.0133008165,0.0041943425,-0.048142377,-0.029608961,-0.019322861,-2.9639528e-33,-0.0437846,-0.03751752,0.02959355,0.030839493,0.002612845,-0.03891176,-0.0140333725,0.10385317,0.043454953,-0.008402312,0.03394956,0.0031235681,0.018929487,-0.058037695,0.013160737,0.0071514887,-0.04850571,-0.025971115,-0.025916342,0.013660489,0.09232711,-0.011267892,0.031545494,-0.027034458,-0.0575771,0.012805758,0.048319343,0.023734333,-0.05787792,-0.018511793,0.07778655,0.0077760825,0.006575513,-0.03962795,-0.07002832,-0.026478302,-0.059069935,0.07739821,0.00872149,0.07236455,0.057162575,0.0478678,-0.05671124,-0.027383475,0.032835457,-0.0057627354,0.004670208,0.011748632,-0.029245693,0.008160274,0.008978235,0.005760678,-0.09827531,0.010051949,0.01722901,-0.060135208,-0.055488773,-0.03286901,-0.031884648,-0.028142404,0.03688492,0.04035276,-0.041253004,0.03452399,0.023849402,0.00949363,-0.061941367,-0.024013372,-0.010043434,-0.015083434,0.012622418,-0.06621321,0.02597263,0.0450454,-0.05115412,0.009180794,-0.07735382,0.01536218,0.029754492,0.032284547,-0.038387466,-0.006194793,-0.048439737,0.019772751,-0.010813354,0.058076575,0.010159027,-0.05966551,0.07866381,0.036760874,0.02028005,0.023453273,-0.013704999,-0.044822063,0.014380583,-4.498144e-08,-0.05064392,0.010659591,0.0064602722,0.03635574,-0.041773178,0.030329593,-0.079199985,-0.046673834,0.08205896,0.036767233,0.08257273,-0.035933897,0.00844092,-0.051587023,0.010961995,-0.010693536,-0.023667952,0.16676965,-0.003690972,0.065755576,0.0051712943,0.03868214,-0.044204947,0.022248875,0.046588473,-0.017476153,-0.08745504,-0.04307293,-0.034217276,-0.014077013,0.05025305,0.0018258591,0.082669936,-0.07922396,-0.005884889,0.05283972,-0.0049919905,-0.12471187,-0.019573458,-0.013676739,0.040785268,-0.039462905,-0.06232092,-0.017335419,0.011212295,-0.07877788,-0.00014565025,-0.00807059,-0.061161533,0.0059913914,0.0366634,0.013806506,-0.01648375,-0.020908687,0.060757373,0.017794443,-0.068092704,0.005065545,-0.042569056,-0.02458439,0.029220385,-0.075637095,-0.027397623,0.016949685
Paraguay,-0.00403921,-0.029387496,-0.10789332,0.001126962,0.033879016,0.044205405,0.048605837,0.10045313,0.019578027,0.06989196,0.0014642158,-0.06219671,-0.008444595,0.079682365,0.04981353,2.8097034e-05,-0.02991588,0.006341503,0.04235403,-0.023365447,-0.05003596,0.032424476,0.06365301,0.009046747,-0.02836399,-0.055255838,0.04834112,0.013955764,-0.0603617,-0.12741317,0.009732843,0.007991727,0.064195424,0.026533652,-0.067751415,0.011924241,-0.0062337974,-0.042498745,-0.0056031463,-0.0066984873,0.0036357045,-0.021616044,0.011461008,0.030270565,-0.034146264,-0.011811439,-0.03732313,0.038090076,-0.026506403,0.013436865,-0.045292478,0.026362665,-0.050800428,0.04300988,0.0005044409,0.03516854,-0.057675023,-0.009334581,0.057710256,-0.039148405,0.014764769,0.058883496,-0.041960124,0.0026213278,-0.008098384,-0.061649337,-0.043021325,-0.011811749,0.006071863,0.025722917,0.045381542,0.0058921482,0.0014559048,-0.0071046506,0.002468264,-0.0025032002,-0.059784666,0.02188674,-0.0069875596,-0.010632783,0.050980166,-0.031965517,-0.030868802,0.020794865,0.024760101,0.0075990325,0.022585772,-0.0066857403,0.060357682,0.007948276,0.06538215,0.04480578,0.0014714014,0.033209644,0.02123592,0.022045163,0.07212691,-0.041833036,-0.057083387,0.043509897,0.0651827,0.00927957,-0.022935472,0.019413684,-0.03918647,0.009715209,0.060158543,0.054350596,0.0030120285,0.018169804,-0.0069717932,0.065195985,-0.11264778,0.032009076,-0.010400419,-0.010572976,-0.03963485,0.012726224,-0.044640023,-0.03961941,0.029461782,0.017031483,-0.07643227,-0.01645471,0.03245778,0.02545643,0.032657675,2.0052680999999998e-33,0.06838203,0.042591196,-0.039984766,0.03609041,-0.0360234,0.00828802,-0.013212519,0.023118604,-0.09849946,-0.03193388,-0.05848316,0.011005942,-0.036024354,0.05966518,0.054682758,0.07239641,-0.05178512,0.007577099,0.00577734,0.08852102,0.0110818455,0.014510008,-0.027027316,0.0054277433,0.029859561,0.06240839,-0.026021458,-0.11331936,-0.06763567,-0.016117604,0.018754767,-0.0061827474,-0.1060213,0.042942967,-0.0099549,-0.02287961,-0.09169684,-0.021885743,-0.012310536,-0.012098918,0.015007872,-0.009277314,-0.062126987,-0.012215985,-0.039001364,-0.03883604,0.028523158,0.049086194,0.010226214,-0.02360381,0.002235352,-0.01466723,-0.029889148,-0.025834318,-0.03378082,-0.027883222,-0.03756674,0.031422704,-0.0388844,0.01996967,0.094035,-0.0153703885,-0.030585902,-0.006798472,-0.064849734,-0.055898104,-0.04372952,0.0049137613,0.13521196,-0.061082955,0.0050489553,-0.046037316,0.07138563,0.07258754,-0.015242515,-0.018558694,0.035083376,0.034280322,0.026956668,0.044644374,-0.042097706,0.04266524,-0.009749503,-0.057165906,-0.048267506,0.011596649,0.043308213,-0.022186268,-0.06594634,0.06666948,0.018576264,0.014098265,-0.021645345,-0.03682827,-0.0029614398,-3.0183921e-33,-0.0097533325,-0.019156469,0.034469325,0.05413673,0.0048907744,-0.045714047,0.0012902727,0.10688107,0.07162917,-0.007160965,0.043267906,0.018116158,-0.007776277,-0.06208255,0.036397196,0.011688257,-0.021587184,-0.011166104,0.032967754,0.017015245,0.077980034,0.026307963,0.015527249,-0.023897668,-0.04526551,0.03955532,0.04726959,-0.0011637373,-0.06695233,-0.03734202,0.050191782,-0.0056727747,0.022859575,-0.037325427,-0.11409804,0.004282669,-0.03675217,0.0782776,-0.009168772,0.106106885,0.046786424,0.04947845,-0.04228508,-0.04337325,0.019687874,-0.020105096,0.052739255,-0.00762299,0.0052196574,0.009593394,0.01971211,0.02063066,-0.09578227,0.0073032957,0.018382883,-0.07393629,-0.061549366,-0.04126352,-0.01574589,-0.032645155,0.04481473,0.08194077,-0.04411423,0.03347072,0.007272244,0.03877559,-0.027172914,-0.08411754,-0.01524638,-0.017596858,-0.0057036346,-0.047924228,0.046446975,0.056123078,-0.04553898,0.0007384493,-0.079571955,0.024108808,0.04301737,0.018030263,-0.05236829,-0.0611639,-0.049977925,0.01878393,-0.016953915,0.058773343,0.0105572,-0.07154519,0.061160002,-0.0017650557,0.040027797,0.008968096,-0.014269958,-0.042102322,0.028708858,-4.6461306e-08,-0.028809998,-0.019258797,-0.054981306,0.026056163,-0.023142299,0.048540633,-0.029232813,-0.04199858,0.06396027,0.04420181,0.07825332,-0.037398145,0.019909661,-0.067001686,0.05558198,0.0061206073,-0.025141044,0.1384333,-0.019878339,0.069620974,0.020815294,0.018500779,-0.063387446,0.016659934,0.031278297,0.011012758,-0.07533641,-0.023979459,-0.030599756,-0.0022187906,0.059586607,0.03045415,0.08840113,-0.09974567,0.041689917,0.055686805,0.026376637,-0.10592932,-0.012216897,0.023651425,0.04148995,-0.013884067,-0.061030827,-0.008424427,-0.034136355,-0.090642676,-0.027564367,-0.037778698,-0.05602721,-0.020127568,0.057612732,0.015385249,-0.028829115,0.007462219,0.068886384,0.013865216,-0.03156434,-0.020288846,-0.06006836,-0.012569006,0.036795333,-0.051183138,-0.01984901,0.0057867626
France,-0.008445516,-0.020242585,-0.04495993,-0.063446485,0.035495933,0.070724085,0.057734545,0.12784718,0.050718255,0.024629477,-0.02957609,-0.08391991,-0.008512503,0.043983623,0.006631884,-0.024229083,-0.010208412,0.01553201,0.020615192,-0.021017997,-0.062420268,0.022538183,0.08564233,-0.049921677,-0.011867594,-0.10185698,0.029280918,0.029904367,-0.05796027,-0.121034116,0.04569724,0.018646752,0.034105983,0.024491088,-0.08586733,-0.0033503633,0.0013977312,-0.045403805,-0.005124661,0.04936067,0.005394313,-0.056240007,-0.036529444,0.026294632,0.007459778,0.044382587,-0.019869238,0.025753489,-0.042416893,0.013313189,-0.06544546,0.06616666,0.005055474,0.0143900495,0.0071968166,0.048766173,-0.029233517,-0.0008087572,0.07807187,-0.03946708,0.03241367,0.04369062,-0.0059511093,0.0033686124,-0.01854622,-0.07816637,-0.04458361,-0.001436659,-0.0020605833,0.035385307,0.027872648,0.010576396,-0.025162023,-0.04326095,0.05094767,0.030374829,-0.055104002,0.0119601805,0.053265013,-0.06443789,0.026330639,-0.035101917,-0.0032822995,0.0265707,0.02845537,-0.017856618,0.045386113,0.0051985,0.05929858,0.008745947,0.02579368,0.0021125195,-0.0042701676,0.035922643,0.017146273,0.042798147,0.054027233,-0.03608298,-0.07940864,0.050291184,-0.008253967,0.02921027,0.021398991,0.030867554,-0.039623372,0.010855532,0.051974263,0.049563587,-0.004275125,-0.0240708,-0.016359022,0.03022038,-0.1034245,0.002753635,-0.0072547416,-0.042001188,-0.035733398,-0.0064796256,-0.021936534,-0.017637394,0.018709624,0.020986496,-0.09568842,-0.00246925,-0.0033615911,0.057689603,0.024286019,2.0506938e-33,0.06997271,0.04164513,0.05146983,-0.0076498035,-0.040806238,-0.014021174,-0.04259197,0.020648416,-0.092460185,-0.026645329,-0.058957554,0.005090734,-0.03786009,0.08554132,0.02546791,0.03280071,-0.011895943,0.023249881,-0.022013692,0.061932668,0.06851819,0.020612167,0.004800125,0.00019416436,0.06405134,0.030255675,-0.0035563356,-0.04409784,-0.06376194,-0.012943042,-0.017291224,-0.09230904,-0.08859311,0.04307491,-0.040529247,-0.014164314,-0.09672119,-0.0033565164,0.014008249,-0.026363838,0.02264174,-0.020396845,-0.054625027,-0.027047975,-0.07276897,-0.020511167,-6.014943e-05,-0.011680796,-0.005127266,-0.02154177,0.0011182728,-0.029352665,-0.019203188,-0.018004516,-0.015930815,0.0020362416,-0.0155931255,0.03266951,-0.031517543,-0.025409807,0.057776567,-0.0072203754,-0.047156874,0.0070267394,-0.03031032,-0.042752944,-0.012586136,0.056257345,0.055414815,-0.111114986,-0.014493556,0.0014357934,0.09403067,0.036686517,0.011017809,0.020775141,-0.0107628,-7.8324374e-05,0.036446456,-0.011538025,-0.06388552,-0.028415052,-0.041620962,-0.06464576,-0.058303874,-0.004171368,0.030835284,0.00463481,-0.051755622,0.046252165,-0.020745413,-0.036886748,-0.009128972,-0.01425819,-0.056295745,-3.5274223e-33,-0.0416258,0.036914054,0.032905407,0.037135176,0.05206106,0.013116158,0.01471643,0.09048963,0.053270526,-0.00988717,0.022293823,-0.016936947,0.009089962,-0.06695367,0.00747633,0.030937318,-0.02369475,0.012351916,0.02151378,0.01252386,0.072499365,-0.008265194,-0.0108680185,-0.002510521,-0.050322887,0.05263138,0.048644044,0.021369366,-0.08606717,0.004185089,0.060732953,0.022267759,0.038713578,-0.0050807944,-0.032746695,-0.0053295423,-0.033840574,0.07297483,0.018502768,0.09925478,0.03521153,0.0033358072,-0.028998794,0.0004282215,0.060941096,0.009496579,0.013473997,-0.052832466,0.012543031,0.023535898,0.003964391,0.08034218,-0.0945864,0.02020696,-0.008411952,-0.007396126,-0.034295004,-0.020757861,-0.033487685,-0.02350326,0.043593638,0.04654054,-0.007759625,0.04941505,0.009467977,0.009919317,-0.08958394,-0.015222873,-0.047753103,-0.062087342,0.014497027,-0.027637027,0.047088005,0.04756603,-0.059493203,-0.007866023,-0.049643178,0.040705185,0.032338414,0.04078489,-0.03798615,-0.11134032,-0.04689604,0.029826311,-0.026360549,0.03304984,0.013979871,-0.09442062,0.07682301,-0.031841543,0.04451771,-0.00026424156,-0.04518298,0.0074590542,0.05859212,-4.7316732e-08,0.014701222,0.004903968,-0.028567735,0.039570153,-0.06925894,-0.017455272,-0.030735426,-0.0489247,0.013936747,0.015373617,0.065757,-0.048511505,0.016166998,-0.076569535,0.07138588,-0.007067363,-0.03530047,0.11855218,0.004019828,0.08436393,0.032898966,0.015381291,-0.035081334,0.0028845826,0.05048657,-0.032273304,-0.062482867,-0.055950914,-0.04863339,0.004448325,0.076405615,0.06628342,0.056067433,-0.05946163,0.024714194,0.04608963,-0.0043414007,-0.064832404,0.014924415,0.05047915,0.035174698,-0.013020804,-0.059821986,-0.029145317,-0.005483306,-0.05421462,0.0059860204,-0.036891855,-0.022265503,-0.024913741,0.034677558,0.06952267,-0.012049838,0.021113334,0.06293183,0.07329915,-0.085302725,0.01675375,-0.03908258,-0.05509712,0.024214061,-0.04744535,-0.0059780134,0.0032570458
England,-0.011645875,-0.0487063,-0.058928747,-0.05717941,0.026628833,0.07978693,0.065033935,0.07607024,-0.004306401,0.025568845,-0.03851515,-0.09733616,-0.028570592,0.069208436,0.031081874,0.021479616,-0.02199606,0.00516661,-0.0024008479,-0.029867163,-0.080776624,0.0507895,0.051553447,-0.0072658886,-0.0070508914,-0.069317594,0.06287101,0.03689076,-0.08140805,-0.106528796,0.026554234,-0.027282106,0.06172157,0.028029535,-0.061947756,0.021681331,-0.009068831,-0.04625025,-0.0070864405,0.010507649,-0.015430976,-0.04992839,0.023557784,0.028861318,-0.01188984,0.06993466,-0.021953344,0.005867613,-0.03523307,0.02070217,-0.076433726,0.057146315,-0.003946381,-0.0014069123,0.015288334,0.043487404,-0.054611303,0.008208258,0.02607707,-0.05513044,-0.015881844,0.031589277,-0.0071771774,-0.0065067965,-0.0067223636,-0.07710772,-0.07291859,-0.007760546,0.035053864,0.008465726,0.027312677,0.022439042,-0.005687884,-0.03531648,0.008791202,0.012243635,-0.04103454,0.0050837616,0.032622695,-0.03199986,0.01878378,-0.032155305,-0.027335703,0.04509433,0.010619158,-0.03495944,0.008131472,0.006064264,0.037385304,0.03195461,0.0656132,-0.023840938,-0.015946783,0.0392279,0.03202353,0.04515171,0.058701437,-0.07656656,-0.07280168,0.049480923,-0.013302852,0.011318682,0.009665986,0.04029067,-0.01332037,-0.026196588,0.021098815,0.0654106,0.0155155165,-0.04585463,0.051885523,0.05789196,-0.11867087,0.04090399,-0.00058594707,-0.055645235,-0.03755405,0.008787694,-0.011732224,-0.0069510015,0.034005728,0.053526625,-0.05651665,0.003020638,-0.019210713,0.07241975,0.03297312,2.2699352e-33,0.05443389,0.023687996,0.01851858,0.026441412,-0.043450937,-0.022363337,-0.02187855,0.029377861,-0.056651726,-0.0488422,-0.020775404,0.006064917,-0.030851545,0.0334483,0.00785041,0.0486195,-0.05238454,0.0135067245,-0.030266741,0.08476904,0.02650223,0.017576713,0.0018334682,-0.023864072,-0.011323431,-0.0026878319,0.0004896547,-0.054134466,-0.032277856,-0.0005550089,0.026658397,-0.058915377,-0.109553896,0.04362456,-0.01804047,-0.023994772,-0.11528778,-0.03916395,0.040010557,-0.03712922,0.0072094714,-0.0020419927,-0.05112444,-0.031127503,-0.051812313,-0.027944697,-0.010179924,0.0046358095,-0.0451558,-0.0018993124,0.025753025,-0.03630125,-0.006570242,-0.029651644,-0.024475263,-0.047811583,0.019784834,0.041762196,-0.029190276,0.015438148,0.059223022,0.012648872,-0.037232503,-0.0135517325,-0.043217182,-0.08218046,0.0022795915,0.004676457,0.023941457,-0.05900532,0.028982619,-0.00948256,0.11233814,0.052306034,-0.033691294,-0.019576501,0.00046635003,0.03660115,0.017755508,0.0036796092,-0.05872053,0.03788742,-0.047504846,-0.08108534,-0.03526373,-0.0064227707,0.023392359,-0.0409112,-0.032467194,0.05272045,0.014879824,-0.012421086,-0.03473907,-0.01915844,-0.035730563,-3.5524707e-33,-0.047981467,0.006067103,0.036898647,0.053373694,-0.005657394,-0.006045294,0.03710588,0.08011567,0.084211424,0.021833438,0.031502392,0.04305995,-0.0031055768,-0.032387212,0.045388374,-0.005002628,-0.0131380055,-0.008296469,0.025620518,0.022239536,0.11781231,-0.013887764,0.0032565943,-0.018983837,-0.02052132,0.02464678,0.02633173,0.03660108,-0.06799483,-0.025838885,0.083447136,0.019591726,0.029588828,-0.05637326,-0.06020186,-0.024476456,-0.0095589645,0.061826587,0.013575893,0.07457823,0.07259818,0.0004528526,-0.041645177,-0.008935303,0.016933339,0.0069763064,-0.001123535,-0.00050720095,-5.6312994e-05,0.0718921,-0.026023902,0.050589856,-0.0878339,0.005650721,-0.040690545,-0.029054739,-0.07041183,-0.024530144,-0.028972805,-0.008734495,0.022743693,0.025857529,-0.034579232,0.03436987,0.0029506092,0.0676402,-0.03783218,-0.04778304,-0.032423656,-0.044635918,-0.032712344,-0.03470025,0.08505978,0.013959948,-0.04799451,-0.0026209555,-0.03341203,0.008865366,0.026702829,0.0154303815,-0.02054773,-0.06982123,-0.03544868,0.023079414,0.013195434,0.023416145,0.015313821,-0.016504984,0.027019866,-0.044040713,0.057132915,0.006680461,-0.02106427,-0.015351223,0.028385846,-4.87346e-08,-0.05929802,-0.005774772,-0.021076487,0.019060563,-0.022753743,0.04030093,-0.027434321,-0.021772929,0.054999463,0.031646952,0.087022975,-0.05704277,0.0015899615,-0.08579318,0.058753654,0.0020596916,-0.076544195,0.11356914,-0.006292999,0.087796405,0.04031306,0.019722603,-0.027201384,0.035772398,0.032606475,0.0026913148,-0.032161575,-0.048250236,-0.053887162,0.0029293424,0.07396854,0.06515961,0.09428819,-0.013536463,0.014638698,0.026891608,0.008691325,-0.04030675,-0.0074304165,0.057359066,0.02637433,-0.01945314,-0.0845759,-0.019607028,-0.007168242,-0.048482176,-0.033517357,0.007011834,-0.046082858,-0.035921518,0.056956675,0.044387136,0.03313256,0.04360899,0.056186177,0.061592873,-0.039211597,-0.0066328016,-0.042841785,-0.012310531,0.054749556,-0.053076964,-0.013323965,0.024180658
Spain,-0.0028709013,-0.017414583,-0.051293828,-0.0033904163,0.0053448277,0.06092282,0.05135745,0.094035454,0.014856739,0.013202394,0.00434596,-0.10734709,-0.029611813,0.07520385,0.015052561,-0.0074413577,-0.02106605,0.0061774584,0.017146964,-0.0065528518,-0.054495737,-0.0031682136,0.02199006,0.0010931497,-0.024622,-0.08752999,0.055228576,0.016147077,-0.09044763,-0.12480724,0.008660197,0.008708782,0.06765163,0.008269932,-0.093104765,-0.007702441,0.0024019594,-0.045994677,-0.031972174,0.0009937828,-0.01235898,-0.013352316,0.008466544,0.058099154,-0.0067292135,-0.012175379,-0.018870536,0.017784078,-0.018579649,0.031837244,-0.09577712,0.035973854,-0.005910347,0.014460529,-0.02288023,0.053156283,-0.046044543,-0.010316758,0.0748734,-0.01832958,0.030089699,0.051380597,-0.013510773,0.003092431,-0.043285035,-0.06619274,-0.015859699,0.002562416,-0.023347728,0.03389963,0.046998657,-0.00043355985,-0.012175272,-0.02451689,0.062340237,0.02913195,-0.057796218,-0.022820376,0.036784146,-0.046997305,0.02120529,-0.047339037,-0.05011278,-0.0031576157,0.027976323,-0.018903105,0.024452724,-0.0035885698,0.051243264,0.042227525,0.056621537,0.046832684,-0.02351289,0.012946606,0.016849209,0.05952026,0.06932425,-0.024305156,-0.048669644,0.046543557,0.033851948,0.005780479,0.031695426,0.015497572,-0.03374432,0.030061614,0.049468376,0.03271766,-0.008706773,-0.006668806,-0.016216867,0.04133236,-0.09608707,-0.0013709428,-0.030961346,-0.016723612,-0.024257151,0.020374287,-0.0030113538,-0.027650224,0.033800997,0.019453693,-0.07407995,0.010547737,0.008237996,0.047296524,0.0054505044,2.0303375e-33,0.043910526,-0.008022135,0.015703984,0.033460494,-0.011397489,-0.010680405,0.007946713,0.018198265,-0.12034825,-0.054908834,-0.077832334,0.00974016,-0.014437408,0.060212485,0.036913164,0.052991234,-0.034727238,0.0105257565,-0.02492681,0.06861461,0.049977303,0.023518907,0.0009785404,-0.025525382,0.048001923,0.060333356,-0.009644555,-0.057829298,-0.06219113,0.006877338,-0.012132961,-0.056787524,-0.08598021,0.016113956,-0.0018987431,-0.0020351484,-0.071976915,-0.03794591,-0.010189234,-0.036354944,0.016935106,0.0064185266,-0.037390437,-0.02746105,-0.0801067,-0.051357713,-0.01296658,0.022958832,-0.019002292,0.00651885,-0.013502683,-0.039659407,0.00762805,0.0025438939,-0.016513173,0.018080022,-0.03147767,0.0643515,-0.032067496,-0.0017454636,0.07636286,0.013216561,-0.035989918,0.015368932,-0.031171365,-0.0326514,-0.021375991,0.052578613,0.08804071,-0.0882182,0.005381607,-0.018316511,0.071515866,0.062489673,-0.014042109,-0.014005434,-0.014302735,0.015741447,0.020517495,0.022393595,-0.058797278,0.021954507,-0.009355777,-0.06097839,-0.026849885,0.03969809,0.05319933,0.022198008,-0.07142478,0.08455953,0.025073979,0.012652046,0.01259858,-0.012861243,-0.030686714,-3.379493e-33,-0.022508599,-0.0003322307,0.06549,0.03440871,0.0062700394,-0.0073577175,0.00082796626,0.06903613,0.036484744,-0.020485759,0.03643237,-0.0010981791,0.01226119,-0.07794892,0.007953273,0.040123753,0.0045878757,-0.010209903,-0.003947029,0.007632239,0.044127487,0.0042667016,0.00043434606,0.0036016444,-0.044832,-0.0007773592,0.038265202,0.02565684,-0.079991065,-0.0058296765,0.039625064,0.023614403,0.0078726895,-0.04231371,-0.07255793,-0.023374192,-0.046577606,0.04958215,0.04524023,0.1398608,0.039100986,0.0320397,-0.053854015,0.021401862,0.025039515,0.04707492,0.02517243,-0.035365634,-0.000596262,-0.003327299,-0.0047984864,0.0021242795,-0.09392328,0.026849411,0.013434803,-0.054072343,-0.04251951,-0.038050383,-0.051857974,-0.021594984,0.032950804,0.038860038,-0.0169244,0.016362203,0.024029898,0.077571794,-0.0733998,-0.04796193,-0.05657748,-0.07825677,0.021060057,-0.019682694,0.0010784484,0.058875438,-0.072189525,-0.008268396,-0.066615626,0.057993047,0.03191487,0.041724846,0.008712957,-0.11528497,-0.04408272,-0.0015810898,0.0044743386,-0.004872309,0.004502967,-0.06429776,0.05640392,0.012515002,0.026650172,0.015526399,-0.01653961,-0.017399361,0.061489914,-4.5847994e-08,-0.043099616,-0.015250659,-0.029710833,0.016271139,-0.07515123,0.04640781,-0.03481032,-0.025230763,0.041046996,0.028210334,0.107518844,-0.06037953,0.007965254,-0.043760948,0.060551666,0.014510854,-0.017567886,0.14735267,0.0050154543,0.07389762,0.025152467,0.038517393,-0.051297583,0.025357129,0.040988844,-0.02174604,-0.07216411,-0.031006984,-0.02648145,-0.02045339,0.048874777,0.0389773,0.06483723,-0.059241615,0.0045453473,0.060888216,-0.00021849215,-0.07375309,-0.0030642604,0.03283239,0.042578373,-0.003120537,-0.12533993,-0.038247216,0.009088338,-0.05862983,-0.027434349,-0.01689738,-0.06400908,-0.045106728,0.053229555,0.045094423,0.015354196,0.027665861,0.088046975,0.033193775,-0.03988182,0.032824915,-0.046645086,-0.0074825827,0.040876422,-0.037427105,-0.012259331,-0.0016814447
Germany,-0.009951794,-0.0042293663,-0.067029625,-0.029894315,-0.00013687878,0.10548722,0.068163425,0.14031664,0.030887326,0.028877832,-0.034435082,-0.11186229,-0.027526924,0.0760869,0.024629809,0.010832503,-0.0047716545,0.008831264,0.017957576,-0.038822465,-0.09111759,0.015030949,0.07373315,-0.062237367,0.004782121,-0.07662231,0.051335417,0.0065001845,-0.063467965,-0.10618487,0.02865948,0.009505718,0.048801832,0.01654483,-0.021557024,0.00933214,-0.0017895041,-0.056095198,-0.04734461,0.014737629,-0.019076562,-0.02378547,-0.0052549895,0.034162626,-0.010202304,0.06578323,0.0062193973,0.019281747,-0.05319858,0.04239209,-0.061921492,0.03136974,0.0033251771,0.06343844,0.05419167,0.04871974,-0.04225723,0.007061701,0.0358397,-0.031491943,-0.0052344417,0.022871396,-0.023500519,-0.014292763,-0.012134479,-0.084857784,-0.056391414,-0.0031799192,-0.007168486,0.03337662,0.060683284,-0.034201883,-0.031080108,-0.016564738,0.013148639,-0.013894629,-0.043559726,0.02053224,0.081883125,-0.056869254,0.020844681,-0.02872568,-0.021319697,0.011793539,-0.015459706,-0.017144373,0.0021144086,0.005374285,0.06119079,0.018490385,0.046197157,-0.01856083,-0.003930507,0.017624144,0.020054247,0.039256368,0.083021924,-0.03248361,-0.016379943,0.04879806,0.0067016203,-0.0004995424,0.012380059,0.03337356,-0.008730188,-0.0035915857,0.06919696,0.07951209,0.0045843343,0.0015978782,0.0062673492,0.04349716,-0.08976198,0.016864864,0.0034606834,-0.04195615,-0.0062888633,0.015450879,-0.017946716,-0.0025720617,0.040736936,0.017833952,-0.06907733,0.053325776,-0.004758058,0.078473575,0.042399786,1.1265145999999999e-33,0.050209597,-0.020057471,0.042024545,0.014542462,-0.054688666,0.01309205,0.003169359,0.020023795,-0.100929536,-0.04475009,-0.07319457,-0.0034596904,-0.030794293,0.042451583,0.0022763158,0.043015305,-0.04810565,0.006144178,-0.022038084,0.09100531,0.07538379,0.025997963,0.0038015244,-0.011819109,0.054019447,0.03319591,0.021781582,-0.054089032,-0.041269865,-0.013274165,0.012093187,-0.07873041,-0.12202365,-0.013345709,-0.025754388,-0.0041978215,-0.10033139,0.0021469677,-0.02387506,-0.058288272,0.03537336,-0.0036359937,-0.09027566,-0.032732204,-0.024112742,-0.004404255,-0.02701324,-0.0087656565,-0.01178155,-0.0267276,-0.002346219,-0.015637038,-0.023034094,0.0007147548,-0.024689127,0.035064273,0.034713354,0.020920059,-0.047342636,0.0011588718,0.019663421,0.0024539272,-0.058893748,-0.0036658149,-0.0037809466,-0.029515604,-0.02016278,0.046013597,0.03185836,-0.05869743,-0.01982811,-0.032063637,0.08619985,0.043437004,-0.04655104,-0.017124401,-0.0120707685,0.027530622,0.0022291695,-0.012037946,-0.07151756,0.01010819,-0.04448783,-0.06812679,-0.031818178,-0.011663536,-0.005981376,-0.02379622,-0.06757979,0.05739685,0.022193443,0.0014030196,-0.030343117,0.015837708,-0.09547043,-2.7964983e-33,-0.03361725,-0.0018102024,0.020664314,0.0335243,0.024594177,0.026417423,-0.005382294,0.11126631,0.04624381,0.0026496982,0.032958236,0.023986222,-0.002864596,-0.005952627,0.008441224,0.028759811,-0.026831392,0.01875038,0.012311191,0.015773002,0.09851844,-0.017152153,0.00618885,-0.015201833,-0.08101308,0.039864782,0.051621396,0.045433324,-0.074789256,0.00865793,0.06592291,-0.026294814,0.017776385,-0.042045705,-0.02044813,-0.017329022,-0.049602017,0.06389589,-0.0070304433,0.078431614,0.051124908,0.027409224,-0.07680137,0.018283648,0.032731228,-0.0043723625,-0.019854639,-0.022209384,-0.023867624,0.0029448234,-0.008211504,0.0075612073,-0.083916105,0.01431709,-0.03578647,-0.030052522,-0.04757136,-0.045210574,0.003437708,0.010895817,0.045735873,0.051768288,6.277286e-05,0.016473882,0.014440939,0.027490083,-0.059319343,-0.037363976,-0.03799226,-0.042894993,0.004013629,-0.009207157,0.057893757,0.040868558,-0.068617836,0.0096153775,-0.029446367,0.06141617,0.029149802,0.021388663,-0.013440148,-0.054415464,-0.033970006,0.06039752,0.0039031117,0.04561531,0.03173633,-0.05226367,0.07271804,0.003673039,0.021227892,0.021790521,-0.010977242,0.01338717,0.031295124,-4.5560594e-08,-0.06682916,0.0063208784,-0.036345195,0.038896613,-0.060109217,-0.004067188,-0.04857677,-0.062300697,0.028594298,0.012526831,0.08997329,-0.04132549,-0.015822727,-0.050219413,0.07061857,0.009070279,-0.057056945,0.09690213,0.0015419956,0.09836556,0.03485497,0.027467974,-0.013542255,0.03712714,0.03671121,-0.0012883545,-0.070157416,-0.035023306,-0.034701053,-0.006904594,0.045448203,0.074501604,0.07625682,0.005407189,0.009262939,0.047318485,-0.02536125,-0.085062355,-0.014800152,0.051319283,0.012997847,-0.021909816,-0.05237729,-0.031525284,-0.028295279,-0.06884036,-0.006396465,-0.0422705,-0.030901482,-0.027674519,0.024947843,0.03301026,-0.029851787,0.032976314,0.053845797,0.05904072,-0.075084284,0.02086559,-0.052095436,-0.037930045,0.053513546,-0.086570114,-0.023189949,0.037466668
Portugal,-0.025943277,0.006271211,-0.06569583,-0.0056384574,0.0061528366,0.08991257,0.018710848,0.106449835,0.036173332,0.001824868,0.021644583,-0.14281723,-0.060457442,0.067565605,-0.0007812101,0.011247825,-0.010885282,0.031213697,0.015343761,0.010500636,-0.05677955,0.0030972084,-0.002308922,-0.018478192,-0.030639652,-0.05122791,0.080067396,0.031147538,-0.08043103,-0.106941774,0.027985122,-0.027272811,0.06786164,0.024100127,-0.10248769,0.0072155977,0.009850592,-0.06715519,0.035661235,0.054433268,0.0006451417,-0.031508453,-0.015229921,0.031229345,0.012791095,0.01842631,0.008253142,0.010408749,-0.036451865,0.022196561,-0.078606896,0.053661402,-0.028478228,0.024480583,0.004472908,0.03520041,-0.005216978,0.026577802,0.03291196,-0.02983022,0.045811124,0.027681788,0.0032326316,-0.005078559,-0.03420782,-0.07861625,-0.031899612,0.008948957,0.0006817465,0.028546177,0.014150819,0.0042267097,0.027480682,-0.03411697,0.0075973277,0.05879307,-0.07291385,0.017275179,0.06171333,-0.057064448,0.033300277,-0.032879945,-0.047051575,-0.010835748,0.0244554,-0.018043114,0.035604667,0.01241146,0.031688746,0.02890282,0.054535903,0.028905183,-0.02761792,0.03719615,0.014101384,0.043572307,0.04540696,-0.012698085,-0.05852932,0.027784385,0.00055890495,0.04559597,0.019396113,0.015031128,-0.031976588,0.030948957,0.06463794,0.04318975,-0.0018975119,-0.0071671284,-0.033001088,0.02777171,-0.102141194,-0.004500896,-0.012625691,-0.008261709,-0.0397316,-0.0060109426,-0.028819256,0.005446649,0.028424919,-0.01307933,-0.06328035,0.011114705,0.018020526,0.048804797,0.042954013,2.0539034e-33,0.06501895,0.0001274212,-0.0048649507,0.024755027,-0.029748771,0.0059992294,-0.040982828,0.015462016,-0.089163154,-0.04830527,-0.055585023,0.014903971,-0.05187783,0.062403634,0.015943961,0.06920839,-0.03642303,0.0018726493,-0.055238605,0.041623954,0.05072867,0.012457797,-0.009105571,-0.027338656,0.04703554,0.07763117,-0.027064474,-0.101808555,-0.028349878,-0.00677836,-0.009725299,-0.06462538,-0.10498008,0.01825243,-0.039482478,-0.01803911,-0.09462042,-0.025765767,-0.01206229,-0.020366909,0.031158458,-0.014645196,-0.027754452,-0.008749738,-0.07914142,-0.055028684,-0.017304892,0.024592612,-0.0073266705,-0.023540923,-0.031188952,-0.056422893,-0.0016689623,0.020024262,0.0036010088,-0.07165175,-0.05564116,0.047852,-0.034645166,-0.0049002697,0.070704706,-0.029562347,-0.027882142,0.025560398,-0.025510384,-0.050765224,-0.034181263,0.078015536,0.0732025,-0.07898356,0.0047992473,-0.001418843,0.0973635,0.060461245,-0.062485814,-0.04388018,0.02324144,-0.009310085,0.005159822,0.041607518,-0.07107533,0.025139859,-0.016768752,-0.092519134,-0.025969706,0.04206452,0.036198583,-0.00096569554,-0.050598834,0.08858037,0.0035785644,0.008443707,-0.015214757,-0.034614604,-0.013859217,-3.9474466999999996e-33,-0.018032296,-0.009121405,0.02930327,0.016339434,0.013247192,0.010238075,-0.018447222,0.08102993,0.02184714,-0.014710784,0.016367693,-0.01134263,0.013817555,-0.054707818,0.006459048,0.021887602,-0.012233437,0.0049518114,0.025037,-0.0075761904,0.0949645,-3.5247336e-05,0.003043243,0.0032713276,-0.022750732,0.0149812335,0.017408166,0.01983108,-0.08217304,0.019762324,0.06908762,0.01953719,0.014405932,-0.0026283925,-0.049438097,0.0024203977,-0.052318446,0.07776681,0.010961607,0.11840402,0.06547428,-0.009009915,-0.07507717,0.01169464,0.032837596,0.02415242,0.012840321,-0.028752808,0.0047048326,0.0057975827,0.0072127017,0.019876527,-0.122617684,0.020675646,-0.00027396495,-0.026339384,-0.057595517,-0.046436902,-0.031548418,-0.0057661757,0.020174725,0.033634484,-0.024528304,-0.005577525,0.0009874636,0.08396387,-0.049598392,0.00087322097,-0.01909362,-0.053097624,0.032972578,-0.03991839,0.019075794,0.066812575,-0.049158283,0.00060496875,-0.048934974,0.058007922,0.01578948,0.025837256,-0.014098864,-0.11776605,-0.021743186,0.0023659302,-0.004935952,0.01275548,-0.005845467,-0.070731685,0.027810527,0.0064090793,0.026568685,0.02680903,-0.011911913,-0.012022122,0.019485202,-4.5281865e-08,-0.017887374,-0.015047153,0.0076992116,0.03324947,-0.048054498,0.046735004,-0.037546635,-0.029359985,0.009422868,0.041935064,0.09851697,-0.07696348,0.0054101115,-0.050402306,0.087529026,-0.0050043715,-0.03272207,0.15115868,0.009493429,0.07073765,0.0121384775,0.025423577,-0.041570704,0.013385723,0.034514666,0.015110765,-0.06570279,-0.031635214,-0.050222848,-0.0153674865,0.11276554,0.045843218,0.102109894,-0.022489585,0.0021212366,0.06607151,0.021274477,-0.056651417,-0.04825631,0.011695868,0.02769288,-0.034490056,-0.106606245,-0.03746474,0.0076638246,-0.044272568,-0.010341035,-0.04322402,-0.0359004,-0.024159553,0.028146047,0.038516574,0.02559599,0.03328027,0.05833212,0.033681706,-0.024052938,0.026674083,-0.029089112,-0.029772816,0.03488374,-0.05944762,-0.021398606,0.01479985
Netherlands,0.0065778485,-0.006705055,-0.047381025,-0.04727602,0.026894854,0.070752695,0.03841133,0.11500458,0.009186046,0.039038733,-0.04352877,-0.104461364,-0.056150135,0.03443419,0.015096497,0.004877478,0.008227593,0.043705925,0.037397094,-0.03482722,-0.078350455,-0.0077937497,0.063961536,-0.059540756,-0.012300059,-0.052013986,0.06915982,0.032037888,-0.06436158,-0.10431154,0.01980748,-0.00066470326,0.029418102,0.028272064,-0.08871002,0.017984191,-0.032129485,-0.027596872,-0.040249687,0.031806655,0.012049854,-0.016354648,0.0016357093,-8.2523795e-05,-0.01205623,0.040294595,-0.0662819,0.028057473,-0.05469449,0.025769135,-0.039605234,0.040034957,0.004454407,0.02262167,0.034780264,0.049906336,-0.06487586,0.050758176,0.054112058,-0.052808426,0.020941803,0.051254816,-0.022834845,-0.009786523,0.006538392,-0.07730699,-0.06457507,0.033570416,-0.0032900618,0.027904114,0.029868215,0.0019273718,-0.053404827,-0.03557222,0.013986999,0.030997481,-0.045082293,-0.00021624651,0.052513994,-0.04259326,0.035532076,-0.008595881,-0.015261696,-0.015584161,0.0036234146,0.010754115,0.041021805,-0.0011271547,0.054394662,0.008372101,0.066367075,-0.0022081754,-0.017880008,0.0300319,0.010893719,0.059027135,0.07158529,-0.007837101,-0.04485862,0.055513527,0.039950904,0.028785447,0.02056954,0.015960075,-0.048862398,-0.008117823,0.05306928,0.04342989,0.017478919,0.013919743,-0.016434345,0.05107324,-0.08198508,-0.0064278254,-0.0003681204,-0.05696928,-0.034149557,0.0045983433,0.026385706,-0.01570981,0.02081519,0.030056767,-0.0849396,0.042685967,0.032656897,0.08488737,0.05605316,1.7827823e-33,0.03352511,0.0077387174,0.05805375,0.007924832,-0.031174604,-0.038017903,-0.007013885,-0.015943076,-0.11370602,-0.04131101,-0.0733805,0.015025081,-0.034849413,0.009318858,0.018666076,0.032708336,-0.023674894,0.016212083,-0.013498608,0.091527514,0.04259995,0.026343348,-0.013694057,-0.014499181,0.021465566,-0.002270999,-0.014491924,-0.069624156,-0.044436693,-0.005877232,-0.029039273,-0.06658481,-0.115422994,0.039604228,-0.050025813,-0.020326156,-0.098893136,-0.041678745,-0.008794093,-0.08840171,0.030708876,-0.027895335,-0.05922505,-0.0020923226,-0.058149673,-0.0035902415,-0.009775829,-0.0063208533,-0.020431967,-0.007815223,-0.0072820624,-0.029930698,-0.022470005,-0.012709776,-0.01717785,-0.0068616485,-0.0019965752,0.016401095,-0.0061236173,0.02037618,0.057075914,0.011047998,-0.048316892,0.0014908738,0.010050369,-0.07198778,-0.0419936,0.026531227,0.05629083,-0.10573089,0.004902309,-0.0162582,0.08872132,0.043249387,0.0046898094,0.024704078,0.015682684,0.029260151,0.021024663,0.007839013,-0.064587265,-0.012464758,-0.07679042,-0.09101221,-0.015353037,-0.006084057,-0.012166673,-0.0354391,-0.0310648,0.09234124,0.009929531,-0.032488853,-0.054812733,0.003919247,-0.05542884,-2.9184618999999998e-33,-0.045042876,0.018213531,0.02466118,0.05417814,0.03272271,0.020372026,-2.0881113e-05,0.09910997,0.049911283,0.0029560889,0.049905896,-0.018088711,0.0028525246,-0.010810788,0.019790629,0.015815848,-0.010787602,0.03956693,0.038582124,0.011805571,0.10148789,0.0061709033,-0.01237284,0.019661028,-0.050735977,0.041662537,0.043457195,0.023964625,-0.08716668,-0.00803048,0.07657047,0.019003568,0.021461722,0.007032042,-0.05741268,-0.035485514,-0.011260623,0.06821366,-0.00146933,0.083600365,0.020038899,0.011891721,-0.071129404,0.027599288,0.04216019,-0.0032508373,0.005672511,-0.016902639,0.009045329,0.0085066715,-0.026295064,0.06401417,-0.08049179,0.033265676,-0.02237526,-0.030799061,-0.027149271,-0.027039966,-0.0039463704,0.0145076,0.01638316,0.053922925,-0.032071754,0.04134445,0.031285666,0.04675179,-0.07505492,-0.0033950487,-0.035604596,-0.0886875,0.0158776,-0.009267279,0.06539453,0.034898203,-0.039746083,-0.03366727,0.0011931411,0.05765203,0.016497284,0.02594233,-0.028025232,-0.076460175,-0.03627992,0.02755818,-0.016466301,0.043142896,0.037583023,-0.08371475,0.014452188,-0.022682846,0.06361237,0.0419176,-0.046790067,0.024992844,0.039473847,-4.5403137e-08,-0.06080289,0.0017979674,-0.028889213,0.015003503,-0.036922242,0.007201493,-0.0066222623,-0.036716476,-0.0098692905,0.03605989,0.08549912,-0.05736855,0.0152391,-0.06163042,0.09507934,0.009688811,-0.058188938,0.14154008,-0.009901737,0.0871621,0.051797047,0.02275896,-0.026540091,0.016827933,0.022887308,0.0070569343,-0.02190894,-0.035262354,-0.01756505,-0.014982696,0.048062664,0.09328026,0.08596689,-0.014637343,0.016033582,0.03701584,-0.02028865,-0.054392852,-0.014762645,0.044801235,-0.02248709,-0.010422977,-0.051109068,-0.028645031,-0.008846105,-0.04413207,-0.002358407,-0.0163356,-0.0230109,-0.07232718,0.0040191216,0.061782215,0.0005027598,0.018374695,0.06254722,0.021757768,-0.07397057,0.026615757,-0.07291278,-0.045393523,0.066422194,-0.07842367,-0.03222229,0.049664304
Belgium,-0.00038365048,-0.013526248,-0.03325159,-0.036087893,0.013901622,0.074583136,0.035497528,0.14545816,0.031099876,0.009173893,-0.019022409,-0.110745996,-0.0029173421,0.014945809,0.040973842,0.0035817476,0.0015141536,0.023800084,0.034327146,-0.052490823,-0.08400694,0.021869864,0.066773444,-0.045056,0.001707834,-0.06959456,0.059628867,0.015292833,-0.06682759,-0.09011126,0.0029275506,0.0007024531,0.03600849,0.015406478,-0.048981722,0.01454098,-0.029017726,-0.053835854,-0.021842482,0.02338761,0.025491443,-0.025044076,-0.008612946,-0.0034204389,-0.021993201,0.03549755,-0.014095724,0.02262284,-0.05780918,0.015369499,-0.04288046,0.058394115,0.014153085,0.036240608,0.017877243,0.052836172,-0.060820583,0.032009844,0.085205756,-0.039124843,0.00402455,0.04332855,-0.0028382502,-0.0054305666,-0.022492338,-0.079016395,-0.08140358,0.020235978,0.038330667,0.028196562,0.05811673,-0.011292731,-0.0328123,-0.026972298,0.018448515,0.0034033358,-0.06522827,0.0130857825,0.038703024,-0.051720098,0.030519716,-0.008301174,4.1769083e-05,-0.0017404576,0.016972456,-0.03608627,0.060926422,0.010514066,0.047255244,0.0011980906,0.05316665,-0.015845073,-0.02438748,0.011740115,0.017815268,0.037259527,0.08991169,-0.024736183,-0.06052587,0.052428547,0.031719398,-0.0034992853,0.011495619,0.038631074,-0.020714076,-0.0012231912,0.048244536,0.050850853,0.029573496,-0.0067738686,0.015788833,0.032375753,-0.10963882,0.0022496404,0.007293682,-0.039006762,-0.040552095,0.0038456807,-0.0040053604,0.009845768,0.053066347,-0.012605802,-0.083679505,0.029322581,0.021549491,0.054770608,0.041855197,1.9499045e-33,0.04114489,-0.00418711,0.04397691,0.015406359,-0.033104207,-0.02073462,-0.032067295,0.022973124,-0.089001924,-0.055507656,-0.080825694,0.008299835,-0.03922024,0.039426513,0.022961596,0.04465199,-0.065847896,0.025364555,0.00973175,0.059366588,0.032569267,0.016297104,-0.002321084,-0.0055338517,0.0082742935,0.029168375,0.012167808,-0.099975035,-0.043257594,0.0031770915,-0.0159163,-0.07230147,-0.101686105,0.030106582,-0.055963073,0.010233816,-0.11157287,-0.030955805,-0.02126227,-0.052360855,0.0030108201,0.0035732943,-0.06935498,-0.042517945,-0.04882862,0.0044025215,-0.0028686447,0.00896294,-0.02149714,-0.014699319,0.019403439,-0.038052294,-0.02380988,-0.032185715,-0.012001278,-0.002474432,0.005375994,0.0481625,-0.03151252,-0.00048681197,0.08194203,-0.023983808,-0.04240938,-0.0032981816,-0.010818617,-0.011456431,-0.03698664,0.036445178,0.076864235,-0.11276341,-0.024891943,-0.008604474,0.07847885,0.04839967,-0.010532727,0.0365003,0.00602382,0.0075680837,0.015005488,0.020821542,-0.056431297,-0.0025253322,-0.06214897,-0.07832115,-0.033498716,-0.026465641,-0.002753855,-0.005347983,-0.040765885,0.07386059,7.8857825e-05,-0.021802604,-0.036457982,0.030052872,-0.079330765,-2.6719528e-33,-0.04788827,0.0135793965,0.02859315,0.042684417,0.023605298,0.00066988106,-0.008416976,0.12173601,0.06513941,0.01773918,0.04071527,-0.011220077,0.005529492,0.0009116726,-0.006323496,0.039453305,-0.024667846,0.020285187,0.018437354,0.017278489,0.07316843,-0.026617466,-0.011827226,-0.008918496,-0.078168154,0.06780572,0.021401605,-0.0040506185,-0.08052357,-0.011911744,0.05310098,0.015163867,0.029496241,0.0032431472,-0.054555204,-0.015187066,-0.02058166,0.06138961,0.026290419,0.08885246,0.051190916,0.026228903,-0.028693607,0.0042901095,0.03162733,-0.0348852,0.035990097,-0.035788707,-0.005219539,0.015591268,-0.0040929485,0.039021578,-0.09747544,0.02324034,-0.040891312,-0.02009917,-0.027917625,-0.027699057,-0.024867823,-0.016388701,0.02364889,0.055845067,0.00035720828,0.045939036,0.013388797,0.06114518,-0.101602085,0.0034438882,-0.052730404,-0.06799454,0.039707784,-0.025378993,0.062759094,0.030765036,-0.039997872,-0.0062890397,-0.00025394702,0.036967818,0.011076466,0.015604679,-0.03263083,-0.08596998,-0.049389023,0.038353175,-0.029546889,0.06678357,0.033550464,-0.05823668,0.06894856,-0.00042311073,0.03125026,0.032981724,-0.024480244,0.024284888,0.051891215,-4.5742883e-08,-0.06199473,0.011837774,-0.043906584,0.07808897,-0.027719626,0.01637759,-0.038530126,-0.026442366,0.013099801,0.026592908,0.064033404,-0.052390583,-0.03458989,-0.081756264,0.078233376,0.02879024,-0.06268855,0.12552875,-0.005603478,0.078233525,0.037489876,0.014774661,0.00057637534,0.03017018,0.02253844,-0.012028953,-0.043732326,-0.03748002,-0.0173415,-0.030544193,0.046544638,0.08508503,0.035162963,-0.030694434,0.013006807,0.035786957,-0.02604114,-0.058152694,0.0043300902,0.059867017,-0.0008055005,0.002615447,-0.059322815,-0.023954669,0.0033387472,-0.047704335,-0.013252506,-0.02237397,-0.037796933,-0.021677004,0.0065259477,0.01396835,0.009786858,0.03154503,0.06358332,0.036297724,-0.06614714,0.026326029,-0.05847576,-0.040808175,0.032757904,-0.05494241,-0.0043223207,0.04333114
Croatia,-0.0036242413,-0.0015457553,-0.07714411,-0.0093794335,-0.012335854,0.07788338,0.050384257,0.1361888,0.0336751,0.060479105,-0.015552638,-0.08651856,-0.06884113,0.07025966,0.03916864,-0.02916673,-0.026076224,0.034498215,0.023035157,-0.030522648,-0.099207655,-0.005892795,0.07856059,-0.03787539,0.011094775,-0.032563858,0.039921477,0.07168878,-0.043897085,-0.110111825,0.0023179818,0.013119966,0.06290941,0.011876833,-0.037268974,0.014495315,-0.0263619,-0.06920208,-0.03823873,0.0077723693,0.03649018,0.007275344,-0.022245964,0.032859646,-0.016141362,0.04162166,-0.03617329,0.018773235,-0.03540735,0.022544242,-0.09926604,0.08342349,-0.0075172563,0.010691026,-0.01732734,0.041132577,-0.00066542684,0.008529357,0.050422244,-0.07812236,0.023808734,-0.0017354046,0.018304098,-0.0024469157,-0.028225359,-0.08157332,-0.084160976,0.017411932,0.014323538,0.036653176,0.021915704,0.010081242,-0.055143222,0.005751681,0.0026052108,-0.0004608379,-0.03095059,-0.017651552,0.05759047,-0.039748117,0.06302993,-0.048099164,-0.07452172,-0.0063561713,-0.0023308182,-0.013049569,0.037847728,-0.013931305,0.068097405,0.026071964,0.054172985,0.009568891,0.0026719822,-0.022261184,0.018925942,0.052137908,0.054248076,-0.03485652,-0.030859122,0.04498159,0.046378095,-0.01373062,0.008654901,0.023039816,-0.04232705,0.02645526,0.034981415,0.022645215,0.035664476,0.033192284,-0.029920638,-0.0023930536,-0.095108956,-0.0010945209,-0.0033042016,-0.01505044,0.007921893,0.07054123,-0.019907705,-0.0012607096,0.036605038,-0.042896286,-0.060961306,0.008635596,0.021084327,0.073899,-0.019228492,1.9205101999999998e-33,0.03039713,0.0070705954,0.02996337,0.031938706,-0.030112028,-0.012483357,-0.0089672925,-0.011791826,-0.10861298,-0.045081392,-0.080069676,0.020027502,-0.02434915,0.030112533,0.0013903403,0.047716618,-0.052237358,0.009587909,-0.042966858,0.08545936,0.08503155,0.010074417,0.0029292442,-0.018341837,0.046722766,0.0006438271,-0.00014006146,-0.045473274,-0.050652407,-0.0158959,-0.026531748,-0.05324667,-0.10937075,0.0061007445,-0.015753254,-0.010119248,-0.104969315,-0.03119999,-0.008953288,-0.048010126,0.02838977,-0.036017865,-0.039479323,-4.716941e-05,-0.047139056,-0.030391056,-0.028584676,0.024038276,-0.0012451664,-0.030535098,-0.027016232,-0.0411158,-0.003970912,-0.009251194,-0.013740836,0.002310094,-0.012349188,0.025637858,-0.024523089,-0.0107208975,0.0732148,0.0022568307,-0.05514494,0.0036094398,-0.016790368,-0.029319506,0.000935386,0.078900576,0.08345415,-0.07516136,0.016281666,-0.052541114,0.059520446,0.063632034,-0.022048691,0.006810136,0.0009855999,0.016965218,0.023256073,0.010146964,-0.07287412,0.039365962,-0.026916115,-0.05341272,-0.017431138,-0.025800647,9.611933e-05,-0.008808991,-0.037854776,0.056449875,0.04857047,-0.025800146,0.012754268,0.01189532,-0.09224921,-2.7867066e-33,-0.046425745,0.02197402,0.014116941,0.054472964,0.022519024,-0.0030233162,-0.006674988,0.10510321,0.046321187,0.014615978,0.04615349,-0.015418793,0.011435639,-0.048894737,0.024787456,0.04371512,0.012518466,0.045352843,-0.0024510794,-0.011489159,0.070154116,-0.00032051295,-0.0035379692,0.01715945,-0.07043445,0.0321438,0.06539088,-0.005384573,-0.10026089,-0.017340926,0.049652137,-0.0125458045,-0.02189254,-0.012029386,-0.012887131,-0.047818623,-0.0026025241,0.043788455,0.0027122987,0.098362975,0.049904063,0.033821274,-0.06311215,0.027876804,0.024101228,-0.04298928,0.02934033,-0.0043726657,-0.002725535,0.014136612,-0.015603388,0.023714943,-0.08450834,0.057401724,-0.010859026,-0.03392943,-0.034428526,0.0047556357,-0.03774013,0.030063007,0.036224857,0.0026225497,-0.015671346,0.037052207,0.039116062,0.04779851,-0.055570755,-0.01284554,-0.06608046,-0.090700634,0.0018029897,-0.018868465,0.048432164,0.06951352,-0.036644544,0.029535037,-0.040865842,0.054148737,0.06754891,0.020455692,-0.035568234,-0.10759205,-0.089356765,0.04220071,-0.014898281,0.041776564,0.0035315282,-0.08288765,0.06269877,-0.011186072,0.04370411,0.019173067,0.0049655586,0.011454492,0.028868146,-4.4734584e-08,-0.029245775,-0.0089606205,-0.020520153,0.040060546,-0.04268432,0.027546274,-0.041997667,-0.07075156,0.015023645,0.03378982,0.069979765,-0.05842265,0.021037765,-0.060379066,0.0817092,0.047943797,-0.034640163,0.1682465,-0.00887009,0.08004032,0.04636067,0.021351425,-0.04953482,0.050205965,0.020289414,-0.006890374,-0.06641249,-0.024853459,-0.0035555912,-0.036009617,0.049668886,0.03869064,0.064762734,-0.028425267,-0.0044350117,0.05264902,0.010999072,-0.095162585,-0.038355127,0.058953784,0.029229872,-0.0212906,-0.08069397,-0.007008813,-0.025975134,-0.031375296,-0.035154823,-0.033052824,-0.07135064,-0.03773642,0.026745515,0.057668366,-0.011483472,0.035548866,0.06341909,0.030465784,-0.05553405,0.048248712,-0.043161474,-0.008836529,0.054684862,-0.03812946,-0.017998744,0.040663514
Switzerland,-0.011030129,0.0068596657,-0.07245325,-0.04542703,0.03975692,0.06066049,0.075247236,0.103682324,0.016367214,0.029220764,-0.042167645,-0.08392067,0.0019167028,0.04254435,0.030983282,-0.023136765,-0.0014382805,0.0032995085,0.0032331643,-0.04088899,-0.073184915,-0.002162117,0.0928233,-0.032976657,-0.011971584,-0.0842191,0.06734222,-0.00084955833,-0.05834945,-0.098055676,-0.0053632017,0.01508748,0.03136797,0.030158304,-0.073410414,0.06061091,-0.010533381,-0.027601399,-0.06500334,0.0165291,0.007277946,-0.012517364,0.013181702,-0.000278942,0.017408423,0.034596045,-0.03143417,-0.0017529883,-0.03665736,0.04920909,-0.059207834,0.045453608,-0.0063196663,0.03466154,0.022456236,0.03681423,-0.0524045,0.008793237,0.051661864,-0.03030772,-0.0005242856,0.015807401,-0.022693884,-0.0054097725,0.01646647,-0.04920826,-0.06132368,-0.02002751,-0.023780676,0.022269962,0.04703506,0.029878318,-0.050810292,-0.013278734,0.00691392,-0.027200405,-0.04778854,0.004455626,0.04018171,-0.014188712,0.047320385,-0.03666506,-0.029179163,0.032527298,0.015906129,0.012251168,-0.009751171,0.005778287,0.045245733,0.009129861,0.06834665,0.0040504294,0.0077004614,0.027191868,0.021222552,0.046390276,0.06531204,-0.028674025,-0.050346933,0.05663606,0.026546843,-0.014065404,0.013640336,0.03386616,-0.045059957,-0.013955763,0.040034898,0.07405685,-0.005549436,0.028014494,-0.0019254357,0.055648524,-0.07882201,0.0077929934,-0.010493025,-0.031005692,-0.035330955,-0.0027825092,-0.006686508,-0.027216997,0.05334006,0.034443185,-0.05986033,0.010585409,-0.00054394396,0.047252674,0.032071274,1.1937397e-33,0.057437744,0.024205973,0.052733853,0.006741245,-0.050467886,-0.0084150275,0.013508475,-0.008272264,-0.10090209,-0.04358423,-0.06150175,0.016138207,-0.03269111,0.029229704,0.039098267,0.031992424,-0.03174998,-0.0064858967,-0.013328707,0.10717754,0.08953803,0.031033743,-0.007546961,-0.0112917675,0.0050807823,-0.010441776,0.006764993,-0.044882875,-0.07668297,-0.01209355,-0.012197617,-0.046343267,-0.111284815,0.020692885,0.010113071,-0.011956597,-0.11809964,-0.0067655165,0.018298578,-0.064037256,0.0019213093,-0.0026540486,-0.09112978,-0.037325937,-0.037667003,-0.005029566,0.009011811,0.011561354,-0.0041250763,-0.04415592,0.0034550494,-0.00883186,-0.034880072,-0.002917996,-0.013838292,-0.014753438,0.009540905,-0.0045622047,-0.065486416,0.029599588,0.0852084,0.01054069,-0.052840754,0.016222192,-0.05175406,-0.04211418,-0.033905122,0.041303642,0.067459926,-0.081853285,0.021858122,-0.022866169,0.076989956,0.06889413,-0.019294767,-0.0043158713,-0.013952254,0.033467196,0.012102493,0.021096613,-0.030003808,-0.01455018,-0.036753938,-0.048701294,-0.08349634,0.0017208142,0.03819981,-0.036075227,-0.047081783,0.04821046,0.008050491,-0.03261827,-0.0076604104,-0.0020245956,-0.07521903,-2.4526305999999998e-33,-0.025802553,0.0060154446,0.04826967,0.04251383,0.015171614,0.0039005475,0.046206772,0.099965304,0.06081241,0.024944006,0.0462362,0.046209566,0.025075642,-0.03819066,0.030687379,0.009606482,-0.022824828,0.03569647,0.03917581,-0.013654743,0.10144052,-0.011755965,-0.009317156,-0.020409487,-0.055520322,0.03757548,0.026985519,0.03730862,-0.09826319,-0.008352071,0.035379745,-0.014326842,0.031656444,-0.017696356,-0.05328007,-0.032034088,-0.015348505,0.06145174,0.008452316,0.058463335,0.025414877,0.008850329,-0.043326154,0.011866804,0.05690135,0.0049982597,-0.0134463515,-0.010613842,-0.010619918,-0.016133623,-0.0032824662,0.06411943,-0.056824706,0.022544622,-0.013724523,-0.04322574,-0.057381377,-0.024348872,0.0009840839,-0.016190257,0.037204064,0.043979887,-0.021507403,0.05146747,0.024185227,-0.0051722853,-0.059357837,-0.035592046,-0.04232598,-0.038032036,-0.01420038,-0.009039884,0.06712233,0.042130187,-0.054334357,0.00020301034,-0.04744866,0.04753955,0.015152125,0.037165303,-0.01836851,-0.038343593,-0.04843638,0.04815138,-0.023965385,0.05048642,0.05644077,-0.07437326,0.05282977,-0.033940826,0.017145999,0.029090818,-0.032511868,-0.0057660844,0.047660545,-4.3942183e-08,-0.06342495,-0.0056950245,-0.05304647,0.010073364,-0.06479412,0.017750192,-0.01984811,-0.076670475,0.052010123,0.031019121,0.056929298,-0.030372633,0.014041552,-0.0732743,0.032551214,-0.009995401,-0.022873491,0.13593906,0.0019662953,0.100422435,0.05275443,0.035185643,-0.022224596,0.011447042,0.015390238,-0.02682937,-0.059611224,-0.03186974,-0.016903738,0.013321776,-0.0018390713,0.032896835,0.09283057,-0.06655972,0.02415056,0.06596088,-0.057498336,-0.0665845,0.015292614,0.042786475,0.011796347,0.0021665606,-0.01597045,-0.0123328725,0.0036353355,-0.09219908,-0.025854101,-0.044593796,-0.030137448,-0.016270367,0.07193098,0.0448145,-0.009914988,0.00685883,0.08300589,0.036548313,-0.07989983,0.0027825846,-0.061549477,-0.026527861,0.08140501,-0.08998557,-0.03017623,0.0487272
Austria,-0.0071695447,-0.005784818,-0.09011589,-0.02036486,-0.006109685,0.1281008,0.035522543,0.12828474,-0.002299563,0.023049317,-0.023695333,-0.09762719,-0.045738414,0.04752875,0.013874372,-0.0042414214,0.023507353,0.02354997,0.008098964,-0.028705023,-0.09013203,0.013533882,0.074949585,-0.028884726,-0.011547363,-0.048874717,0.028890364,0.025987593,-0.045101944,-0.12053012,0.022629658,-0.004099645,0.050024755,0.013473587,-0.039906144,-0.029438348,-0.020389322,-0.04754546,-0.04632451,0.01181171,0.037487708,0.013037268,-0.01946302,0.062119313,-0.016791739,0.044686276,0.006650947,0.022513233,-0.041261796,0.05226562,-0.07659301,0.021647992,0.023197081,0.022219667,0.0011732914,0.016113544,-0.059620462,0.017533226,0.039897025,-0.06086973,0.00894677,0.035483036,-0.023411632,0.0106138745,-0.003078953,-0.04679056,-0.0910457,-0.0014507192,0.013661231,0.028067771,0.043925397,-0.04022715,-0.030337827,-0.005477441,0.0114525305,-0.028833766,-0.02175383,0.002585826,0.03582738,-0.029196331,0.034749992,-0.05199565,-0.060182616,0.014630672,0.028938783,-0.032103565,0.022621708,0.0008252818,0.053833324,0.030102786,0.051594045,-0.015629478,0.013581158,0.017796908,0.011098643,0.060256533,0.0493828,-0.020517034,-0.05225063,0.06492953,0.033260427,0.0151026035,0.03545118,0.03407486,-0.048114054,0.034293763,0.025002943,0.078694694,-0.015672686,0.010649075,0.018165173,0.030037891,-0.078591235,0.012466725,0.048562467,-0.042539317,-0.00628706,0.00850295,0.007081559,-0.0032168878,0.055224676,-0.0027927305,-0.050177936,0.03422577,0.009936874,0.06626244,0.018435169,1.6405297e-33,0.037478328,-0.0073491205,0.034504242,0.020004548,-0.03748995,-0.03472043,-0.032843683,0.03370236,-0.13191612,-0.021784334,-0.06360803,0.016760444,-0.009691274,0.012572876,0.033955414,0.03861664,-0.06086312,0.030492451,-0.013976449,0.10655733,0.03634796,0.017323801,-0.004451843,-0.0041974816,0.034068156,0.047064126,0.029787205,-0.08491059,-0.056196496,-0.011271361,0.0085338885,-0.014501886,-0.15515162,0.004305613,-0.025739498,-0.010931443,-0.09686645,-0.02156658,0.0018248886,-0.057775907,0.012875699,-0.035797678,-0.081515834,-0.003596357,0.014954754,-0.037224628,-0.0184712,0.018925978,4.308001e-05,-0.034013253,0.0035736917,-0.04376094,-0.007707194,0.04479637,0.0040836805,0.020802893,0.0062226946,0.055837788,-0.05764731,0.013666297,0.067446485,0.024962464,-0.061438892,0.012226405,-0.030389372,-0.04955146,-0.03634598,0.037135515,0.05025167,-0.08892981,0.0016094699,-0.028008012,0.085703775,0.059660915,-0.03022046,0.004381061,0.005956792,0.033711884,0.017029103,0.010289401,-0.040812995,-0.0014883889,-0.032032494,-0.07615505,-0.054488417,-0.011302175,0.002342323,-0.030311942,-0.049851026,0.05665234,0.02487857,0.0052423724,-0.0053178314,0.037032958,-0.077986084,-2.205636e-33,-0.015932798,-0.0026640187,0.032680664,0.055758413,0.014546833,0.006644452,0.0061167595,0.083078235,0.04237439,0.01203784,0.048853353,0.0048510935,0.00021937348,-0.064067885,0.0449897,0.015305322,-0.005516969,-0.003723911,0.0160748,-0.043865547,0.086505406,0.0063157836,-0.0033165605,-0.0007920803,-0.088522516,0.036093637,0.03526407,0.043793596,-0.059055623,0.03130363,0.04837118,0.024656828,0.017308002,-0.054490667,-0.07569207,0.0125940675,-0.044157885,0.081487186,-0.0021299985,0.09990063,0.029833626,0.04102151,-0.06511613,0.0054871845,0.073886424,0.024361309,0.001435633,-0.015637163,-0.0002709846,-0.0050899168,0.010373958,0.017397504,-0.07439663,0.01833273,-0.034959055,-0.024550842,-0.04495577,-0.04274708,-0.03410753,0.026086934,0.062354263,0.06390888,-0.0012383445,0.0018901973,0.0011980756,-0.007302388,-0.07555791,-0.006634395,-0.057702564,-0.013340334,-0.0047093853,-0.001387153,0.06330648,0.067528054,-0.026273297,0.031560794,-0.020422893,0.055577345,0.020340763,0.031282686,-0.03577913,-0.041034605,-0.0456786,0.05832646,0.007169616,0.054469727,0.016346987,-0.070136294,0.085787706,-0.014673508,0.013009712,0.006853781,-0.0058181277,-0.015046873,0.0019574887,-4.5838497e-08,-0.045046765,0.008427718,-0.042165913,0.04041849,-0.05492795,0.02763747,-0.039997555,-0.069441155,0.011892493,0.0028585368,0.06085887,-0.050098255,0.0074997996,-0.026185395,0.07640655,0.015851308,-0.05030571,0.10593213,-0.0011388134,0.08075452,0.061181344,0.023706628,-0.020221997,0.03300707,-0.008925008,-0.028277298,-0.07150923,-0.0039552716,-0.03452812,0.017426949,0.026134338,0.06651338,0.1013146,-0.044085484,0.029450592,0.056960218,-0.012324082,-0.07932399,-0.026113411,0.03089955,-0.011575996,-0.033492442,-0.058395855,-0.025743064,-0.011607275,-0.056717873,-0.008167818,-0.037290916,-0.048207946,-0.056599338,0.06428648,0.05674271,-0.049770355,0.03495924,0.048789628,0.047938462,-0.06968897,-0.023117695,-0.056147423,-0.04413267,0.052866835,-0.080122665,-0.0411795,0.042028863
Denmark,0.0054354337,0.033452183,-0.06259507,-0.03815087,0.020124115,0.10542749,0.042071577,0.100957304,0.042649515,0.028549168,-0.025460703,-0.10373906,0.010715152,0.040262803,0.041051045,-0.009362679,0.027768485,0.01587998,0.032944977,-0.019455798,-0.10268757,0.01105932,0.081077896,-0.08074157,0.02224044,-0.05189205,0.082752235,0.030853627,-0.09872965,-0.08745825,0.029111372,-0.010748563,0.04236652,0.029586384,-0.034889605,0.04591538,-0.035123095,-0.046810213,0.00922614,0.049587622,0.023557685,-0.005564844,0.017250482,-0.010799198,-0.028377185,0.08429237,-0.024259793,-0.013085161,-0.06257105,0.04025852,-0.08460093,0.047636725,0.027702898,-0.0064102607,0.054029837,0.021766555,-0.06272766,0.0380681,0.028942367,-0.0907969,0.0031104584,0.006302524,0.01124545,0.0065994365,-0.029164247,-0.092275985,-0.080525465,0.01659479,0.012868756,-0.0014227531,0.013922518,0.029854814,-0.065144405,-0.03154091,0.032719288,-0.020638406,-0.04398695,-0.014247844,0.06438893,-0.04471962,0.015307484,-0.050691042,-0.075525776,0.009408487,0.011020475,0.0067115473,0.09143058,0.006710142,0.034173403,0.033981577,0.08676059,0.010682113,-0.008780547,0.03230138,0.011899864,0.042110834,0.05542129,0.0021882441,-0.067381635,0.038701907,0.020047447,0.038510367,0.022844162,0.018280355,-0.02130126,-0.03349347,0.03648806,0.060881104,0.02120632,-0.01962363,0.0034385284,-0.0043499363,-0.09758802,-0.014559544,0.033618156,-0.010843484,-0.015302808,0.017866587,-0.011878331,-0.028291373,0.04760991,0.0052745957,-0.05416813,0.060341235,0.031316437,0.11011951,0.021371715,1.6965805e-33,0.006941172,0.023129843,0.008309099,0.033919994,-0.04897019,-0.02999861,-0.02319959,-0.016191278,-0.09613832,-0.03312701,-0.056461174,-0.005337904,-0.04181254,0.039633673,0.00017473592,0.024248812,-0.057685472,0.01323317,-0.029589413,0.09332012,0.08499759,0.0025557952,0.013146436,0.012808939,0.008141455,-0.014029861,0.028159507,-0.046889152,-0.019609224,-0.011295064,0.0038820154,-0.06383496,-0.11229469,-0.0041961465,-0.011909416,0.006318701,-0.10436457,-0.011268203,-0.007920502,-0.036155228,-0.005731075,-0.023345755,-0.05953179,-0.020034393,-0.04274055,-0.020003486,-0.030722268,0.011746197,-0.013885043,-0.04875013,0.008648692,-0.029512614,0.028875561,0.0056565627,-0.0051913927,-0.027520698,-0.011241224,0.039589837,-0.034527514,0.0009385649,0.041113872,-0.012915307,-0.053715892,0.0025822388,0.0018882406,-0.04822525,0.0002840581,0.039096374,0.049805634,-0.089707546,0.0488162,-0.037935745,0.116702825,0.05969809,-0.019333443,0.018316887,-0.026935263,-0.00606131,0.025022473,0.006465052,-0.07363163,0.022119649,-0.06352555,-0.07174093,-0.0193276,-0.06125756,0.02222722,-0.033684287,-0.018399233,0.054754194,0.0407488,-0.009234206,-0.028042316,-0.0039863926,-0.07051782,-2.8072028e-33,-0.05339205,0.02268396,-0.005642837,0.04618962,0.03428586,0.004430351,0.036698148,0.1230971,0.04696965,-0.0071454765,0.055259503,-0.015424486,-0.023008972,-0.0053561823,0.021369027,0.021390427,0.0012080856,0.050060485,0.022017624,-0.0005878613,0.10524383,-0.02489504,-0.010614359,0.013278674,-0.02986399,0.07010155,0.01768881,0.035988316,-0.10195933,-0.019942846,0.03938494,0.021543648,0.026499864,0.023516187,-0.07378277,0.0071147284,-0.035074428,0.065240785,0.00051365595,0.08121984,0.049249575,-0.014945819,-0.07951024,0.050731592,0.03806742,-0.040464666,0.009901361,0.0056816456,-0.0049604913,0.02569546,-0.05351394,0.061107244,-0.06531153,-0.0009999168,-0.01049036,-0.00539651,-0.037077196,-0.024101386,0.0046040243,-0.02177636,0.0052662524,0.036850855,0.012478918,0.06543717,0.017231869,0.058809478,-0.07138974,-0.028331477,-0.058771912,-0.06688042,-0.010031279,-0.034417767,0.05053927,0.0079860175,-0.013250696,-0.012314671,-0.041035,0.091109194,0.019176763,0.027340176,-0.05484772,-0.094671644,-0.06357635,0.031246094,0.0022442108,0.044290688,0.008295154,-0.0819056,0.033211775,-0.038359635,0.012806848,0.014185328,-0.017920498,-0.008780233,0.015782308,-4.6421874e-08,-0.066847414,-0.009755925,-0.023149382,0.0136218835,-0.023046555,0.030788861,-0.037015285,-0.03341543,-0.005805262,0.0423375,0.06482431,-0.031679712,-0.01146006,-0.06522702,0.083885126,-0.004142559,-0.04962021,0.14272659,-0.021460902,0.055986848,0.025156934,0.02582051,-0.044254158,0.04378494,0.016575076,0.018760405,-0.04874154,-0.033924505,-0.021086272,-0.028491767,0.0649119,0.067790635,0.07350519,-0.024043849,-0.014709011,0.044698082,-0.02961382,-0.048786342,-0.017263032,0.07471964,-0.038403615,-0.013847866,-0.06251058,-0.021279242,-0.011372244,-0.048118003,-0.027724234,-0.03658544,-0.0470469,-0.025715608,0.024091065,0.036899865,-0.001785153,0.0007950448,0.05212619,0.07142306,-0.048343387,0.02592928,-0.034380034,-0.01712382,0.038944237,-0.057753988,-0.011833851,0.024392217
Albania,0.015018603,0.004478339,-0.06979647,-0.0054324735,-0.028838025,0.040495165,0.039657313,0.076249905,-0.009520274,0.015988855,0.019392906,-0.09734184,-0.010088807,0.049749892,0.047123864,-0.0068761106,0.025559,0.041232076,0.010289291,-0.04636643,-0.05418628,0.021459715,0.114910394,-0.0053639235,-0.024728408,-0.075518385,0.04816637,0.06377038,-0.063425824,-0.10422377,-0.019869585,0.03213547,0.05124353,0.028480154,-0.04202115,0.015657352,-0.02855094,-0.035011087,-0.032553002,-0.016434975,0.030099498,-0.01346369,0.02969071,0.022251345,0.0076320837,0.02141471,-0.04537392,0.009804299,-0.022407403,0.008572622,-0.067324325,0.0618208,0.004578128,0.020734599,0.04548724,0.032539364,-0.053840753,0.036264725,0.078671336,-0.048762742,0.00935115,0.06325113,-0.02334567,0.0027066818,-0.004990947,-0.066354364,-0.061728798,0.007304569,0.023097843,0.014837515,0.08796219,-0.009526642,-0.07465124,-0.004521578,0.010678124,0.021208528,-0.03774175,0.010650266,0.019980183,-0.04103242,0.042109713,-0.02946781,-0.018434323,0.0041375267,0.0238654,-0.028000982,0.007131952,0.011438087,0.06184958,0.013719851,0.093977004,0.04905635,-0.019702656,-0.013334378,0.07227476,0.05191079,0.060337596,-0.029388089,-0.05319337,0.063016824,0.04826419,-0.03306486,0.00094397523,0.038280185,-0.042027738,-0.0013858607,0.07865174,0.03234051,0.012919683,0.028882163,0.009963248,0.0021100598,-0.10308211,-0.007969892,0.032040294,-0.007876333,-0.040462535,0.06354204,0.017594615,-0.0053525046,0.007948982,0.030536044,-0.093836345,0.009882727,0.015528297,0.06639368,-0.017104203,1.3753398e-33,0.042095896,0.011062175,-0.012931064,0.028664479,-0.024901224,-0.060784973,0.001276256,-0.030290367,-0.09713386,-0.03890682,-0.104942076,0.022221666,-0.035113607,0.011239543,0.048244826,0.03879607,-0.054647647,0.012063532,0.001711764,0.09825723,0.048752956,0.010120584,-0.008442288,-0.029254172,0.0012131474,0.002355793,-0.004175395,-0.08090978,-0.042370617,0.0035701615,-0.03746096,-0.08051713,-0.116176255,-0.040470455,-0.024591003,-0.003328865,-0.11696982,-0.022248222,-0.030908208,-0.05278898,-0.011383408,-0.009435781,-0.079738736,-0.004507283,-0.017983118,0.015888426,-0.020658106,0.022878598,-0.036063615,-0.056005094,-0.0028564385,-0.034363143,-0.009223566,-0.041605,-0.040339928,0.006399088,0.035475746,0.032259792,-0.014369349,0.019001711,0.07381451,-0.011197647,-0.058187846,0.013076976,-0.019882359,-0.014971675,-0.045302346,0.0587369,0.09448016,-0.10646116,0.013950684,-0.03130675,0.047444608,0.04631438,-0.0098231975,0.023551514,0.0020621067,-0.0141506605,0.009303153,0.046678968,-0.055696324,0.02805514,-0.048271563,-0.042817213,-0.04295765,-0.012624772,0.006338812,-0.03487406,-0.014301167,0.061669417,0.02678295,-0.023191877,-0.0006713426,0.021229306,-0.05070248,-1.9623175999999998e-33,-0.022072393,0.049791455,0.033036694,0.036004797,0.008903971,-0.012388695,0.02681876,0.09347578,0.07647641,0.007439744,0.04811462,-0.03409162,0.018081563,-0.017210329,0.008389605,0.06643839,-0.021927563,0.06109067,0.03298021,0.03839823,0.03589325,0.013106727,0.008999901,0.0020634474,-0.047594704,0.032270357,0.017169314,0.017526908,-0.109719224,-0.03128348,0.06629452,-0.0481053,-0.004419205,-0.00060790195,-0.060589828,-0.00868089,-0.006954997,0.030729089,0.015920367,0.08452635,0.06326222,0.03815924,-0.025536712,0.023847692,0.025486827,0.012980276,0.06710257,-0.0069732694,-0.035212412,-0.03965253,-0.015372157,0.05547452,-0.08910611,0.027293691,-0.008270359,-0.053280037,-0.023613445,-0.012952762,-0.034141064,-0.0043418324,0.023795022,0.00086729915,-0.013638456,0.051025674,0.007595809,0.06795038,-0.045340892,-0.021119457,-0.04974932,-0.0696381,-0.0024883056,-0.058095668,0.053034507,0.05097548,-0.06882366,0.0125554465,-0.03311428,0.07896988,0.049406845,0.028229345,-0.031240009,-0.08090111,-0.102189094,0.008134497,0.01141585,0.045773722,0.047149815,-0.053460002,0.0826139,-0.0025837584,0.032043833,0.038972594,-0.008847693,-0.0010043208,0.017096823,-4.4639958e-08,-0.04552829,0.0027450456,-0.040881433,0.079998896,-0.041364048,0.040850755,-0.01620575,-0.0370648,0.036974605,0.023815535,0.050133206,-0.08594993,-0.022650413,-0.06832774,0.04005007,0.030665886,-0.03914617,0.14567156,0.0039539337,0.022004899,0.06873967,0.0033165389,-0.01175433,0.029137533,-0.032065637,-0.01979995,-0.066043966,-0.051429156,-0.00559843,-0.03464807,0.043802235,0.049472444,0.047487047,-0.04519999,0.030535681,0.069768414,0.0055223936,-0.070669755,0.00367123,0.06302099,-0.043007188,-0.033566985,-0.045001645,-0.034399837,0.011631444,-0.06253364,-0.019723922,-0.03794249,-0.04585513,-0.03663074,0.04894412,0.03374294,0.019403685,0.04600037,0.08231889,0.036003128,-0.030021366,0.011889362,-0.06739861,0.0053269616,0.07302362,-0.076128855,-0.037925832,0.029338542
Turkey,-0.00036603303,-0.00830394,-0.07158017,-0.017471846,-0.012713717,0.056547936,0.06975679,0.07469137,0.05260034,0.035453208,-0.05259417,-0.08492196,-0.03775303,0.04004752,0.031533524,-0.032170847,0.022519091,0.03830312,0.02647547,-0.095449686,-0.11041951,0.0043921527,0.07557462,-0.026894633,-0.010908253,-0.09869544,0.028562477,0.06260066,-0.09282127,-0.1040491,0.0058683483,-0.011906867,0.041873433,0.0324469,-0.07693735,0.04276491,-0.009369267,-0.068185836,-0.0065552536,0.017647432,0.026216583,-0.0497459,0.01854782,0.025338925,0.0056897867,0.022049602,-0.08008304,-0.0022660817,-0.002264001,0.0337996,-0.06761914,0.032716207,-0.0371713,0.013287685,0.07087752,0.045138597,-0.07671072,0.014347581,0.02850166,-0.07032008,-0.0049845977,0.06148749,-0.008940176,-0.0035748081,-0.04774587,-0.09361301,-0.029875342,0.0015949415,0.024677146,0.024554621,0.04860679,0.015401685,-0.08005496,-0.024739169,-0.003039669,-0.03995738,-0.0050218576,-0.0054927575,0.0770648,-0.024367439,0.055157565,-0.008988366,0.0073144506,-0.0034376993,-0.042279992,-0.038896076,0.019585712,0.0021391527,0.04418489,-0.0009036128,0.09688115,-0.0029707986,-0.0086160805,-0.013278326,0.08758398,0.03290061,0.043270387,-0.055374887,-0.0426532,0.06026743,0.005330729,-0.011480723,0.026064413,0.022909798,-0.011008365,0.026004188,0.041578338,0.047417197,0.0066147204,-0.005330882,0.0017506804,0.009332123,-0.08133975,0.0064395475,0.0071498533,0.012791152,-0.089193,0.01995882,-0.0144345965,-0.020995518,0.045576558,0.021008441,-0.03378162,0.08104722,-0.010051752,0.065867566,0.037807427,9.62273e-34,0.04159842,-0.01540268,0.058203872,-0.01776079,-0.03366355,-0.03950032,-0.0028111534,-0.0051617823,-0.10296602,-0.02245018,-0.06323563,0.004727195,-0.04828711,0.045953076,0.0677223,0.02249992,-0.042760227,0.012871297,-0.033120073,0.08166207,0.019980539,0.03683844,0.00789034,-0.016793327,0.036773965,0.017402641,-0.036766276,-0.06547671,-0.041988466,0.0043395488,-0.017033836,-0.066049345,-0.13693927,0.02993071,-0.041902065,-0.03078775,-0.10658361,-0.019926438,-0.021492004,-0.016127912,0.0064956998,0.011023297,-0.0314823,-0.025817666,-0.055377506,-0.030624412,0.014446765,0.013084237,-0.019334981,0.006899039,0.009450293,0.002395159,-0.004055028,-0.0067926203,-0.039339583,-0.009211145,0.025616508,0.0145167755,-0.033900645,0.028563043,0.06184605,-0.026872141,-0.029615866,-0.026865413,-0.009185716,-0.014441605,-0.024155142,0.065595716,0.06845939,-0.043521278,0.033303972,-0.009971664,0.058516398,0.0147792995,-0.046706315,0.032116644,0.017612655,0.0002272781,0.008090084,0.010910944,-0.057434063,0.026693456,-0.0018593888,-0.06721871,-0.063969254,0.0132030705,0.0053871903,-0.008927848,-0.03630834,0.04062234,-0.008741441,0.037601374,-0.012653758,-0.009614585,-0.057371333,-2.8148536e-33,-0.017108459,0.015193106,-0.019712385,0.05308009,0.009582261,0.011930119,0.018788887,0.09785104,0.06881599,0.03038511,0.0297331,0.014437416,-0.010190885,-0.060030263,0.029433617,0.024085443,-0.050415423,0.082221694,-0.008245919,0.021269262,0.072856024,0.0155459475,-0.006608947,0.005402171,-0.031051379,0.0055699777,0.015029024,-0.009342001,-0.09839688,-0.001723642,0.080844015,-0.046847675,0.014761159,0.01719779,-0.013994162,-0.030839475,0.0073927073,0.064938955,-0.022859143,0.11863076,0.090363026,0.058143675,-0.04686159,0.03881928,0.03795025,0.030953625,0.02584773,0.02283,-0.003266332,-0.010284975,-0.029551618,-0.006722562,-0.05448825,0.019675365,-0.027238328,-0.0063252146,-0.010627695,0.0014474968,-0.018762711,-0.0128680235,0.014036766,0.030462895,0.015227955,0.0076268516,0.050662577,0.04298965,-0.08925448,-0.017938055,-0.03517563,-0.06007661,-0.022240866,-0.0704816,-0.0003672099,0.017058114,-0.058271904,0.02060726,-0.036661502,0.05972671,0.060660344,0.05572116,-0.0058401353,-0.094119154,-0.040592227,0.047370307,-0.00572791,0.05659112,0.042535357,-0.04039625,0.059392884,0.013480774,0.01983841,0.012982802,0.0046301563,0.0126175815,0.022874461,-4.3624087e-08,-0.049736224,0.0027794144,-0.050955273,0.06674589,-0.05626987,0.025504513,-0.024126152,-0.07045879,-9.836629e-05,0.040860515,0.026229735,-0.05073928,-0.0029780935,-0.0643342,0.040887237,0.019315796,-0.024472484,0.14147493,-0.008641077,0.056957744,0.029510688,0.0115993805,-0.022727134,0.00649421,-0.026713707,-0.034977287,-0.044428207,0.006376357,-0.023155283,0.012090907,0.028767297,0.059268236,0.022467239,-0.06034058,0.039563,0.049201947,-0.025134593,-0.06261094,0.006451314,0.0574684,-0.03100827,-0.019291265,-0.04310625,-0.033631362,-0.007414466,-0.030661998,0.0122235995,-0.06691348,-0.082285844,-0.0377655,0.045692023,0.04401245,-0.00017764735,0.05533874,0.07613329,0.049658317,-0.06605575,0.014259683,-0.014726555,-0.050584592,0.07288941,-0.051526405,-0.016843285,0.017801093
Ukraine,-0.009299293,-0.023569318,-0.084781274,-0.020387921,0.0065898574,0.069913484,0.08943881,0.101269916,0.036945134,0.03225084,-0.055560257,-0.053395472,0.0002655268,0.07671599,0.006838347,-0.009428328,-0.011513806,-0.013813452,0.007191834,-0.023175593,-0.07532292,-0.019113539,0.109205574,-0.021220228,0.026953267,-0.052442174,0.04294643,0.056887332,-0.05010096,-0.06610257,0.01816268,-0.014063427,0.07435923,-0.014238441,-0.039525554,0.06699758,0.008879565,-0.06236633,-0.06620134,0.061871298,-0.022823522,-0.035365455,-0.036641203,0.046397492,0.005180369,0.03944349,-0.011631003,-0.028406424,-0.03660723,0.04409309,-0.100030944,0.030124666,-0.00971088,0.043808803,0.0034041705,-0.0058777286,-0.062247,0.029931951,0.02273962,-0.08133598,0.008743731,0.0059341993,-0.013166277,0.004207953,-0.033492807,-0.054329254,-0.030491697,0.010450294,0.013855653,0.013435965,0.049354646,0.025865827,-0.07645077,-0.034144524,-0.014843604,-0.015652843,-0.030793853,0.007114251,0.049593117,-0.02338897,0.040283803,-0.034688763,-0.056703668,-0.0031836166,-0.022395764,-0.013781702,0.009805694,0.019458214,0.05546495,0.043060753,0.06428544,0.027419986,0.03375629,-0.0051845545,0.029211925,0.03696164,0.04209238,-0.02872431,-0.038478576,0.053386234,-0.011069545,-0.027166365,-0.0072535253,0.026943315,-0.011976198,-0.006667281,0.014406832,0.079137996,-0.02593893,-0.020549055,0.00050813943,0.031031318,-0.08278513,0.045262024,0.022702742,0.006957777,-0.04225301,0.021367904,-0.017030416,-0.026333693,0.04932336,-0.011986709,-0.075836934,0.034881927,0.0058634053,0.07797719,0.017701078,1.4351170999999999e-33,0.085800454,0.005631209,0.034302596,0.006140121,-0.08586344,0.009286633,-0.010305212,-0.014842688,-0.10750733,-0.016197044,-0.06372465,0.01862842,-0.009749199,0.018263174,0.029654054,0.05929247,-0.04728109,0.035433114,-0.04130204,0.12011015,0.087280355,0.043397214,-0.004823206,-0.013291323,0.020166505,0.016830413,-0.02507223,-0.068565786,-0.06394973,-0.012907479,-0.04631452,-0.081763156,-0.13111213,0.024495631,-0.05043812,-0.02349933,-0.14952807,-0.019624352,0.021265337,-0.030098362,0.013988359,-0.034148697,-0.062706806,-0.020117749,-0.004204342,-0.0039633093,0.016255204,0.005540408,-0.032764412,-0.047659658,-0.019273827,0.014746953,-0.012218356,0.025389658,-0.04203248,-0.007004072,0.03287374,0.05206925,-0.040296774,0.037001252,0.077568494,-0.026675206,-0.017582461,-0.0075632576,-0.007417985,-0.09512399,0.0081228325,0.09355739,0.045749523,-0.05725297,0.022062719,-0.026655538,0.069135316,0.085030206,-0.032319717,-0.043145493,-0.012061887,-0.0021004344,0.0040881964,0.026007004,-0.06022884,0.010390913,-0.028561387,-0.051206432,-0.07178604,0.04194153,0.0649085,-0.04513599,-0.08901768,0.04808444,-0.025425848,-0.009332926,6.495144e-05,0.011106821,-0.05445855,-2.8939479e-33,-0.00077487895,0.0021566318,0.04279075,0.042347006,-0.007893069,0.02351958,0.04054334,0.095481664,0.04112414,0.039794564,0.06759001,-0.034399316,0.007393094,-0.018419333,0.012611803,0.016212406,0.0038430542,0.01844778,-0.000370122,-0.021513782,0.066287264,8.879482e-05,0.0028759267,0.027379658,-0.053329222,0.00895313,0.061844584,0.010419643,-0.09469552,0.06097428,0.046730902,-0.036113117,0.0053654853,-0.023727085,0.01238636,-0.02239426,-0.0056856424,0.01912151,0.008239253,0.10787022,0.05905195,0.017375944,-0.02077681,0.038693804,0.014728082,0.011664952,-0.008111239,0.010959664,-0.002690206,-0.046094358,0.0042481646,0.051770035,-0.10795014,0.05658219,-0.017057432,-0.02578402,-0.055287298,-0.008401243,-0.013298248,-0.018727638,0.03333854,0.012367078,-0.00083071645,0.012016717,0.011916937,0.03682123,-0.019525776,-0.019129716,-0.045584474,-0.032913372,-0.009127172,-0.0754345,0.06328624,0.04590296,-0.037173986,0.008129813,-0.052063428,0.049434993,0.042706467,0.013645285,0.008134295,-0.084181696,-0.04509761,0.024791025,0.0082029365,0.033769045,0.026444104,-0.05477367,0.037844755,-0.022491435,0.005547176,0.015387564,-0.018645348,0.011901056,0.02377095,-4.4634405e-08,-0.014636202,-0.03638238,-0.022152144,0.045384325,-0.0774789,0.03316822,-0.032573335,-0.0650792,-0.018620204,0.04321271,0.06811982,-0.059429064,0.0028185633,-0.06670503,0.042235974,0.02020674,-0.02836309,0.13943645,-9.227616e-06,0.0635143,0.050021473,0.009071415,-0.03019915,-0.0028039014,0.00077695714,0.013567113,-0.046721853,-0.032485094,0.022003803,-0.008403586,0.06362807,0.021343084,0.053892076,-0.027763627,0.017686626,0.06799713,-0.03365368,-0.06202042,-0.011375112,0.033863787,-0.021607356,-0.044504445,-0.057101272,-0.020101715,-0.020517139,-0.041034367,-0.041834228,-0.04116343,-0.054383654,-0.008672959,0.07361304,0.027616177,0.010740773,0.06453891,0.082399145,0.052242417,-0.0518428,0.0062577603,-0.03942048,-0.029051138,0.016545417,-0.049455084,-0.024227945,-0.011720718
